{"initialinputSize": 1, "layers": [{"neurons": [{"weight": [0.05348422486437565]}, {"weight": [0.6412670198982858]}, {"weight": [0.8782931851179961]}, {"weight": [-0.7578082229597233]}, {"weight": [0.2721531226454688]}, {"weight": [-0.7807152771256259]}, {"weight": [0.6258891862527788]}, {"weight": [-0.150555194446411]}, {"weight": [-0.7826553694206818]}, {"weight": [0.3350686210227983]}, {"weight": [0.11193034840567773]}, {"weight": [-0.8241710586330292]}, {"weight": [-0.7116774941680947]}, {"weight": [-0.9733694498524305]}, {"weight": [-0.7748248766282256]}, {"weight": [-0.45544601938658297]}, {"weight": [0.34953278884177835]}, {"weight": [-0.022260641029901565]}, {"weight": [0.4609621877396984]}, {"weight": [-0.6692798769779306]}, {"weight": [-0.5224186509623484]}, {"weight": [0.319023139870319]}, {"weight": [0.8765296048087353]}, {"weight": [0.8293016158764451]}, {"weight": [-0.6924001171291408]}, {"weight": [0.048756934540062025]}, {"weight": [0.20685180352321939]}, {"weight": [-0.47737065717005306]}, {"weight": [0.8831806860201817]}, {"weight": [0.3548581527665023]}, {"weight": [-0.2084177732937205]}, {"weight": [0.9651724598448704]}, {"weight": [0.9795494659681659]}, {"weight": [-0.1795198332666237]}, {"weight": [-0.5075496581739781]}, {"weight": [-0.7947981534703706]}, {"weight": [-0.6348728415403718]}, {"weight": [0.4744678862370633]}, {"weight": [-0.26915698416897443]}, {"weight": [-0.5822812679068935]}, {"weight": [0.3480463092402329]}, {"weight": [-0.5526434389709108]}, {"weight": [-0.7495230936808593]}, {"weight": [0.6114088996952521]}, {"weight": [-0.9526425849020271]}, {"weight": [0.25870415633462335]}, {"weight": [-0.15280667155973252]}, {"weight": [-0.05995592258353688]}, {"weight": [0.23229758685453047]}, {"weight": [0.48269066915189823]}, {"weight": [-0.24395749690135052]}, {"weight": [0.20322805245874728]}, {"weight": [0.15212124377556344]}, {"weight": [-0.25304035140051545]}, {"weight": [-0.26020436729278024]}, {"weight": [-0.9249771146033335]}, {"weight": [-0.7508359427872365]}, {"weight": [-0.19085603579217983]}, {"weight": [-0.8952234705067156]}, {"weight": [-0.9029440987403005]}, {"weight": [0.9849098883216073]}, {"weight": [-0.9385313975859014]}, {"weight": [0.6373242561454681]}, {"weight": [0.11985112572606216]}, {"weight": [-0.7149638506333788]}, {"weight": [0.14799163961957792]}, {"weight": [0.04894478284407322]}, {"weight": [0.13351060006717194]}, {"weight": [0.604786978221734]}, {"weight": [0.15288229238229764]}, {"weight": [0.9530020059213727]}, {"weight": [0.2368490144271271]}, {"weight": [-0.9391503332789667]}, {"weight": [0.6591620862947675]}, {"weight": [0.526817386280782]}, {"weight": [0.9799853276544318]}, {"weight": [0.6109497578672022]}, {"weight": [0.8598749001135445]}, {"weight": [0.036199343564802255]}, {"weight": [-0.47934730551470056]}, {"weight": [0.34898766017048716]}, {"weight": [-0.3181420694151919]}, {"weight": [-0.05996514428141486]}, {"weight": [0.9096234744878843]}, {"weight": [-0.956593075502432]}, {"weight": [0.37820689125491286]}, {"weight": [0.9886547713101824]}, {"weight": [-0.8090084131531158]}, {"weight": [-0.8568352372521154]}, {"weight": [0.9791215564825418]}, {"weight": [-0.2644872763988068]}, {"weight": [-0.0790582398525197]}, {"weight": [0.06224225720398868]}, {"weight": [-0.18253248246579015]}, {"weight": [0.610383307366981]}, {"weight": [-0.9585816971503761]}, {"weight": [0.829844628284521]}, {"weight": [-0.05663562277293388]}, {"weight": [-0.501854975963575]}, {"weight": [-0.25714710140307145]}, {"weight": [0.873095908407202]}, {"weight": [0.0972748951857818]}, {"weight": [0.374514237803153]}, {"weight": [0.766076655681775]}, {"weight": [-0.7248586223738326]}, {"weight": [-0.846286824699558]}, {"weight": [0.9353928860424182]}, {"weight": [-0.8323825310230258]}, {"weight": [-0.2950682649957352]}, {"weight": [-0.7943471788638138]}, {"weight": [-0.1854120420477752]}, {"weight": [0.7259818395831533]}, {"weight": [-0.9734287172203228]}, {"weight": [0.32889388348413423]}, {"weight": [-0.3215965983503985]}, {"weight": [-0.8822142927908011]}, {"weight": [-0.5038754869878957]}, {"weight": [0.19119721742750137]}, {"weight": [-0.9901230351315552]}, {"weight": [0.40511599499110323]}, {"weight": [-0.3975093466015022]}, {"weight": [0.4105851710133906]}, {"weight": [-0.5786673027700487]}, {"weight": [-0.8865101137048298]}, {"weight": [-0.3989033811779707]}, {"weight": [-0.09811980756049365]}, {"weight": [-0.6563913697643634]}, {"weight": [-0.9404963455161245]}, {"weight": [-0.13468130700785433]}, {"weight": [-0.0553998954369368]}, {"weight": [0.1870630875819683]}, {"weight": [0.1945133046599101]}, {"weight": [-0.3798834735056202]}, {"weight": [0.26374306584328094]}, {"weight": [0.38967525936185493]}, {"weight": [0.6863900678920393]}, {"weight": [0.046866531792766786]}, {"weight": [0.9808267769346249]}, {"weight": [-0.4075593120692664]}, {"weight": [-0.007797924221374833]}, {"weight": [0.1450946351337172]}, {"weight": [-0.271176834387804]}, {"weight": [-0.5989765708626579]}, {"weight": [-0.26286326267845256]}, {"weight": [0.06609456934996061]}, {"weight": [-0.7384835262937267]}, {"weight": [-0.4641529578715768]}, {"weight": [-0.49853178834460493]}, {"weight": [0.9792427382546965]}, {"weight": [0.5379117848374094]}, {"weight": [-0.6789455175004343]}, {"weight": [0.6629309151455972]}, {"weight": [0.7030341279045819]}, {"weight": [-0.12767360724167223]}, {"weight": [-0.7762012276101734]}, {"weight": [-0.18271731437951758]}, {"weight": [-0.3129866372482934]}, {"weight": [0.5778452387962948]}, {"weight": [-0.967085717272551]}, {"weight": [-0.2140886042086372]}, {"weight": [-0.6226864381269509]}, {"weight": [0.1682421457964924]}, {"weight": [0.429053753940933]}, {"weight": [0.12317437105930873]}, {"weight": [-0.3822480985345164]}, {"weight": [0.7239490994229499]}, {"weight": [0.5331146331235751]}, {"weight": [-0.5969439371913002]}, {"weight": [0.32808206230299924]}, {"weight": [0.6611005968616611]}], "layerSize": 170, "layerType": 1}, {"neurons": [{"weight": [0.3084794681278662, 0.4347610313355499, 0.34082333640366924, -0.11797660471453253, 0.04342210643742421, -0.1725889240825469, 0.09829840353530729, -0.307449730454711, 0.4786836246649473, 0.014434311428247623, 0.4250794838066567, 0.644544811427838, 0.8838877213780214, -0.45492246400980685, -0.5897828779570404, -0.6312092520242039, 0.5073166318156354, -0.7089635125025464, -0.752126512185814, 0.8600378026470903, -0.7538845126036902, -0.05168522613463307, -0.8679803053750376, 0.5332856308735309, -0.2521399653586933, 0.04508184404267583, -0.6638949425779722, 0.5430725992416614, -0.6667169135027232, -0.1164519977453956, -0.24424584841304098, 0.010658431826393075, 0.17963542142239558, 0.703957754490979, 0.8166081575597781, 0.4429165159926336, -0.1879564281051429, -0.48799884693287643, -0.8081755514318263, -0.5566292269165023, 0.5872037957437616, 0.9264452553176188, 0.3920296391244704, 0.7119682128060404, 0.7233444246984195, 0.1510105571577875, 0.6266277837489387, -0.9581794166090318, 0.14636514387226812, 0.02500685016558284, -0.051741181835740724, -0.07844871061726875, -0.6489783596381741, 0.33976592058450805, 0.7054593580705164, -0.1889651349245034, 0.4563237762787924, 0.8933893443545284, 0.758395230561403, -0.9648315586861758, -0.39654343156644, -0.24927121022191834, -0.6353958404531174, 0.6451829338750882, -0.8074812381806411, 0.5935130958343692, 0.5132149397399436, 0.7941149934521387, 0.6180210238182399, 0.3990292526530821, -0.961312384654006, 0.6570699012642779, -0.12915484255027287, -0.34967550396917213, -0.17134094359977353, 0.35948944013176787, 0.4395883734115824, -0.33837740281632267, 0.03363027264632838, -0.3061899118254032, 0.08706113237605141, -0.04994727751201067, -0.41290121080571596, 0.8368708304467455, 0.8166856947404433, 0.18128829397995888, 0.5145680237576421, 0.8825443880416035, 0.6141518821188476, -0.4018528092237055, 0.6963320800901351, -0.5297549625021785, -0.9522624437667669, -0.3574791506020716, 0.6775143132951734, -0.3254439615158291, 0.14842059678525227, 0.9281983775054012, -0.007758392831671124, -0.4751478799429991, 0.5570332804579293, 0.9316718149042912, 0.6752239172605986, 0.34224346214950385, 0.63278043155283, -0.0709578822289112, 0.9035337996754013, 0.014702683688773366, 0.9700953496219695, 0.3832313490721442, 0.28138040798963915, -0.8338611748971697, 0.8129180843042625, 0.8292438508557095, 0.2679613099519278, -0.5962575140672439, 0.06281205434934534, -0.7049804858034868, 0.8248248312998812, 0.11264961571355227, 0.3860556349769, 0.7041391012369037, 0.9586301368098884, -0.15647002835358936, 0.18344861013625757, -0.7493903303366445, -0.8547914015531946, 0.8720218251013414, -0.12372291789222678, 0.1346222453200574, 0.3280025201038521, 0.816622286462593, -0.22361200008904802, -0.5992289558787144, -0.9206197891334832, 0.7983863325779971, -0.546394718730523, 0.1637912511643917, -0.6951977812557204, -0.868190770334887, 0.2742068444211645, -0.2430212560489451, 0.06994245212785932, -0.9411334382699268, 0.31174893244009994, 0.7538041765702137, -0.8729424483026567, 0.019178806813321847, 0.43533944851464956, -0.14762000765907418, 0.8981275473215007, 0.13777834478637357, -0.6679435643219277, 0.5949823617054495, -0.9698561500034695, 0.8085944292109133, 0.7163007345482824, -0.71259080906649, 0.5287504693108267, 0.20403028821271563, 0.9831293698678285, 0.8465823678266119, -0.6029634733802011, 0.005566099950053007, -0.6452332072940115, 0.46421366418120136, 0.11420738480027705, -0.5675202632894856, 0.32916810137132657, -0.40329980910020535]}, {"weight": [-0.10614951331053822, -0.5748621847990701, -0.006833421406500304, 0.9570665766531099, 0.29500882488554847, -0.6169967633861377, 0.3949053106137248, -0.017723662417004515, 0.8057086629347525, 0.6867711278216143, -0.7195620530566168, -0.04942122645560021, -0.14514621532055116, 0.030052743140645433, -0.5413541123657821, 0.19756565284528804, 0.7822966575771052, 0.6590725738807557, 0.0985808487497243, -0.8424721177911958, -0.6763336435937803, 0.7959359188994045, -0.5255441970539855, 0.5177462773783083, -0.4313817090140748, 0.5343988435670716, 0.8523277556723877, -0.43992011217614735, 0.03957292230407232, 0.289169614535826, -0.24857316487323655, 0.7659546576937636, 0.4563036178339046, 0.47299415050145166, -0.7657118644782861, 0.6256235982697111, 0.7629883675797038, 0.17960725088266444, -0.6917385334442328, -0.24380920904144165, 0.3726797633056844, -0.08020802945920691, 0.6708502269311156, 0.6890496201638187, -0.6857045676635456, -0.5130846917594257, 0.10496041278288204, 0.5760863930969766, -0.43026852162401075, -0.7886319653768247, -0.7224786032851818, -0.06519070815188642, 0.3930848559380793, 0.5000650074234618, -0.39783078332857746, 0.12544163032761446, -0.9882660487372787, 0.20660915340598374, -0.532249725618996, -0.16369551252151093, -0.7359301759945452, -0.5914172420026613, 0.3508104398778029, -0.28699722869685895, -0.5389489063073805, -0.48369346565566174, -0.4639505068379448, -0.8297753276358907, 0.9237598025211965, 0.33846517683988164, 0.7895827143780046, 0.4900450471529645, -0.10083269119209204, -0.9197873171283074, 0.5218750249495933, -0.5768022832584799, -0.06660611659056835, 0.4374875525682729, -0.1235503169681612, 0.6554078631361946, 0.18673563635914298, 0.7960395743014144, 0.03390875028425144, -0.2522284030429802, 0.721659201691905, -0.5491293532394984, -0.2102364325365454, 0.8382053826293172, 0.17121253391398028, -0.3737705575356087, 0.9657645716765577, 0.9565266038049864, 0.3340558344150113, -0.8410364350219353, 0.9982060231437372, 0.16050202074829634, 0.36520688759929065, 0.8395961476201077, -0.8073353700560437, -0.2652409821392936, 0.4347374703740894, -0.6286101294378145, 0.43794434414002037, 0.32864345410492657, 0.8869751079554129, -0.059009232831068736, -0.9801017246961076, 0.5567046926678763, -0.991991317459864, -0.5496472257242886, -0.02143309221968903, -0.1171211054593989, 0.8337045037700235, -0.5694674274004142, -0.09982624208841817, 0.03753707199613188, -0.8510083467309104, 0.9191701023710669, -0.4627019907015988, -0.9642212371908644, -0.8381936661161478, 0.7752928728827627, -0.43244488344443766, -0.8489418360652496, -0.25876644243400504, 0.1637436901620204, 0.243282151286776, 0.6231414323039266, -0.5726547456305022, -0.5789235413914975, 0.527561564009024, -0.8839444823739152, 0.5348663590302938, 0.25633825568551805, 0.32725227045614624, 0.8080136172497899, -0.6383726106320661, -0.08702430879043198, 0.8924671349679398, 0.22730913743045322, -0.6795822763281149, -0.830781505807449, -0.1401441020543961, 0.3764700936222152, 0.2854024476838932, 0.7329005182666488, -0.0936500571094756, 0.6925863443772384, -0.04878403224559731, 0.45879074310000534, 0.1813996896201453, 0.4401254558115455, 0.8065836616555752, -0.1600558186710197, 0.14491209661305549, 0.42481626777132897, -0.06937785342224334, -0.09772839937181264, -0.27765549327317784, 0.28519385075143133, 0.8510544702007421, -0.39070024788119095, 0.25611474117685984, 0.618168103120797, -0.9529401571173921, -0.056650658981029015, -0.3136101347638227, 0.9943764522900489, 0.3549036834987265, 0.4052237420511864]}, {"weight": [0.7142901222900003, 0.08898279964307178, -0.9980112860961091, 0.2697905281406421, 0.1270664498106488, -0.9529472122038489, -0.7373486024988137, -0.475187938936656, -0.5363968732047015, -0.8978857740687493, 0.42511504842535586, 0.5598068956122457, -0.07777294122178002, 0.9379091036126663, 0.45659881072776587, 0.1433760176594181, 0.8441828147576639, 0.09612612562374734, 0.5806851993584702, 0.10942039270261716, 0.6024931355453984, 0.556908057240101, 0.5397154356621195, 0.12224278337676066, 0.2637612642223355, 0.0714694475683383, 0.6744458121411142, -0.01280157182401842, -0.018569427736300947, -0.4437063767323388, -0.593945650437939, 0.136706086837397, 0.9987925054727792, 0.5364758629649375, -0.7568017350181422, 0.7366824117628674, 0.8532894511845912, 0.7958450961227289, 0.22223785967249365, 0.08630676563891782, 0.3373681844951908, -0.16309196033129947, -0.18537846365263877, 0.6674392616479449, 0.8494220638726269, -0.9624436278944352, 0.8589202093324348, -0.052094450283574956, -0.7155049773087495, -0.7337031028242064, 0.1853582071417621, 0.16301601730798215, 0.2484175536025363, -0.6766423888009365, -0.4141413399400391, 0.7169173229753152, 0.5481993928732258, -0.8017726157452068, 0.7076034439863479, 0.9250913431952577, 0.2543902783188363, -0.6049815626633075, -0.043008305146864226, 0.3881317938376694, -0.6570325170195557, -0.2096188735438776, 0.8383766374603742, 0.3418522110150033, 0.774755097100993, -0.11917626615499165, 0.3714061626495897, 0.2711143853762983, -0.2762528475266055, -0.42303856765075554, 0.2922774401067578, -0.10788207116170488, 0.9552076069579024, 0.45549231746871377, 0.8279626511131651, -0.36890582685983375, 0.40060858996735416, 0.657465649512156, -0.025460530726816533, -0.9238374906191812, -0.7947952854177951, -0.4711170274049794, 0.449392999231526, 0.1798907045024818, -0.9616072829426747, 0.9290866892152091, 0.8820786950432362, 0.061770974967906955, -0.3062641567569435, -0.5222326051719355, 0.034768690212931316, 0.09396322011351077, 0.8315997015358342, -0.14604054061562288, -0.8714844917796276, -0.3849157166354453, -0.9227421633697027, -0.8758799810189651, -0.6791293643433963, 0.8336654378382754, -0.005850834652401327, 0.5245847149510381, -0.42553110695272545, -0.3543307989681286, 0.49214419117438246, -0.3302666717029987, -0.8344172742482681, -0.5095542467202382, -0.948577029455991, -0.667874248720184, -0.5690074708895807, 0.02136608686218122, -0.3886337163731757, -0.4981291795396514, 0.7265308011036862, 0.37880361615621894, 0.764235657284615, -0.5141997436184341, -0.04100298743978348, 0.8798638544724178, -0.09213889892208416, 0.36618912311874685, 0.6824161862365266, 0.4491725035331726, -0.32134307192568623, -0.4441210715641364, 0.9065126147576442, 0.5777670312371549, 0.07383430622105425, -0.8910450910302735, -0.7016151487421259, 0.8066743158316433, 0.910384857697805, 0.07512174780025672, 0.987888556089755, 0.3314521609750867, -0.31825412044078494, -0.7945179863963396, -0.9121933015893764, 0.8083078005228346, -0.7763241976656327, -0.08534463625491728, 0.03932441798203956, 0.6676649753049957, -0.17115492276516014, -0.1979975364577043, 0.6932054464669273, -0.3185609727938563, -0.06337074899598437, 0.8014021500111994, 0.6405005130264569, -0.07060103606390955, 0.5772652480955043, -0.337799591303237, -0.6234631664142687, 0.8493678826338926, 0.981335132748224, -0.29989332854397177, -0.027720606994067042, -0.8342512820678482, 0.8405811233825389, 0.7830947886116942, -0.2285677488012126, 0.9824369187064157, 0.48425679008350975, 0.11641423955027576]}, {"weight": [0.06321243242741938, -0.3783243400955447, -0.1607802523106741, 0.8563603213633004, -0.3554970827760213, 0.36495280129529206, 0.265437707654987, 0.5462247441943298, -0.2102472056079765, -0.14392352134691283, 0.1692176097616928, 0.6618691377185233, -0.34381559314797117, 0.8018122483589165, 0.5716128735828157, -0.49030504732984137, -0.4325898646611377, -0.3777903243576537, 0.1933993059476597, -0.7230895833697706, 0.867617180453883, -0.6551428177189637, -0.6945204687770224, -0.10058912943171992, -0.09829062782782372, 0.7732467556072903, 0.9420923586552373, -0.4240335676208016, 0.804954843427668, -0.7652703632403234, 0.9894814218613923, 0.22813298704746682, -0.32169277407895946, -0.11616534689362168, -0.8629866507509787, -0.37005322736074775, 0.4238946338502081, -0.031505814692061554, -0.6767126522919247, -0.09349828239899849, 0.5210084153640372, -0.5996798143255524, -0.9999371006270592, 0.9796512128014484, -0.8686357586878732, -0.27469420650940624, -0.3757619626400239, 0.0053515512061206305, 0.9816321951762496, 0.4204016776660129, -0.5681930942887887, 0.2651588667178648, 0.6067751144839953, -0.1724446756807947, 0.8623956132640711, -0.550473302358143, -0.6554855667780477, 0.12675370597834168, 0.7706261267256247, 0.7388946224989532, 0.9363063053834811, -0.7505876265308353, 0.15834646537563474, -0.8833788857067669, -0.68439970204904, 0.45665848133594067, -0.7902896996656409, 0.6581622009824103, -0.8729717938563645, 0.26278117127243994, -0.30972883854187705, -0.4863170623687012, -0.986268451452502, 0.34121246461040045, 0.8948310202552253, -0.4369480079419541, 0.8290939162282037, -0.404517728011051, 0.35030106449922793, -0.2600458104673846, 0.2417107247479246, -0.3749005786884714, -0.47963869287118843, -0.9760202860487791, 0.22038182707428788, 0.3656660633668882, -0.7762040779609419, 0.3585506853579412, -0.651564826203918, -0.6526827195167549, 0.06510618655856404, -0.8505827340011634, 0.00880087446023052, -0.8223850112393143, -0.5993768212596219, 0.9161379104650713, -0.5715306241734867, 0.9446736561240894, 0.4689250354704164, 0.2675700586398184, -0.9059128586919211, 0.4550748768922166, -0.5539289083268985, 0.6778731018817165, -0.8948998351750277, -0.7255496780927648, 0.29358350744723527, -0.09390140629195609, 0.2868662999433087, 0.13493186683324732, -0.9800674679666732, -0.5915268256788974, 0.5675622524044419, 0.04294732682401407, 0.8983853804862361, 0.5349256240143201, 0.29382813920234097, -0.18556155202939878, -0.6318169486139049, -0.6392600568484853, 0.23688038150028712, -0.6889916257794965, -0.46335005812485486, -0.272556408497304, 0.5039845574967075, -0.6981934379443844, -0.638618235788281, -0.7374713019971131, 0.5970014853305496, 0.38563002814443137, -0.9418702403171842, -0.909712159562552, -0.2491605618370467, -0.7828905772553046, 0.6854372590413386, -0.29903461125194575, 0.21322378230555866, -0.6808662946932579, -0.45560193422139617, 0.2877551426299121, 0.6048740851158744, 0.22808878569757285, -0.02897976978739325, 0.9334656867512237, 0.7713171894317253, 0.2618212809151328, -0.06753821704576746, -0.06295794695710066, -0.592836704350067, 0.8559485655419315, -0.7956899333479706, 0.2662936133598084, -0.4397512663411165, -0.5535965353241514, -0.40966335901713835, -0.19192670357412367, -0.683607285314801, 0.9622984723211451, 0.04440171245999758, 0.353850798983002, 0.13530228280631618, -0.03371200710073936, 0.7364560991694572, 0.3552212950412448, -0.1509020461788142, 0.7065388228109833, 0.17365609785984532, 0.7276656332899587, -0.6220624274936822, 0.32716419964012444]}, {"weight": [0.08570239555717575, -0.1527938056612091, -0.5220195003877156, 0.3847545416089173, 0.07531118939469907, 0.7994170185247662, -0.4049398862530236, 0.4362003328527526, 0.9333553978735079, -0.0719241649030563, 0.09267700446158424, 0.6548942699664329, -0.7217004454858742, -0.05915248893622338, -0.7114753727376513, -0.9393043759040058, 0.32154525284305313, 0.4291392106065175, 0.4207153246923807, -0.40677672115712005, -0.19551761669196077, 0.4284080271391504, 0.6259180759969026, 0.6760335538684951, -0.6924313413274845, -0.22397417893490862, -0.5429280148795567, -0.4823314006940145, -0.5945344241302924, -0.2920307842859844, 0.684009960882163, -0.46703129343844174, 0.23418593927076853, 0.7950465839250664, 0.10347405725217085, -0.5648523005124753, 0.5133784010042441, -0.3066870076448043, 0.4684739181109694, 0.10464464295506959, -0.49527843196377486, -0.9997485610692256, -0.6954560071112268, 0.08857758770948444, -0.2786997122000583, -0.9371631194766726, -0.45346812703872263, 0.3811968277803506, 0.17121435012816083, -0.15493425591277404, -0.5730598747160505, -0.22145633382356872, 0.9890844525602412, 0.06064357816943833, 0.50066178262019, -0.9804172077796207, 0.7605619166460638, 0.0898048835019094, -0.46449505365884725, 0.3709469584526144, 0.8422588180873537, 0.6319909597306028, 0.45799831646628797, 0.4220464749635311, 0.7619110402742479, -0.9643776634196809, 0.3322361221051908, -0.6891637267485596, 0.4079135454989382, 0.6741167223976455, 0.30968567412742787, 0.8446541134532787, 0.06682701814217396, -0.9677752511754815, 0.7543687440602201, -0.6914450037424639, -0.29665734130420973, 0.5974975810628328, 0.28509562697423485, -0.6452644614371377, 0.7428527310425302, 0.8953319956307191, 0.9870168029348207, 0.34678884348614303, -0.9942481865621378, -0.9366812696852757, -0.39748175702034927, -0.622771934159567, -0.7195611809025404, -0.30380266567691305, 0.9420431435162806, 0.6480512449485805, 0.8344692031994979, -0.6587479111821712, 0.7244178038117223, -0.11972956598411288, 0.12003518270225023, 0.8562636583325363, 0.0004129068751974607, 0.2882243625554255, -0.03739663180880111, 0.05957466732189591, 0.7581201525364435, 0.3978697056620675, 0.8411513680938882, -0.2327651177083423, 0.07629562848612727, -0.43039598060394857, 0.05158558660363277, -0.5478862640525033, 0.005996596254753905, -0.1816001650543751, -0.9727947699526462, 0.10215888648484785, 0.5818085948760399, -0.13062911948795275, 0.2771086892685499, 0.3531773909389313, 0.6847190263232308, 0.6084753569516966, 0.19805418516210005, 0.1824533735253024, -0.6212546081880048, -0.10010686112930633, -0.22720424473590772, -0.07514841432612185, -0.6243811672235982, -0.6120698376696307, -0.9331176051909551, -0.5584758058694312, 0.5834803006577635, -0.9958924735808395, -0.3715612256708736, 0.4744687561485974, 0.8602693418347024, -0.8585200064007156, 0.8874922703693232, 0.6043906754675313, -0.25114342486479924, -0.04910319753466963, 0.506288094481815, 0.578041404639424, -0.5257363027410302, -0.000521784998333219, -0.46323130734898776, 0.8093323053257688, 0.5855796694071291, -0.11102853842547322, -0.13638792975325736, 0.526061870149268, -0.6074550741867117, 0.7631856889901037, -0.23601352369697431, 0.16455639613660877, 0.6494801090697309, 0.006779964161963914, -0.5535404503944601, 0.3108691021768104, -0.985412761108841, -0.46016156812191267, 0.4975062891225741, -0.48679800228223513, 0.7672358937162956, 0.2522126379337164, 0.21559588714947364, -0.384421333468558, -0.6599571371006717, 0.8772860239246161, 0.9528334756763527, -0.4648944436503064]}, {"weight": [0.13591188549911098, 0.645226646941072, -0.9613327545612959, -0.8955893810899944, -0.12300843885123879, -0.11230028237368939, 0.13719097159364252, 0.4975179526212785, -0.9752332517644713, -0.6700656435125681, 0.7750817153836677, 0.869143286451973, 0.4484529759190288, -0.5011560071201153, 0.5313235257822599, 0.9191120894138025, -0.508139624674338, 0.08545321360644964, -0.621311855152512, -0.6750952122845453, -0.11272737853640002, -0.8940775647838556, 0.2648751620572243, 0.20922717854520284, -0.11200396596086337, -0.415787383440654, 0.09655319213266801, -0.46253361389371417, 0.8869114332116325, -0.727046073856891, 0.32806402498525533, -0.9454453295430986, -0.9267044240628303, -0.6476909105310082, -0.28163385519396367, 0.25144133064067997, 0.6552515911900334, -0.23100815816710268, -0.8752793838289141, -0.07522372561743107, 0.5287691198170635, 0.4821563142220351, -0.32282893108012467, 0.20295015929846433, -0.3330271158097726, -0.373804586397807, -0.189366918323014, -0.057628183858488446, -0.2987721714120237, -0.12165625828299152, 0.7731442852563233, -0.11785557741944729, -0.3510969924022691, 0.4652873560506372, -0.4056218199372923, 0.2924377935442768, -0.04456919757301847, -0.23531073531185465, 0.9730961239440199, 0.705553645780371, -0.5824312716042829, -0.6271448121091279, 0.1388905603783605, -0.892473444275416, 0.8061108028122212, -0.41432297683097885, -0.018120356891400412, 0.6335055093245491, -0.670493368024703, -0.24897842553980915, 0.288123729714894, 0.0009517687481774095, -0.27593391239667486, 0.8912319269775216, -0.42757040947017844, 0.9203320256679709, 0.7032429418710683, 0.11354045008237058, -0.9135471123715716, -0.001056262438616784, 0.9629802829540538, 0.7231917526923501, 0.44316772212299926, 0.9594499072431258, 0.6379235832549521, 0.7414250628874065, -0.8624025017813192, 0.16601363014545556, -0.7551271480727721, -0.6175183368303786, 0.7766466397583982, 0.8187802455555939, -0.460492000640665, 0.07133298503769026, -0.017140286181657926, -0.23836340516616294, -0.588171349590285, -0.11421525922304632, 0.6489505420587669, -0.5806732965729628, 0.39132386966432375, -0.15520825815709177, -0.7586423178219294, -0.07281409679527028, -0.9094005770840456, 0.4803812922280706, -0.22491135819187363, -0.8010333967294234, 0.22427711741699397, -0.6402506446921681, 0.025345441870451957, 0.20609995549992893, 0.04565246030308612, -0.1565738212229542, -0.14969578255384897, -0.47161351619202785, 0.8566045953195704, -0.2992127053167064, -0.6416894636013566, 0.21850891386420085, 0.2615507226872882, 0.015830515216985464, -0.3680917675221247, -0.21794559598021856, 0.9504552145868839, 0.4088800679835414, 0.5826234183455437, -0.9647343600798588, 0.7410949538719629, -0.7705714131219559, -0.8839260087006598, -0.8519800733065802, 0.8685362351621315, -0.3825312909985361, 0.6416010943864373, 0.9800828241735121, -0.9805204474721542, -0.9514606955645232, 0.26328998853891306, 0.48590656356294004, 0.5177743006817502, -0.8955889574454092, -0.7993171540889041, -0.832087152541733, 0.07249447704159863, -0.49532886880088234, -0.9115212351036723, -0.37470570677661796, -0.7698114938307418, 0.2508652004065426, 0.8189460045173642, -0.9608227643776862, -0.056383352813378654, -0.22078779119032643, 0.7993675808274334, 0.91981244235342, 0.31096485098237925, 0.29673280242083444, 0.33597862276592405, -0.7302946286762055, -0.4022405882548634, -0.7424991799448734, -0.9523770324964141, -0.2998945054819018, -0.30823742907226626, -0.7389087619805511, 0.6621393595221697, 0.15372982955676173, 0.9591684115903919, 0.07691409912550452]}, {"weight": [0.14472054025403452, -0.9100457097431455, 0.1122625868046735, 0.257044938182466, 0.21115299127867776, 0.9525748054031886, 0.8789638067022091, 0.04271805440149179, -0.6743304262683296, 0.061159338402060934, 0.03337200151857338, 0.7257390720943098, -0.6265170863307896, 0.5549018234163241, -0.29376255497221426, -0.7878441561936169, 0.556637599746474, -0.2579033181946129, -0.5136927884622288, 0.8279625788779328, -0.2787282190872198, -0.03730588578728729, 0.9300761547439776, 0.642908869916636, -0.9642524021271679, 0.1177387375140694, -0.8972856455709993, 0.21242691508969402, -0.1833703066154196, 0.5292858190184441, -0.4905388761244547, 0.05741018875292318, -0.6126735059414806, -0.7820355815837237, 0.8852000777572153, -0.7998288650086887, -0.14899594179607623, 0.3987190536036094, -0.8308770403588761, -0.6987656244217615, -0.14624154967076836, -0.7282928768123595, 0.36725400103039885, 0.9577436866329888, 0.24325873222513272, -0.04695049844282202, -0.1410435864634203, 0.4271326338934358, -0.4078797710924964, 0.4679254621858897, 0.08895367738559101, 0.618881172862369, -0.903124591887355, -0.746719895916381, -0.19751574782583114, 0.2743593053965938, 0.8582372712009769, 0.2822479494924659, -0.6246804597734807, -0.9752036329319127, -0.043573459939315676, -0.2731424814820764, 0.5649932592050279, -0.30684507790340754, -0.2540625182548306, 0.39266725342072073, 0.5970138327086, 0.6651332839581395, 0.820693583924298, 0.3097063138662661, 0.9673067688664766, -0.5000764761096815, -0.05808896928084173, 0.9049532089832212, -0.9729017127221066, 0.9341516971466318, -0.3735729487451953, 0.706304474621717, -0.9080598700448647, -0.4420491122808856, -0.3531130028322669, 0.5066967530460396, 0.9925060672103807, 0.7038191339967438, 0.2676959197009483, 0.5440759500134226, -0.40079332557783287, -0.028586462830360926, -0.5565726677549008, 0.9833241689940814, 0.24463936745170267, -0.2237060858012423, -0.1556009598619033, 0.8652702127550467, 0.3972696389376762, -0.17086356865752572, 0.042607330525787177, -0.9674331625796659, -0.38552690426407277, -0.8699576131785525, 0.5118409348911589, -0.519462609394684, 0.9343033560237085, -0.04995652820466907, -0.18828196633762895, -0.5879305569326265, 0.5301066231586294, -0.7398567206535507, -0.9881403905253312, 0.42765265518954254, -0.890840644516907, 0.3618658576726008, 0.5354433810468482, -0.3572577190720698, 0.8660247010839359, -0.5061572784506962, 0.6739834363292843, -0.5555210108111742, -0.5214365395078255, -0.06773355648736766, -0.8801569693834392, 0.40747271359758597, -0.6416261613441487, 0.024031704448160163, 0.8427185841263032, 0.5437623355791505, 0.6439200431721037, -0.8075852439472417, -0.4225493850925135, -0.8382426027653649, 0.32160971515862413, -0.011710377645850326, 0.9738486392363281, 0.963702740388768, 0.06819593292758976, 0.05032368390712276, -0.5452074937373382, -0.5207112036592062, 0.9374044965613804, -0.6824896060790784, -0.9311688046937131, -0.86243341563741, -0.5865168486458288, -0.002279842226861284, 0.8295919878950256, -0.7175633466559532, -0.18531395852830013, 0.8210399387881084, 0.745851193649952, 0.7931182957472281, -0.9064274320525074, -0.1855837379169008, -0.5835567906089821, 0.310016624799498, -0.5774459131958107, 0.3419888787687624, -0.9234549231001052, -0.10469375149097214, -0.5858855986958278, 0.17221067710817528, 0.018034706798619515, 0.05403724199283959, -0.9860548073145238, 0.6856168160962212, 0.9668241588184674, -0.06687296661089658, 0.47558286034032005, 0.8649409300368831, 0.34238701066558863, -0.12129792990847253]}, {"weight": [0.2309212782629428, -0.7272054654617778, 0.8291326860216014, -0.11522654541148603, 0.5315659879000246, 0.8366350426884166, 0.4919863124370485, -0.5508752584413892, 0.5491669678874569, -0.6549661727559454, -0.9222119906570948, -0.3577420425974809, -0.8987117598090457, 0.09728892465736516, -0.5023979989843457, 0.035478227098721726, -0.7836158773809362, -0.837680873572878, -0.7347854833229547, 0.7989775528776923, -0.2737354563654324, 0.49327422408110677, 0.1533306087568453, -0.884152017472767, 0.6730945990915382, 0.5432771690787549, 0.39519219446115983, 0.7092352409961371, 0.31313963605894823, 0.5709356583662576, -0.6733314023571548, -0.4185001995213493, 0.9020900847478514, 0.8001763566326987, -0.3799071761143562, -0.44250842306450444, 0.5159836810120404, 0.653687621611761, 0.9830818960481911, -0.0037714212041228823, -0.8265244086848323, 0.14586952309995538, 0.5587237481155873, 0.6240911525325531, 0.18130074363545767, 0.6211729708066002, 0.05401351738228066, -0.49629934452007163, 0.25715187799556083, -0.2315191698253976, -0.12962764089184686, -0.4847210897352492, 0.21751363208079083, 0.6038157288573727, -0.47504273819221754, 0.026768884488269862, -0.06145260891785931, 0.3716579893879106, -0.8887061906416374, 0.40694258152495166, 0.0071934618905461845, 0.39138672148788967, 0.9583294890911321, 0.9025999717830832, -0.5609772710556507, 0.858285836019845, -0.02137568833714416, 0.9410661444337972, 0.48535638409879733, 0.7239257714783515, 0.06525131024059373, -0.6401524768500152, -0.9262105568183547, -0.8310225436123478, -0.014636003158571345, -0.43196406008377375, 0.45151451777687734, -0.08749206158319343, -0.911686507141732, -0.48923795323779573, -0.01472334297439322, 0.5310959931831516, -0.6938876521303696, 0.5454955696068994, 0.21364936305212323, 0.11189171589977888, 0.503578939006578, 0.2589218275355891, 0.5024537817007655, 0.9092608298078918, -0.11866081682911211, 0.24521377729783822, 0.03632184456130309, -0.9424858936774887, -0.5736589001081943, 0.6605919817470194, 0.2852868297685016, 0.9045338930082512, 0.493448391818758, -0.49090919845435965, 0.756253045630202, -0.4726843000842609, 0.9460393445402849, 0.6609267393366559, -0.6814785928596454, -0.8502650539371244, 0.6358714118252419, 0.40273627259832856, -0.41365955450885306, -0.17516049924721355, 0.48493234745806313, -0.8478279799192795, -0.2893846936180482, 0.4284767174528701, 0.3527254980251955, 0.18548268883693209, -0.6872417981614696, -0.8472228478245335, -0.38804884078144797, -0.8821316416134114, 0.3611216719285728, -0.5178113739642648, -0.2360679260931975, 0.6169857567659607, 0.6822945618436116, -0.698580928812611, -0.34639069001566725, 0.8019459102690636, 0.43468611724876505, 0.10103123518431167, -0.3229636487480474, -0.5344564299109654, 0.7029102627354307, -0.009146501115996644, 0.7108121621786884, 0.32609538574097474, 0.13560987895486848, 0.49971718550801913, 0.448148681768914, 0.6496085106510343, 0.6731559618835924, -0.33641733258895656, -0.42049739114298235, -0.3339862457309777, 0.5291393648704826, 0.9197933628150494, -0.5987022372225881, 0.9122381762330525, -0.9966674681364992, -0.1624117770369929, -0.15194154581193997, 0.4886825779107602, 0.4368796605928571, 0.5412910729390876, 0.1582275701731417, -0.03628472003695182, -0.02171839002116127, 0.8500642437255984, 0.7341272528685272, 0.7450016457517008, 0.49407119845848757, -0.4883958584596404, -0.8548846954998724, 0.22225610309225224, 0.9807624140537103, -0.5119290537217477, 0.7310792152381894, 0.536283132867484, -0.7807488904168255, -0.8622183939133733]}, {"weight": [0.9643147937972142, -0.1386114785335087, -0.5907688392983853, 0.6608079729305858, 0.09274312265287733, 0.22745796391425377, -0.5139421993751471, 0.6519460328788569, 0.9385496664022284, 0.09024373693503097, 0.7462545841026035, -0.6294210553524635, -0.32129299687297075, -0.03681670321078023, 0.7359470903351011, 0.6745902121539993, -0.876239778654378, 0.37441634820428704, -0.42232992963540283, -0.5648981864838818, 0.9796955267854819, 0.8410764430858441, 0.8610354121925138, -0.0779898551935626, -0.6152022454527761, -0.23747724045093827, -0.47892468281901457, 0.02106077689790342, 0.38085688119432426, 0.08624542531178649, 0.23950712215279646, 0.7255650676624422, 0.634247277855818, 0.7766853983455324, 0.06605550851628839, 0.4517621730119852, -0.9307772837648454, -0.4962834981632571, 0.07362379791580276, 0.5729018628518758, -0.4606560580580352, 0.041727516510247975, 0.8891596291541453, -0.3759692030141737, -0.030719711997001742, 0.7617051134634542, -0.8539810945505804, 0.28585141288278093, 0.5784688093113041, -0.356395759375685, 0.001515601450501114, -0.4949027623418494, 0.21334639542652617, -0.4143738538120494, 0.4387438637873782, -0.893191215997992, 0.9941351633801152, -0.4465530048992612, -0.9628139344414008, -0.996423513643901, -0.38817458805825744, -0.18722100109301554, 0.8478054307693837, 0.9101035968336199, 0.24667790184878902, 0.4489190596578254, 0.7541133391393179, -0.5494296370781441, 0.28767480604557294, 0.650503977450709, 0.9587722107192037, -0.5301882745495624, 0.20354166803722484, 0.8885939460244078, -0.590364488119754, -0.2693423176637719, 0.5607141385565443, -0.18015349920064, -0.619290222655107, 0.05600553880868753, 0.3860008560690422, 0.8269752335387903, -0.16432988419836625, 0.4867066892948535, -0.4885849770041468, -0.15603899644005043, -0.8789865508634812, 0.28908509544655137, -0.6732709499308975, -0.18163349178285465, -0.940844788996176, 0.40714266644346897, -0.7523074735279224, -0.3254451749809757, -0.38381531685256864, 0.9067409901293377, 0.30372690122118473, 0.8328887456038498, -0.14786097330285863, 0.7267373616079253, -0.13000115515509264, -0.8720908644268032, -0.7063413160089361, 0.6708947094357746, 0.07830051067085231, -0.5286928836666627, -0.6598472830025072, 0.8253414318996426, -0.9133360636728995, -0.5286686872380775, 0.7440158446234402, -0.8646742566766005, -0.08256656347883462, 0.3589038779006335, -0.0642541931238223, -0.4829743168646101, 0.6277359901651809, 0.6284479581700574, -0.8977170366439102, -0.3796211599361541, -0.08587925346557213, 0.8949388340219321, 0.5527844885904383, 0.6078489981872923, -0.18075256491639236, 0.9256210436775825, 0.5229819069162738, -0.955326868281476, -0.049086296206133584, -0.4081539272182335, 0.018763839334731292, 0.0012828200922984456, 0.5567021650622777, -0.6515359898103276, -0.33730829563108555, 0.8722121584056591, 0.9207934829490801, 0.8676987865744622, -0.7044319774593497, 0.16059930744077766, 0.5329730511382477, -0.9748225155896737, 0.7333144482238985, 0.4428024852799992, 0.8182643473190457, 0.13235220763055255, -0.5141575599299388, -0.3134239679890589, 0.7857706162978922, -0.12181910882714907, -0.3050462277082093, -0.4741687889406687, 0.6966950036965623, -0.915562433853623, 0.4924265699034662, -0.7084876217172671, -0.9879592512730706, -0.3599594507860169, 0.844083182630214, -0.5336300692160176, 0.1640160634070189, -0.4754235234707942, 0.9764173858172872, -0.9954710703439343, -0.8242266348040741, -0.1329350141154207, 0.03806462667177228, 0.3161440849772994, 0.07771637846831671, -0.3368203872465114]}, {"weight": [-0.81839894108672, -0.415048495954615, -0.9801747730632163, 0.6970062600623115, -0.02184837334707763, -0.3106619247382032, -0.5179256160369664, -0.022998468359488156, 0.977606673269708, -0.9528596601164859, -0.7936182103283628, -0.19605350658649923, 0.973568069714912, -0.09771561879056012, -0.4773530789888616, -0.5769816500995526, 0.17371309242873417, 0.7026059663938675, 0.46300205268971495, 0.20472499690253376, 0.24128966857289313, -0.7505844030557528, -0.5391801759896565, -0.8049078495784364, -0.03993902006972605, 0.6331258940550145, 0.4937554479199828, 0.29161526014714156, -0.01705786603942745, 0.4016202590339515, -0.4690287692314741, -0.309470710851955, 0.455101780461312, 0.1710739463784945, 0.6327439341691883, 0.7979017766472178, -0.5666557431937338, 0.5270731127531015, 0.540485859443417, 0.6534257844985072, -0.44004262418617035, 0.4812381269964594, 0.7672271078581763, 0.05309183457738402, -0.8462138296301203, 0.881460317682713, 0.7275835599778977, -0.8116170716017237, 0.8679844544257532, -0.8790916591524746, -0.3205802819260397, 0.8898853690013914, -0.4257753271232734, -0.8321361532459619, 0.7145954900904545, 0.8342860126574034, 0.7351842724749087, -0.8131409430312111, 0.6428596186175861, -0.6309218934277103, 0.01588164553926401, 0.2325220213200101, 0.04576069995018221, 0.769144916786631, -0.6234582542287896, 0.32991515276820826, -0.4729071266371565, -0.46278921014409335, -0.3664028217073736, 0.8700094573809408, 0.8277228405904212, -0.5134703507992181, -0.2536124063186771, 0.8395037701855211, -0.939245878861077, 0.13631827410440372, 0.6585264459317518, 0.25298779117823456, 0.8078835504586125, 0.8056066486979954, -0.9073548568912896, 0.48285472042263944, 0.3575494736099243, -0.6935448700912833, -0.08335457853250272, 0.8299402612761534, 0.503456255415697, 0.8206510826334124, -0.29506113843692683, 0.5959652035844994, -0.3433767788875248, -0.9637632223754418, -0.27596058141654556, 0.8034893105988672, -0.9120405271032189, 0.8959648906359552, -0.3228560095809334, 0.34238068203369987, -0.2106656678490133, -0.6724805432600884, -0.8513456778868685, -0.3229167670317472, 0.608327000875135, 0.8364881844414066, -0.7144547334966331, -0.9655903749976191, 0.15055107296830256, -0.19358382873006774, 0.3822264073934265, 0.6965935959271103, -0.19095330126533527, -0.46400118003798907, 0.7506990731076464, -0.5029617542524999, 0.4768926411169858, -0.10232141646931314, 0.09165864299378113, 0.41612914008501156, 0.09952932430419126, -0.18098989669585147, 0.5872154293271223, 0.6146576681887238, -0.6027754465300483, 0.5213899015521677, 0.15838300587929033, 0.17256297511963603, -0.780980222561573, -0.5988742314740159, -0.1978535406916273, 0.13530396477099105, 0.5038495094476659, 0.3393462356549368, -0.33824704077044965, 0.9644759324085904, -0.48843552195591, 0.37179159631474556, -0.8043716489254907, 0.49489519619853706, 0.12923769087513137, -0.7109179876391929, 0.8091074493859688, -0.2933659509111155, 0.7550192388679233, 0.010783575695214598, 0.7865254266034053, -0.6529298573880755, 0.2640750052713392, -0.8574176226033172, -0.5826661950223327, 0.8275183879018378, 0.6572643134755274, -0.7645629675921201, 0.1267455728435915, -0.8080069797868545, -0.2444870411137401, -0.5603897865054104, -0.5836596187068788, 0.8432234557032271, 0.7456293692286338, -0.7288291533387019, -0.9113503875487929, 0.6546012177439663, -0.6100756693460309, 0.4678385571466468, -0.8092617886704316, -0.534938447816396, -0.24088020457093845, -0.7888369849586614, 0.7910481856616441, 0.8607598849088095]}, {"weight": [-0.6260120551946594, 0.29418030695787367, 0.11354566057902961, -0.2314341211591049, 0.12234821999927172, -0.3879628195497853, -0.6366899167726939, 0.1643121456733545, -0.4895533790503406, 0.27611176308719054, 0.4091091969914824, -0.11927124173702186, 0.6758874215599733, 0.10793918873567909, 0.8079306208389865, 0.49938432613436134, -0.27039554469124605, -0.1257448455171848, -0.4944674429627749, 0.48698035802450623, -0.674538746566612, -0.9332758137937113, -0.8665857187603742, -0.45424330560692505, 0.9963922454135656, 0.6956119438754779, -0.015481093491560863, -0.6934146035771112, 0.23312575320252676, 0.8252249039422789, -0.10402161614775585, -0.03845256544401694, -0.02598827735138871, 0.14202522807435103, 0.5765197423843629, -0.987732896025306, 0.02368556755284268, 0.5895263215272345, 0.19350710295394924, -0.4740466147358233, 0.2559718726693001, 0.7210782887767586, 0.43758176367220347, 0.18604746177690118, -0.4316106008260221, 0.42634573117481245, 0.9079207336977397, 0.06796648309173192, 0.1811159278943208, 0.3268411931482811, -0.22965457350630114, 0.5865078526953454, 0.1480606408107918, -0.14332345491494425, 0.11370286309622402, 0.6255303601028439, 0.09781172960190387, -0.7029539628620487, -0.6096601149227978, 0.8623913738929616, 0.7418036608353241, 0.41221916554416715, -0.5601175219541908, -0.6828011334561325, 0.9064266877985523, -0.5088348299754918, 0.7744620212688457, -0.1681836394485539, -0.24998635265623226, -0.17061733240336424, 0.47318942903819505, 0.13028094830595743, -0.009058119577587398, 0.09461723253115308, -0.8015857522426776, 0.9643386435368188, 0.6370865087450784, 0.36569620166423, -0.9557255474844183, -0.3296486945849191, -0.01647293804828871, -0.4431003112346896, 0.8629709301223112, 0.10903162708751014, 0.5526074193094177, 0.7768129094335886, -0.819864999028097, 0.06517599188338852, -0.6395654098408348, 0.7522943869396893, 0.2781108230614029, -0.22110963145585627, -0.5035021702614827, -0.4629417712668742, -0.07295075405091965, -0.03105890770155395, -0.04234548146718338, -0.9812732940511577, 0.3430608151243624, -0.5931238015911027, 0.2645046245014744, -0.13030496849285017, -0.7566325655215641, 0.9014818819637559, 0.6900832635110639, -0.6335818069482984, 0.7521346079462771, 0.9667943654333653, 0.7370432751866358, -0.6650166594665563, 0.26306645063149414, 0.38786753775316063, -0.5176474929124195, 0.25724242840666434, 0.32258984575421046, -0.11537896939197712, 0.0591144479274448, -0.6790419247861917, -0.9242834688698292, 0.502272731468277, 0.9503838956333399, -0.8708268349219533, -0.22723181485581057, -0.3686593923535155, 0.9178426353709397, -0.5731075629294702, -0.6326454367435794, 0.4043885760828616, -0.45213040972353635, -0.9641644214277438, 0.6130678684437868, 0.5309698703567124, -0.8025691989745982, 0.2410666136036203, -0.020457858910879766, 0.680715749676518, 0.5787147279572252, 0.5029070573105449, 0.21420024464230258, -0.14470113371193238, -0.48936785292935414, -0.41719979117660744, -0.26848418658036066, -0.4747549681079317, -0.10439958290480443, -0.12441989479060567, 0.780785398080097, -0.4268058052336563, 0.14300976378377633, 0.5538427232320909, -0.46799340262833233, 0.1958099037560121, 0.8392990837541588, 0.21614572353325734, 0.696779229994545, 0.08754748321746231, -0.5427947563152451, 0.6279113899568208, 0.8103065838087142, 0.3047954430362132, -0.2045698790951629, 0.23197064085423652, 0.12465129139177357, -0.1298837365156283, 0.3921563518202844, 0.6802792413946673, 0.8965162373332786, 0.7086974044588894, -0.8044235120622901, -0.7870911718600745]}, {"weight": [-0.11433652596862497, -0.11337806323402365, -0.9889911531359948, -0.10341937695270675, -0.21042191048300435, -0.04967051363324626, 0.40406177206941707, 0.6582206106477495, -0.7667739997967378, 0.21811915972045942, -0.26750953424039414, -0.7867429001310453, -0.18887070343741907, -0.19637735040280457, -0.18564863089988504, 0.8271239619987736, 0.022709440924384806, 0.4123844414635469, -0.12205917779495899, 0.9753517609712687, -0.24889360727557897, -0.891567682483324, 0.08166026398618266, -0.05127921675517973, -0.3166310817294784, 0.8424027812420555, 0.305308324470962, -0.008114695734494415, 0.15009683627456977, 0.3518751506122346, 0.3422652004479605, -0.9709225844305883, 0.24710151535011166, 0.7246095977211215, -0.7479572894664934, -0.2984716181418632, 0.7126872395084942, -0.9596586904728025, -0.24103478798443168, -0.2256034244417091, -0.48628963397928304, 0.7244520365494771, -0.31377915748249774, 0.9122939461523373, 0.3094036380614509, 0.18299845655859265, -0.6454512416275933, -0.5654663899157628, 0.5757159428895516, -0.3060250616354163, -0.39822719701248555, 0.20202231158464506, -0.8002097825598405, -0.465733696206893, 0.28607773947409965, -0.6116595295484775, 0.759997957310451, -0.5704007340875612, 0.9707426052621537, -0.693455936793995, 0.09285607545773246, -0.8632251869120415, 0.6106390051720268, 0.23712146040690313, -0.7158282384379568, -0.5299627961168939, 0.1116899218977573, 0.8792839509595322, 0.02793526202683465, -0.2036058889019115, -0.2642114835586622, -0.05624187435280244, 0.6162166290284135, -0.7800478334703019, -0.3044499602473538, -0.3785429313112818, -0.7096454051463176, -0.5914579401282222, 0.7035186252309878, 0.8356064116129249, -0.0392112493066757, 0.35150779107249885, 0.3388373815053507, 0.9814304540956137, 0.9159034301911446, -0.26710109705853347, -0.9868112322643982, 0.24666881998819878, 0.9004987578583312, -0.29138103709140517, -0.4721207453674263, 0.41461177921209713, -0.7978229943769058, 0.0035920689123492, -0.3257484245755078, -0.9939641153307868, -0.5571697355432194, 0.4799205176274326, -0.5557874520118233, 0.7312773049115184, -0.6301035698265239, -0.9744631914476344, 0.7415235725530235, 0.06768820350344486, 0.003276823037646759, -0.789285867785662, -0.02280237907498035, -0.2680564152002527, -0.5649684594971709, 0.6720035509975042, 0.29673252473778966, 0.950694460078496, 0.9534889469119578, -0.6638873169745464, 0.7663190577923296, -0.8426653772553605, -0.9341136081147103, -0.2924714561890376, 0.9471996495901587, -0.8389886825623111, -0.3940933206041348, 0.9876967103678175, 0.6253565206463532, -0.043615327490586386, 0.7901929186090733, 0.9076378138095984, -0.3331273402377284, 0.8042472185298593, -0.8613176568966889, 0.8337694546207097, -0.9101439052568031, 0.6616136321182785, 0.3355399023191965, -0.9876546908804577, 0.966188406904055, 0.43117799276514646, 0.05092051440378935, 0.7456382705601649, -0.7594440225452632, -0.8199381937481451, 0.7590255526213575, -0.3661510023382586, -0.7477338968303602, -0.652675239731602, 0.929170706334587, -0.9385091673535448, 0.1449024576955611, -0.307597783731812, 0.6185021208055891, -0.9473467570601294, -0.05244147526467202, 0.44982300539085807, -0.5374457902059803, -0.645129574348031, -0.5393143967609564, -0.7757347676777044, -0.25253395285915814, -0.594723137717526, -0.4498187633266961, -0.7815306663940975, 0.305157516346221, -0.4486632241140369, -0.4400722817506697, -0.07916499465220027, -0.5508091875110919, -0.17468738282341062, -0.20767851262339337, -0.21313603068677245, 0.3541558859333551, -0.39696960612431487]}, {"weight": [-0.41588706284689314, 0.7371494077260575, 0.017728322009792952, -0.005581029769109902, -0.8234574930082011, 0.4795149364065845, 0.3235549478696633, 0.8400725070886392, -0.6142180538549908, -0.2709956002614702, 0.2599055932057368, -0.8474262305698004, 0.11018286299521751, 0.378070772112421, 0.6221270375988242, 0.35231298029815883, -0.2537783695544229, 0.9203657752369672, -0.43879131597234, 0.20516063172067667, 0.11713001433916315, -0.92894902598315, 0.47034830882482304, -0.2046338228447962, -0.6250409184877004, 0.20119182938671337, 0.0586992063780835, -0.78252481046951, 0.4645332072568884, 0.7309722630453516, 0.394919764759442, -0.5342323374135506, -0.6689155130482859, -0.9207105271262992, -0.9285152439268738, -0.01784098003474499, -0.3310771113234354, -0.5768737189386949, -0.25207781593683154, -0.3208027676095544, -0.13357530209393792, -0.9846080757577618, -0.08981253950471069, -0.23955184516362232, 0.5054581654513786, 0.33823448417452484, 0.26792161071197285, 0.7605957205501475, -0.1686412396884332, -0.49274801952809866, 0.4059821891446622, -0.8152571926597424, -0.5926859401116592, -0.9682296184503598, 0.22230299416872557, -0.06576151895368665, 0.6687937429075903, 0.1121823378768303, 0.2870964518231669, 0.5114931774116989, 0.2462077999632128, -0.19974226346481783, 0.21161206465983978, -0.5600894766861323, 0.3165649728494988, 0.9442777475721239, -0.4474253724398001, -0.5376039563092733, -0.7180895048943977, -0.4959095192175156, 0.29688245709983563, -0.8310922319394894, 0.1808575784309836, -0.24379677229562519, -0.4917252692602492, -0.341869531118534, 0.46663478605894215, 0.09193321537956635, 0.4159501018521852, 0.7056170070656198, -0.5640596712164377, -0.3830372815071321, 0.6017254383614337, -0.1590479596032533, 0.37610477330509884, 0.24156084022610286, -0.5285394508816296, -0.8808912965473388, 0.9911897540595447, -0.5634271596955341, 0.597974514131153, -0.6510275307439521, 0.5869186697722811, -0.714760864600932, 0.05297534546171494, -0.9289585783284839, 0.22320946900547683, 0.1445622202181982, -0.21218369345647203, 0.05031877112639416, -0.3443774228332239, -0.9186910754371952, 0.9076541542994506, -0.8023059353475274, -0.554590512262868, -0.8642164876105431, 0.355917783083473, 0.9228434725988492, 0.22430824975206098, 0.12759069033568426, 0.43028791498697716, -0.8203152790661087, 0.17645580343676381, -0.35069848720790975, -0.4089079612593314, -0.654005723573855, 0.9521488392114055, -0.544180358052541, -0.06902214230808656, 0.9750547605677579, 0.29802746277670344, -0.4964175905896082, -0.457836391073833, -0.7017758537527572, 0.9989399752177008, -0.8093981802976473, -0.0290270411041067, 0.0058421009515814415, 0.9703573234347047, 0.9204259686728138, 0.7749290273593771, -0.35538073929664815, 0.009094301741501054, 0.8918226754078958, -0.4783750983493269, 0.5726059399936795, 0.750418699685285, 0.4647987587762332, -0.5411683317742464, -0.21125550160798023, -0.28436331784763924, -0.02251672701689511, 0.12064325742818482, -0.3415040339833395, -0.4446321154985078, -0.42751403355357964, -0.7325532446198746, -0.3373958125143488, 0.13635406987463145, -0.8049905135840248, 0.48659459865929056, 0.9814645123770788, -0.7818751962562641, 0.21235361350090387, -0.41448234784548954, -0.5073777358651406, 0.23417179138389232, -0.3388515067031903, 0.5131109602146002, -0.43189391292936175, 0.5934795105740747, 0.8189620904541176, -0.5943079688737497, -0.8919430722211102, -0.08308388666872846, 0.7624576868656142, 0.7758882196185156, -0.3755491033590328, 0.733529774899559, -0.6220254803829407]}, {"weight": [-0.08927257563303913, -0.04741498609777402, 0.8915887874331693, 0.11960393213625276, 0.8866762704622945, -0.45460182310222863, 0.1722511618434474, -0.27370715931420064, 0.009962506929264148, -0.4069495787223345, -0.48012870831108123, 0.744924975125667, -0.9158863103192072, -0.5956844548776787, -0.5480630260831041, -0.5708710109161326, -0.18123477183929976, -0.745674819804697, 0.5565126437892619, 0.20966634767857162, 0.4000845741896448, 0.6299290777911558, -0.890170046003529, -0.8564343959640336, -0.6680543926021152, 0.5621544895533329, 0.2571229785289493, 0.6939298142723975, 0.30493644388325225, -0.7911022691094266, 0.3959985665300074, 0.6498486762213752, -0.5976108629687028, -0.4853436314627466, 0.4375156766502506, -0.46262054781970696, 0.5014209701116741, 0.8656471010489232, -0.9232912235281892, -0.21816080352238987, -0.7171257871610782, -0.23350244165155987, 0.6639192391982986, 0.2968066938937708, 0.26048212729383224, 0.18976527026036155, -0.22503316317598587, 0.340311371809908, 0.9416795838464048, 0.008006596120786398, -0.8965283399213217, 0.6865412881859522, -0.3103580358703284, -0.5502796937818386, 0.01842207839980281, -0.7303213734907126, 0.044117287718371534, 0.37035175816796717, -0.12930116473299647, 0.4887068217851147, -0.06783379500224039, -0.1791777469644822, 0.8440033626945059, 0.6945376700305209, 0.8273208460690744, -0.5412797413769931, -0.5768241672662476, -0.0041116953035863135, 0.18207734882343146, 0.45153285588236747, -0.42928647653446084, -0.12363392933182703, -0.38705949989399846, 0.47769877135509753, -0.880341061557531, -0.862665481805264, -0.7528050547845296, 0.906665099051556, 0.6493016719898165, 0.7061642423906607, 0.3443633633544705, -0.11480473244132616, -0.8962411312970033, -0.03513230073750491, -0.04499778532449317, 0.9373166020731635, 0.2419126370382993, -0.28691494348085644, -0.09900745193234495, -0.2758662313421858, -0.9360373319221202, -0.6099340360225898, 0.42398105525391006, 0.04760362553168851, 0.01791088082811425, 0.1799497360562099, 0.9514646760309454, -0.41864143020666167, -0.4998463532785251, -0.9081728662438087, -0.5492199587519256, -0.3707708599996715, -0.37282606921434147, 0.9902023055760821, 0.050436373903403275, 0.8022725507428594, -0.2729982035853358, -0.9824518142821455, -0.06618737633815197, 0.8688296967042746, -0.14717855918838252, -0.7952566921144509, 0.4211937200653324, 0.0590449536748822, -0.23776501374322878, 0.5506887085925194, 0.7815323947848345, -0.2770413191594694, 0.7569728265877627, 0.7544059874676184, -0.6812554999639213, 0.9624223401876021, 0.11430819323280494, 0.015498094515559835, -0.21773765181793392, 0.33255264150195596, 0.7454549451600108, 0.05413136223535586, -0.26374066199223134, -0.6051445184018553, -0.4303617629689178, 0.8635617355906816, 0.3118220578389863, 0.18877566246261152, -0.24441923902597257, 0.4791286800874217, 0.23837388521431685, 0.39368004486771535, 0.7050198783606534, -0.2920141966596612, -0.5808391290259606, -0.5404940165299283, 0.8360866713038035, 0.59917338082771, 0.7744302240453106, 0.14701526290109657, -0.0715782421174489, 0.30565273887173494, -0.6839814697033982, 0.8893567074608194, -0.8719161836741622, 0.9763646148923321, -0.35172438700065434, 0.9511575490400985, -0.9369438303552919, -0.5209786843899382, -0.9952070902194268, 0.8745089198434818, 0.39443362316550745, 0.9991354737338594, 0.9363672413584996, -0.7826345969294041, -0.48049090156965923, -0.4808983602447352, -0.7238322618277988, -0.7260927459535899, 0.9403539287747401, -0.015588918387128503, 0.143838079742244, -0.3823727644248016]}, {"weight": [0.045189581101567386, 0.9310808398917415, -0.727130481091408, 0.7209472453082029, -0.45066190574475606, -0.7565364433518904, 0.6577320828605163, -0.46100405972558, 0.21313881426160597, -0.44982979105359044, -0.4262859456855379, 0.28854888969731585, -0.5868252204964215, -0.44133804612005356, 0.0999727952111551, 0.1422789432254834, -0.7342504039764622, -0.6369258364087413, -0.6117919030919424, -0.8189728938809937, -0.5059144995635048, -0.3936705906601419, 0.9177888196510967, -0.01791443088770912, -0.635102961425086, 0.6720777153193097, -0.7096305828234543, -0.4845384863570734, 0.05692053815281432, -0.49058656708800874, 0.6120387343231952, 0.26464388181619847, -0.09402570099741912, 0.7697390283470789, 0.7039327884388744, -0.15001362105850613, -0.8092174190492076, -0.1954599198453833, -0.49127006478213975, -0.4371885115829013, -0.9433314106210472, -0.05720858166376641, 0.2212119668521011, 0.8944755001943824, 0.5393032600267262, -0.16498311292722728, -0.6591751262272183, 0.7039033646230388, -0.7416059780610299, 0.5971854124438379, 0.32903650588358246, -0.9986938765960355, -0.07605261558291675, 0.1687425805620404, 0.7543441740316297, -0.7377134657867885, -0.9243079841084567, 0.2926162873022371, 0.6732152716706594, 0.9876209099323581, 0.41761637100272275, -0.7141557514379706, -0.5891525493401634, 0.9736559861499604, 0.24472855308652663, -0.30687443000296777, -0.04204208857564991, 0.3722037616875158, 0.877027306457039, -0.6754566448388432, 0.5361593722730768, 0.3731330418237393, 0.7717924862610039, -0.4357143555209002, -0.4808386337517778, 0.616309799217209, 0.47776391359731973, -0.6316801852747559, -0.96272313336535, -0.8255281701121002, 0.04594966777775926, 0.23522878169395556, 0.34226883128770824, -0.7642226215012645, -0.6216856536074211, 0.28832112779024177, -0.34879748418365897, -0.5586629715302347, -0.92838533173323, -0.7179730568717216, -0.3237744839287404, -0.6697091961763362, -0.5959797594850974, 0.75409394437656, -0.7217077653104916, -0.5425772087136442, -0.6080794127216417, -0.649827493055378, -0.02110600392795292, 0.6170195414848234, -0.07905369224835478, -0.10563536153902763, 0.40462226496882114, 0.11544032550711471, 0.9974173094800076, -0.5206489006613388, 0.6007952151252479, -0.9282451902169766, 0.932539755710049, 0.8704987138976212, -0.5641160093171622, 0.11407010364945326, -0.5039092165224641, 0.8159130013610173, 0.9604784474071297, -0.6408808064076126, 0.5274041497397657, -0.313313156292637, 0.743175355103757, -0.9048838316168998, 0.3501526371065191, 0.1209298583319224, -0.5269168709451786, -0.47109164637700784, -0.8092553987807256, 0.33018640283127554, 0.6483691362754713, -0.03633533878075279, -0.5624235890365963, -0.727438881033162, 0.15174311233112897, 0.7024179799431863, -0.5279652634540191, 0.31509119677789, -0.03189441387178278, 0.6036148890648595, -0.08642561613773468, -0.5208972162758655, 0.7375454396297243, 0.413337119929738, 0.5873902434904875, 0.5758011176982487, -0.4405051931543529, 0.07223883544202359, 0.35983179283234845, 0.4448095322690271, -0.7159742294083768, 0.5640179588109351, -0.47289752651811034, 0.10129605012534516, 0.5006448431809483, 0.35742199392898577, -0.11102614617624217, -0.8116506399753525, 0.6214436742427527, 0.6329078769335337, 0.1311522928104163, 0.6810723448375059, -0.15381960274047968, 0.5441825800437872, 0.14932609996579993, 0.32952674596184073, -0.7294888951879367, -0.623672949250541, 0.24035547041452854, -0.8973524190429906, -0.7415211416496571, -0.21971052774818411, -0.5261754366135444, 0.05393516086087928]}, {"weight": [-0.4184512876500548, -0.06750832903929536, -0.22017303967973373, -0.6771232266594609, 0.4454837231693889, 0.12083565570991595, -0.9856478681011299, 0.845232714888728, -0.4878449763543746, 0.0030942790933032125, 0.44344072323403005, 0.12184054343813133, -0.6509975043711143, 0.3883038982891782, 0.6786523545276664, -0.3849427283170359, -0.3149823896421122, -0.21288672395932373, 0.9550210499265831, -0.7607319017359446, -0.4070820401132096, 0.8024622075137618, -0.7703575289921402, -0.06546399119169176, 0.22437979999966573, -0.13308193386578876, 0.31151848974761087, 0.5777863681403674, -0.2180517871763082, 0.840336112138614, -0.42135914369584326, -0.2355939741002378, -0.0188744883716055, -0.5625992115972007, -0.12892320740156538, -0.24654964250047295, -0.1280386510867344, 0.8251486924466375, -0.19560896448521436, -0.567802220049378, -0.2600972777425308, 0.26319018467001576, -0.49782953916907435, 0.7337772492398394, 0.24527385610177688, 0.4228780445394611, 0.6727671480271578, 0.5487719505206128, -0.4656659553221085, 0.3742514795502154, 0.5923695074327855, 0.5761568615065679, 0.4079842891307597, -0.5961028875259773, 0.6425998632859768, -0.7881528370054782, 0.1882733820183693, -0.9773931234154485, 0.8464895895412634, 0.4036178055809141, -0.6489199754713838, 0.3035928504227925, 0.8484845572259586, 0.26018622390638013, 0.6251805661860816, -0.9366485699278789, -0.09783054579848947, 0.06833599510760847, -0.15848552555972334, 0.3884228024935874, 0.5420656025325329, -0.8584889355977555, 0.905688747671203, 0.28643857275950646, -0.8798859050789966, 0.3630077573611734, 0.38362575335524984, 0.1998616199491276, 0.13269015705746318, -0.6703507560863542, -0.5722566194435886, -0.7381339715730586, 0.36854401062501063, -0.22581478595096366, 0.8126742145637791, 0.14320743483688786, -0.7951006585181023, 0.7149837801496686, -0.14620957564457515, -0.40241598989648075, 0.27261062344295106, 0.8762558115622909, 0.8124724235554707, -0.1340269091659798, -0.6711850322886487, 0.9674199995726966, -0.8971884015844752, -0.4725546102973144, 0.30623525065933577, -0.8610235915741973, 0.15506656609750386, 0.43614526959771704, -0.817667132364767, 0.5714946728420148, -0.25208616946468654, 0.827775624257221, 0.48359658089437896, -0.35270218487556515, -0.13007261503345102, -0.40947075518633413, -0.913382915714601, 0.45559804590058683, -0.8970158447643111, 0.03304942787797953, 0.31573144898663275, 0.5033094954451633, 0.4481074607215312, -0.5449728546235614, -0.3287840894537837, -0.34089430382395913, 0.3489458173320654, 0.3007278846165242, -0.9109029931632988, -0.4427175742210676, 0.5004217856105246, -0.7615872555769287, -0.2878163728339085, 0.34703958530104595, 0.8254757501981529, 0.5195937050921342, -0.8785644211795053, -0.17285970380102583, 0.20090206529981103, 0.0338732196453541, 0.23941306651503197, 0.9944611294346964, 0.9660569905820074, 0.38368399252491026, -0.8781368433034666, -0.6037403496773275, 0.6397187262702869, -0.5742475776482787, 0.0037767326961690717, 0.30552597630544365, -0.05330623986992629, 0.20285367126547804, 0.9113168956940279, 0.8190577619013657, -0.7007789146522089, -0.046808907543798364, 0.6842386149071322, 0.4192133677443719, -0.5859181648719046, 0.303903613106685, 0.49704312472189827, -0.21970640571440603, 0.5351035751592732, 0.6898501305174197, 0.22112453107087449, 0.11517254391918419, 0.3539454376405329, -0.36265898720194656, -0.7026434759346577, -0.6891221829659194, -0.54064397001532, 0.8872520476628828, -0.39561032906542404, 0.44433491982156625, 0.5512322216723279, -0.2869499712262149]}, {"weight": [-0.3641968868975958, -0.19521653484090035, -0.46709891085317934, 0.5767562432094941, -0.630744096559502, -0.6166470425278721, -0.026320944183707184, -0.272136636176626, -0.4055222771414202, -0.7236124374442453, -0.6551031137665312, 0.16730736445327699, -0.7860040309678964, 0.2880992358601844, -0.13126129678335863, -0.08347914884855778, -0.7314925452858799, 0.933420278596758, 0.37955230691417463, 0.008070677324053088, -0.1686577211630622, 0.45746727557522937, 0.3578064790702715, 0.3049592212125618, -0.9818890387101087, -0.8298259413453838, -0.14964471661850515, 0.2581302432157899, 0.3378882592379415, 0.4600341057554709, -0.9948547788100783, 0.6490822642809618, -0.516432101071196, -0.3815544021490562, -0.5959538387018057, 0.282584806808041, 0.2522178933265382, 0.9996242528129847, -0.4201343497835903, -0.5705277145905612, 0.06233677540715503, 0.7734906964655863, -0.07280830073623834, 0.668759416417083, 0.5470132734840234, -0.3993625513085448, -0.5747780816797174, -0.9860702292278671, 0.3364138569434738, -0.8896852191982129, 0.9461677704339213, 0.8124888314827815, 0.4254774429708248, 0.5888781047132396, -0.9879732423111731, -0.506912073513196, 0.6443235934427898, 0.29286771490609675, -0.12335769345099079, -0.07845408591801672, 0.5954830580425398, 0.562496674499573, -0.8736640721122674, 0.9451084172100114, 0.3344954639707596, -0.7615770989104517, -0.9614989810686424, -0.7011612546759646, -0.5685599318560158, -0.7208281574580285, 0.3541692428860579, -0.2566054891458318, 0.7442232234973689, -0.9968295819809788, -0.07534346003208912, -0.3577729304903674, 0.5829844663863853, -0.2658311082329603, -0.7053482726921795, -0.8408732795469902, -0.08259535769561964, -0.39547919118779506, 0.09429662184450538, -0.04740223167329967, -0.2547454036642569, 0.2719880526981979, -0.5043824202161186, -0.27973680576437876, 0.24101958436568416, -0.3126467000661457, 0.9932806894708834, 0.3790832460970366, 0.3097957872383814, -0.914821973591319, -0.5937153966394962, 0.3264474352717015, -0.34763049839579696, -0.29191715847971866, 0.0471777263962172, -0.693852513742957, -0.6579293828291987, -0.4763879491174783, 0.35534161006750087, -0.012206159912456174, -0.479376474398441, -0.7007630816890518, -0.9229494275262952, 0.9601054822352226, -0.20531489766727784, 0.20522973122473553, 0.9467558033038361, 0.6257939311833566, -0.9139276543631023, 0.7467848631104931, -0.6686718643935037, -0.7023907477486524, -0.8573883534763871, -0.7499530054968634, 0.09779729132899884, -0.5513087291412057, -0.9686380359300015, -0.532819968229329, 0.20145711113060893, 0.28925280329151204, -0.04049547267215603, 0.4168316013566644, -0.3777986433473972, 0.3898753508662163, 0.9440331911572364, -0.9952307812799648, -0.8548781682348644, 0.30030182918455917, -0.43039272641729154, 0.6098582755312653, -0.4224001592127167, 0.5820006972707307, -0.8140156259388128, -0.7210287989230072, -0.834740973899434, -0.8307345047553065, 0.5848628030896009, 0.055694381503594625, 0.8037991301029437, -0.2478108816265412, 0.9115107320619534, -0.3219682850268033, 0.5777293151900873, 0.7880207608063297, 0.4678894833058562, -0.7156276250897008, -0.5214150152822312, -0.2067265889828181, 0.9439383062769408, -0.562431963686558, -0.5231493677743166, 0.6993700399217264, 0.7122959343811535, -0.8698716065508229, -0.2980500470681733, 0.33894535261767667, -0.18316238176062494, -0.30291171103843584, 0.20526572225094192, -0.31660279752101084, -0.7612885934256639, -0.26534731666637246, -0.9832618646982733, 0.4667516392110018, 0.542554240275133, -0.3819449016928629]}, {"weight": [-0.3926967480591075, -0.11090727512610764, -0.882120979008974, -0.0474167940493444, 0.8199399109623925, 0.4435030496073271, -0.3152935711089342, -0.493139985829975, 0.49797581953905734, 0.3603968778512816, 0.4486162880438822, -0.09362676354667743, -0.4686783600091964, 0.917968027551866, -0.00029133048565110897, 0.45550832149462517, 0.03526993670116833, -0.28720333935957565, -0.18253309889365515, 0.2047475814387827, -0.21003028797131762, 0.21690953233495763, 0.3949638621086209, -0.3603699584882336, -0.994563948431888, 0.7385152248179842, -0.7218338645084977, -0.7441163922593708, 0.2479846577498605, 0.7676006805161285, -0.0006778698568328245, 0.7976025499408418, -0.5348288378579992, 0.48496170721464593, 0.4049618550409604, 0.3032399222323885, 0.0632383372124885, -0.8987634891203341, 0.7385078977140977, -0.36997911562641383, -0.8383714572231279, 0.8069709738583566, 0.06185847921966503, -0.5630051784924216, 0.8536063877843729, 0.46436915400662837, 0.3962083548587063, 0.4424248147527903, 0.6188487133810455, -0.20150849826759148, 0.2945676696234365, 0.17062389239832182, 0.2765526277076771, 0.07991304841251567, 0.44213593143202257, -0.2691537749501334, 0.03524964855983659, 0.8086029539757134, 0.8164255847637778, 0.01463601024476957, 0.9225822968678971, -0.9120839869105222, 0.6696287675508784, -0.4340916724619457, 0.8307385034617256, 0.511574983846581, 0.5537019906564252, 0.7137289697049148, -0.2207061797433641, 0.9309186862530062, -0.8044779357619541, 0.5105158513844507, 0.4278045116618783, -0.8985859163131894, -0.6756376195455861, 0.2329632545983364, 0.35056725915128295, 0.1352393688713482, 0.32041252874589965, 0.6340940836145443, 0.05164207024674654, 0.38917911046765874, -0.6464744390025579, 0.9582930546830358, -0.004881149672772533, 0.803664789624884, -0.9267228959754089, 0.4333662424739917, -0.670973921554499, 0.5718767021270198, -0.27074861463563527, -0.6330062352687909, 0.4770732497295771, -0.4560216176175842, -0.5029782798707375, 0.44907415637569326, 0.3449069784106462, -0.3945507623549174, -0.8064829070879094, 0.45080909601027996, 0.5916645384799456, -0.8173981212773905, -0.21171475158640357, -0.20891438446257765, 0.4095890142588494, -0.6372392889254408, 0.2296491855865505, -0.9564996110725221, -0.6023799385249504, 0.4000147987940774, -0.9881974770776225, -0.2316979896097014, 0.6485522307785503, 0.21525499463254033, 0.9219699203735043, 0.6517571557838713, -0.073310175652052, 0.7419424494195787, -0.6055306271539318, 0.7529989312438944, -0.4158455539846688, -0.8394083744313664, 0.040470073195236544, 0.617877486379314, -0.7476024079781656, -0.8477677489413, -0.20595152847389486, 0.9896268389420628, -0.8689262141448961, 0.5404585712481325, -0.08531326385910774, -0.7895382313155533, -0.11424342178123204, -0.05505674938772216, -0.2479936383753119, -0.9971266218892062, 0.20054967956542064, 0.2967982506025244, 0.20223194248189214, -0.24639124969863668, -0.3640966990100023, -0.5584158206784833, 0.32418446897972863, -0.6212622506173262, -0.6866288880367114, 0.19054396374190707, 0.1303775248701582, -0.44239912091536904, -0.637941087159073, 0.5517298616157319, 0.7019241543426546, 0.45383444245015725, -0.8239987611693956, 0.10094447705919185, -0.35919220516668493, -0.11030185112171864, 0.016455992255882457, -0.6898025729180673, -0.9655416396988181, 0.7522301684204056, 0.22409965345827332, 0.4299453256138728, 0.7229982566059144, 0.9770054109174461, -0.22658415144393884, 0.45108932578889993, 0.5737342449538377, -0.68687480573142, 0.43655113091367226, 0.31977078342713083]}, {"weight": [0.46969969059716066, -0.9413590146428034, -0.997184849764902, -0.9069829593160927, 0.6330642272743913, 0.39767153738886174, -0.7519404840594129, 0.07104605897931648, -0.8188649227594815, 0.803600414553631, 0.7949693765476454, -0.9184989824606591, 0.6759665220953572, -0.36738469945268726, -0.9398315632504621, 0.7741114098274016, 0.8422712044512811, 0.37835487544092516, 0.5753686192496935, 0.5228791017256629, 0.747940689654323, -0.43509977417878853, -0.2830845777674722, 0.6125583415358625, -0.6565418684785655, -0.7843441879227427, -0.3246243446844461, 0.3932023186733846, 0.7261304330830428, 0.1894463435096549, -0.7034419266092617, 0.8560560461089576, 0.9124584276099664, 0.39767142196175453, 0.7146212762025552, -0.01167499275744377, 0.599561058772087, -0.09002512492129565, 0.7806796693338991, 0.09740493725014687, -0.989542319773293, 0.03828673637488933, 0.06043706662788528, 0.8262369616629014, 0.2019837336231678, 0.11277628618576586, -0.17647645383166588, -0.8130144967289217, 0.17453932482216178, 0.35577128325898655, 0.7972792330745688, 0.9204077280550907, -0.050028571114115586, 0.9306749425255936, 0.7589377239405046, 0.19545347198667673, 0.7263219275549979, -0.9595334176601249, -0.4574590539143859, -0.7112930526574546, -0.09927975224455264, -0.8866213914059944, 0.37795903057116487, -0.6833024626443432, 0.11397765484263522, -0.34930839361515265, -0.15398515081552927, -0.3716363542559509, 0.08948790073856662, -0.7122760445916306, -0.05724193114371319, 0.8987537329872902, 0.5197399554257114, -0.019853015821897756, 0.7440512614022142, -0.12638378536393186, 0.054594356398152064, 0.8913754351964295, 0.872253280582116, 0.5754612692335652, 0.19247157851904956, 0.40788929353188896, -0.8766631205898412, -0.8922622275823716, -0.8191400748758013, 0.27782447389100073, 0.3200841835343453, 0.36477435009261416, 0.9344069150353924, 0.8856823193868683, 0.8078794294220895, -0.7148833964340255, -0.8849380907489549, 0.9066694412478578, 0.07127075517916172, 0.2970404293818629, -0.1473778486711726, -0.9575418201436838, -0.8280427798680099, 0.24199775345754926, 0.05801837688064031, -0.5524389436485845, 0.5021076509486068, -0.9522250158134983, 0.5099010183142112, -0.8456864231501022, 0.5062248936730699, 0.36650315661826327, -0.3699567085555795, 0.6024039168391859, -0.7643340352000505, -0.5098809240536336, 0.43955571902675095, -0.9205876111991081, -0.5554510259358516, 0.3782533428064745, 0.8193145467681959, 0.8472306017084096, 0.7256020088036943, -0.20077049973410516, 0.42593174317669646, -0.848150840898176, -0.7037352110126411, 0.09162205539446155, 0.007559280202350971, 0.8069877377876635, -0.6457284022168768, 0.2805867205119077, 0.22803099103655766, 0.7292247839132888, 0.8835901713765996, -0.11036815780777563, -0.6775536458221776, 0.4873383190813547, 0.3967076193763701, -0.6366375866123352, 0.9675734533998149, 0.016179294879676998, 0.5769067923625648, 0.8010317141759711, -0.6405701768931377, 0.0004627127792091734, 0.6951631750918201, 0.37917736675332425, 0.1430592888235051, 0.8712403935649076, -0.579803118604145, 0.8243465915746908, 0.45456857395852723, 0.9216320259672565, -0.1344622158066806, -0.3882019254726141, 0.534118427148817, 0.659430800946299, -0.20262781033676602, 0.11834760061086147, -0.2466719574262295, 0.2735324000083261, -0.8089029882176939, 0.5762455273646545, -0.4690164375627097, 0.3910662602151094, -0.5350329254177114, -0.41015124909491374, -0.10384313171265114, -0.6574335562726826, -0.048554318332727345, 0.7881314183066344, -0.8205247622298187, 0.8369229345605266]}, {"weight": [0.9685686527380492, -0.35848860424965734, -0.3386594690489826, -0.1592922013430993, -0.7178808520611689, 0.8132326460593615, -0.030132395704054526, -0.9525090496757533, 0.3908294698165977, -0.4132386831807815, -0.602843884760126, 0.5841432489892193, -0.5917946246936359, -0.4501850070160791, 0.1977471157926367, -0.38630051107601493, -0.5521458616410692, 0.05372149255714431, -0.5537680009158114, 0.622457936006171, 0.23052589248069544, -0.8268643931486742, 0.3342561670429791, 0.9908094181861217, 0.30994841743959967, -0.4964825351002411, -0.20329574464484895, 0.5857489842724166, 0.25417290325654873, -0.5303264176656949, 0.27824264382108654, -0.2160332873064575, 0.05859499408537176, -0.9996266549474591, 0.06723176177207701, -0.6248734661537068, -0.5778447835056313, 0.40623765459872097, 0.7795264689712411, 0.743202864287617, 0.06985961536248188, -0.5388233914843239, -0.09041251055061861, -0.6739488647989839, 0.5822252147904114, 0.8222391413946902, -0.9791588544071015, 0.64815210894879, 0.6558466527117007, 0.11975326813575883, 0.6550653571461358, 0.01920616050645123, -0.38453801600338866, -0.39999982292000813, -0.6832912853696667, -0.3545562503481088, 0.4777335362016437, 0.459132031579466, 0.4915976784475331, -0.42650178394131366, -0.7044988890293645, -0.22091000445589937, 0.6995707260924179, 0.07117629683937023, -0.266194236351428, 0.31217770268426714, 0.45124628401862665, -0.7344361932865945, -0.1602819922117938, -0.34919663069886653, -0.9407922651889326, -0.39728404315672106, 0.6512707208743684, -0.09170168229284258, 0.2638760844971264, -0.8384143176379676, -0.42572058038212757, -0.06476820986374242, -0.1885900739305411, 0.17143551549660652, -0.4348600005488923, 0.552790722286006, -0.334698454379891, 0.19761523969905798, -0.6091304183812742, -0.23435706850556431, 0.06916868461789306, 0.5297652069957415, -0.8274541555088188, -0.3519743079690034, 0.9427123876805796, 0.5278694787667446, -0.4983232156484989, 0.409543007870117, 0.20764829378136546, -0.6036962114839888, 0.9909602349590226, -0.4473149361993001, 0.8236200137867007, -0.4019992401766621, -0.14835245274712833, 0.26936840548091534, 0.23010554334072236, 0.48330763937176147, -0.7427586040769243, 0.3545314298525606, 0.349353984428451, 0.013311878780042807, 0.9385080427104706, 0.25379777891140676, 0.47282894510235285, -0.6581365071026656, 0.3487265155892034, 0.5910044129735114, 0.31374749300003124, 0.23678926304059988, -0.565648196633346, -0.6592224630978928, -0.4230865150405885, 0.26340547165534, -0.7884845300727414, -0.6768081427957328, 0.2137446192200756, -0.15202953827714882, 0.1312495909487552, 0.8555168325261377, 0.5271859457834662, 0.07523716121061219, 0.033633332515147885, -0.23846317363476, -0.7120783173091781, 0.825968010767587, -0.0697433813965962, -0.7023673142882821, 0.4889493466177812, 0.5678680126002217, 0.5648181537711131, -0.9737756012775504, -0.6027241742663831, 0.260188403231995, -0.611386842799651, 0.8778870892545978, -0.8236369268400126, 0.44344161348513267, 0.098593686708094, 0.3181020974425801, -0.30534421101028264, 0.937064009802995, -0.022553150596873305, 0.8875754170783289, 0.6897594360769947, -0.4216998358845718, 0.16619809896617616, 0.1178278378381612, 0.9913661365399722, -0.9962871352230127, -0.8752609331064027, -0.3024634498166716, 0.6420053187053507, 0.9125881858045024, 0.8400697513261421, 0.13699610994626615, 0.7914158906767134, 0.12583820734884527, -0.011786785226544971, 0.20289443397895485, 0.952293749161241, -0.6493051885400061, 0.8843953096874043, -0.13602690867501305]}, {"weight": [0.8552290136435624, 0.7060065040421205, -0.6497590000681067, -0.6811020378650032, -0.6596963471186924, -0.9662657341689731, -0.5934343602940945, 0.8701866544043229, -0.5663536272019314, -0.25267879242116176, -0.7440865302117198, 0.38414955598447365, 0.4887164476258796, -0.30336283800378494, -0.10931381685734509, 0.3022052492345839, 0.26604147056095107, -0.6551299802912578, 0.08868312745704511, -0.07718654534733549, -0.22347238177150786, -0.22687966478980331, 0.859574447673921, -0.6413143779072711, -0.029421462697843515, -0.9503989849672391, 0.2823638124540655, 0.5699159631683919, 0.5470450963937233, -0.9803970626006536, -0.5188989326887965, -0.878844583570935, -0.17041179978455495, 0.808184490173633, -0.32597531719785655, 0.22357855835372797, -0.8975484129638553, -0.6232993685405849, -0.04500651847969328, -0.6174496477421703, 0.5831745911960721, 0.7462482099649179, 0.7479548432957817, -0.6120356265219066, -0.3565698679417584, -0.4541456419425711, -0.06313873400455727, 0.18310635819165189, -0.49899143030348636, 0.37425744967308194, 0.19828453706578508, 0.08614234952900514, 0.7185471876546031, 0.8266461265665979, 0.8580774582489084, 0.6770620145605535, -0.08780658963135313, 0.44898631814948997, -0.9073463930967003, -0.2491647768600953, 0.060068656847174814, 0.555720253091569, 0.40050169912012934, 0.10677017525867329, -0.4921485353950541, 0.7849306058640527, -0.6531277071363536, -0.6704551963789197, -0.49738657698174915, -0.007581872054578239, -0.015960545604375053, 0.3092433077482455, 0.6561447964939822, 0.603081697011581, -0.6172096341271337, -0.019413690133055782, 0.950056244575337, 0.6474707364119038, 0.9310499737310504, 0.9452144993090925, 0.5219328477543487, 0.22545497044752194, -0.5188359953167045, 0.6774437935271774, -0.5256626068493342, 0.9176392379825337, -0.5121642380297505, 0.11400769495649898, 0.5040229680378621, -0.6883420268175376, -0.40413574230733973, -0.713351049021751, -0.9289985912324842, 0.695702544194718, 0.5035941926096031, -0.49437915920251374, 0.9697291479578914, 0.2734521595749819, 0.6948174497075221, 0.8716532358732829, 0.272472348781593, 0.11196272142991072, 0.08929549168199626, 0.5433277370559432, -0.2919518360536826, -0.885957618387895, 0.07481776352107351, -0.4708172076025934, -0.8642303993739266, 0.9616229598038706, -0.9548515784077529, 0.5577432816112141, 0.9207076446757654, -0.47040931116868556, 0.009843358985564432, 0.20058817535907414, 0.7381529916325877, 0.2979931837715104, 0.6358246659537357, 0.6667063990665113, -0.5756649968416299, -0.08603896042901203, -0.9590165158254313, -0.6567555192615502, 0.6229987982420555, 0.5523003529135455, 0.482738057063518, 0.28761332659864247, 0.11163137688917901, -0.3147717802404262, 0.28635898561644013, 0.4435558546453411, -0.35625145448389084, -0.06838581270138532, 0.17457473395333117, -0.0362749964094818, -0.7125541162119583, -0.8261086475012108, -0.6445608159058751, -0.9661022875057264, 0.35022259935875977, -0.02166416120064185, -0.034605402089978865, -0.29112037563343507, 0.6311287827390709, 0.7456226818852352, 0.484481321342906, 0.9220408676783596, -0.41799284620088883, -0.9445973361340098, -0.7541596900639158, 0.37922530744753913, 0.1987552639118843, -0.1658534782712282, 0.6653261707290945, 0.16971714717293662, 0.36807349121076505, 0.9113560129212989, 0.08907494043257369, -0.06435936831030586, 0.7298826056243488, 0.1296174805217582, 0.37857063210373054, 0.9109925932467352, -0.7387380724531061, -0.483593414591728, -0.31411273719360766, -0.5130093875717332, -0.8101991122026994, 0.7272900660018881]}, {"weight": [0.12922047133812992, -0.40509343071197357, -0.813176210558871, -0.2533411822247329, -0.9097927585396991, 0.04503657477073397, 0.018306108753250273, -0.3823392286263583, 0.2969088693122717, 0.4067304181947584, -0.6161838581679501, -0.31675929340189724, 0.48219967150947496, -0.1945746470749763, 0.6174765819860308, 0.10101619510280324, -0.7755180169665149, 0.7200890703317775, 0.5776895511720236, -0.14770321273943132, -0.9430101027597404, 0.3594602697542406, -0.01225439316295314, -0.8156651527867432, 0.6026850725626227, -0.13540808361586448, -0.7681627300348276, 0.447056994089466, -0.6069478529348885, -0.6720498583529512, -0.3859893135655854, -0.831005517030739, 0.00081231633689686, 0.6570465478010232, -0.9762531801255863, 0.5495067078900231, -0.33935550422933725, -0.8519592901113519, 0.2800425749800559, 0.4743752207650809, -0.5533659637520575, 0.8735214132942064, -0.6584051674733362, -0.3913795618456688, -0.622566156533235, -0.9047788889534093, 0.2674138063074607, 0.27844703003758475, 0.8604927351413326, -0.5880432604934894, 0.8812991296075372, 0.8887549257708501, -0.5097131803266589, 0.6176955919381908, 0.795311021317008, -0.3020489374018487, 0.19267111247727975, 0.4046014267658773, 0.12816747979864052, -0.4035872918625132, -0.20639959868214036, -0.030536094904823674, -0.12436413924574895, 0.15230513920195915, -0.949245475914489, 0.4862297350665812, 0.2337539002549613, 0.1598887430370401, -0.708155536108526, 0.8990260626611143, 0.5716337749683104, -0.6928614283214684, 0.2303171848121197, 0.9918682208344226, 0.7959126603644583, -0.07733677963897444, -0.8702604126234467, -0.48130570216275026, -0.05368416762399793, -0.06708264987378776, -0.5286991080388869, 0.930120076984011, -0.8624561058212135, 0.7591390316897458, -0.4174940044105466, -0.1355884430597865, 0.929539330513775, -0.42578031119899795, 0.19915978409710067, 0.001038929887426413, -0.6404981205270117, -0.40582349950685614, 0.07228632580321949, -0.23039776160109304, 0.08769835375298131, -0.7756273939027796, 0.42680930890808666, -0.5730093138933701, -0.21662133012967, -0.02542694714099425, 0.007386163704419837, -0.5943720413953028, -0.3726041854170794, -0.880711808389547, 0.20950188490805632, 0.9883308655567913, 0.26165106553528883, 0.609282329363116, 0.5765624749110358, 0.09322999345541061, -0.18679181894015628, -0.44124541483461743, 0.3232833306800842, 0.3258017969967826, 0.23392598697640632, 0.9666080336243912, 0.5635489526095534, -0.15207473718416847, -0.7770684473463154, -0.15358886545395084, -0.8318443506617772, -0.6405106172503948, -0.9640048677313684, -0.030236542015274148, 0.026352834588597718, 0.7971458109543932, 0.2776358384247566, 0.18702998983490793, 0.541702831829753, -0.9537321629507911, -0.1700032323762804, 0.1881266780138972, 0.1613958749494253, -0.496997074599254, 0.7301143210739186, -0.5150432347052237, -0.15886544446440404, -0.443128792055566, -0.6606326791222907, -0.9491136183692339, 0.5253829176282153, 0.17625208227057088, 0.558096193663677, 0.7990627369041998, 0.7893788381227006, -0.43521528823418687, 0.4008780987413847, 0.5909367784490018, 0.524217587566867, 0.1712385693905218, -0.2245276694149121, 0.8869707135320336, 0.12717294687848052, -0.16120672082734044, -0.49872937327992073, -0.2593634483344309, 0.4669283517900664, 0.362000912483482, 0.639499695872269, 0.025857964723569493, -0.4680442728034089, 0.5617516708640199, -0.1943686535887344, -0.2607190318327801, -0.6948618919553171, -0.4259266394308048, 0.08771938813502124, 0.4506295521648125, 0.8070228604014834, 0.6388235464639324]}, {"weight": [-0.4347864035889517, -0.4197923457150843, -0.40728861296188246, 0.2394728431857116, 0.5451193138073421, 0.9206593484370131, 0.9130714325376378, 0.09474484415524453, -0.01870224331223791, -0.5455889556527672, 0.09533081356890762, -0.5904419315630203, -0.43575526207292903, -0.9517509792988537, -0.10403326402672697, -0.7827557357500872, -0.5949665246641168, 0.6471681512855221, 0.38886565365381065, -0.6261045214997942, -0.21046278917900985, 0.8424339013882786, 0.4812096592728241, -0.8790277185026328, -0.6855722874550396, -0.8925062447333972, 0.6004045906638406, 0.28989458901594767, 0.9063837332859547, -0.4433458320602872, 0.9985056646742985, 0.5504718092617612, 0.1379549747623749, -0.49996273131226276, 0.015465357574323546, -0.48982921715416694, -0.5629269044653142, -0.8381955447961421, 0.9723476686989674, 0.6407456206171576, 0.812602579864656, -0.24408891313730252, -0.960377760778049, -0.8865999656132367, -0.18267635280934935, -0.05994671493700017, -0.8940201445821918, 0.22204867326470756, -0.6627642091206286, 0.8836285849687183, -0.29275762269027816, 0.4907366474017478, -0.647415145047359, -0.5182983769400902, -0.3340011986611182, 0.39150586569377954, 0.4964232697222428, -0.020863518543954518, -0.5743697945963651, 0.7502262953251446, -0.8258109908681456, 0.10332882520843611, -0.7086811490654438, -0.8494673845190314, 0.22575063390170635, 0.6847940636096709, -0.87222525226849, 0.9488568906607299, 0.05645982343034543, -0.20980433957001582, -0.45654512017881843, -0.9302277049072493, 0.3584770903656185, -0.762766148358825, 0.7334242729464454, -0.5407990774744201, -0.6408592884968104, -0.9861038734044506, 0.9005169609475269, 0.28936530474455857, 0.22760460919687836, -0.8245172243472887, -0.6191716706129609, 0.2160395868062585, -0.2520514204043358, -0.11656708972914319, -0.5328547335680246, 0.8349338465682465, -0.4249611829445614, -0.06437650049306264, -0.012751579096114574, -0.7955135476833903, -0.8835358575260327, 0.9218637886891969, 0.44666508317412146, 0.16290758479699696, 0.12118657210998886, 0.5979146517654654, 0.3558300940370771, -0.9799664287366749, 0.833867022173404, -0.3306522118769033, 0.4985910518531025, 0.9288266143093032, 0.9759220651905989, -0.44464076797173613, -0.028082351984120967, 0.25349896901220315, -0.7600904274955689, 0.2965503912119434, -0.7994599050428259, 0.6283743911954126, 0.9437156654166776, -0.24915056295041743, 0.020963737952644834, 0.9478489399019729, -0.6823411007046329, -0.20500802270394974, -0.7987163181459562, 0.4978204292612547, -0.9622669459773319, 0.051286977320040325, -0.2107937364568757, -0.10099538522619333, -0.5079447416521485, -0.7191467647262793, 0.5758066165508264, -0.7745271686403641, -0.43697403802359425, 0.4760579507160314, 0.06705432235251298, -0.6915791540760782, -0.4878943027961402, 0.9040534189566553, 0.6089355421236043, 0.6207505264156078, 0.9133214813674012, -0.4945891058933738, 0.7638352353295992, -0.7924668316178727, -0.7245421520250829, 0.5312774492088408, 0.17633189318075182, -0.20922529267833534, -0.522307427627264, -0.8315847510424421, -0.7812079398566998, -0.1433413487671813, -0.8787632569070313, 0.337734060081315, 0.9237783716150465, -0.12133382367382338, -0.19858657960751352, 0.5006603921375352, 0.4730355469235623, 0.6471378827307923, 0.9139537453024915, -0.2887312462874667, 0.42819384498864843, 0.8117151053661111, 0.5316190451585872, 0.4544492483739717, -0.7105926348689607, -0.5225721346644195, -0.16023577183665338, 0.33542316855994736, -0.7600195601045353, 0.59792063742464, 0.8365950743631553, -0.4525411815102054]}, {"weight": [0.0790953528680133, 0.22345347435745005, 0.9726947522204149, -0.7591640724052802, 0.6882546096536691, -0.5834214622627283, 0.4773083901413633, 0.44405112799252855, 0.4071690041332747, -0.6098615041623784, 0.8339305382953796, 0.9122026734097073, 0.2738108582006973, 0.6359941431712735, -0.1337816405197123, -0.3826637769744905, 0.6701347361332562, 0.6806578837358377, 0.5797364716740864, 0.7362848106144495, 0.8550839981693001, 0.5946821553552489, 0.8608393296918738, -0.9808527816720382, 0.921868965771449, -0.8084083739058147, 0.21118572754278636, -0.4595360862446136, -0.5463527289022861, 0.2594542433903393, 0.09239046486550095, 0.49285942241866465, -0.07406832125287198, -0.5038859777570495, -0.010622947198022592, -0.33071366939768354, -0.933952564515548, 0.4865290826861981, -0.6772008402782124, -0.04736299920544784, 0.08584493002928352, 0.9524637369106526, -0.3666465379010073, 0.5092387755198821, 0.38285647344852136, 0.3097491058250652, 0.27438386524461733, 0.5060359869413293, -0.7646450568335562, 0.3952545957241502, -0.3143444977483085, -0.2205881761408875, -0.3844660981659309, 0.9391114208327653, 0.7641424852863501, 0.8583073576786995, -0.6947916723016192, 0.5431050757102551, 0.5159423412841231, 0.3960457464146483, 0.17923641304589982, -0.19573728324711337, 0.4272871172151136, 0.4376957514212667, 0.989186769300824, -0.33534031846753476, -0.9756326110907892, 0.0853566417912336, 0.413425062189708, 0.13615203143236626, 0.7093464208072319, -0.9454808847468913, -0.4190151131644393, 0.24878568824542485, 0.8852007074458607, 0.9797114128606869, 0.5480016648421647, -0.22929936401361212, -0.36810098159465476, -0.333482064296843, 0.018563476453598172, 0.32439852588799867, -0.3886304303861374, -0.5264155210941678, -0.5925666806724157, 0.3394152749277013, 0.19537719811977133, 0.42272714618793983, -0.5665539972399571, -0.8869061754284112, 0.20161838555519251, 0.8542569938311395, -0.13697098393795587, 0.5879182131604728, 0.6025296728693014, -0.8789893474104991, 0.9484506402394667, -0.033215455881261624, 0.6932592455370656, -0.1372417093212568, -0.7634014596819741, 0.2303979054839959, -0.911102699625174, 0.1825429971141907, 0.3935121334417617, -0.24549845051461117, -0.13578715266246838, -0.8593573050719014, -0.6463583319917592, -0.7151327049417946, -0.5062862463758417, -0.8027762816460603, -0.45480031341075366, -0.3633895559409728, 0.2048662485256596, -0.2447510497783174, -0.937639340096083, 0.029089875213914086, 0.11572949265126709, -0.3136281986464915, 0.5847265306656735, 0.4484961573642985, 0.1096514978384755, -0.6474252013256085, -0.5097682372504011, 0.6423571566315007, 0.6008536681042875, -0.989654999573025, 0.10611181222919774, -0.14382719732869886, 0.4674029188745643, 0.18943041515226916, 0.5754181369466924, -0.684202343812358, 0.43422650727649814, -0.2376440445558084, 0.7665857326354338, 0.5975520079698929, 0.021330954115514444, -0.8849920116340397, -0.8817140599133763, 0.7766729909755965, -0.6801180820211541, 0.7665542657403777, -0.8393638223982934, 0.27422893020867, -0.999687355696151, -0.07186406598159256, -0.06613227161115175, 0.7613040364993585, -0.38289684689351966, 0.41723799755097857, -0.6196874716854847, 0.208791432820995, 0.3826799401180514, -0.4418629416012019, 0.9063594353163789, -0.69306350034993, -0.48407453844299875, -0.5003162127307708, -0.10983638113147953, -0.11984349510124113, -0.5648062119854055, 0.8044349141499311, 0.9570860712759031, 0.40177397292467165, 0.6074667907989403, -0.6910900961509836, 0.9883097098894823, 0.08510726810525794]}, {"weight": [-0.4658589888586677, 0.5005086100025168, 0.7020113790188626, 0.9116755492718636, 0.42504920521744194, 0.10303232918505034, 0.2676069996295103, -0.8092121507561585, -0.21625498422289136, 0.1378688551895106, 0.9756697647503648, 0.9986266100969845, 0.9102387648049304, 0.6745699093387763, -0.21715079494154854, 0.8718254239620047, -0.9490501233993703, -0.8850474917735962, -0.9540940805393655, 0.8769432859533026, 0.7302153084563419, -0.40908020167326264, -0.7789892999858324, 0.8114624413396293, -0.17205079980645444, 0.27922616040672965, 0.8934146302714691, 0.1572837377162013, 0.5568070999970424, -0.9099107724196253, 0.04345743208425712, 0.7680368687837821, -0.41635598060915835, 0.6630031209965959, 0.88690815165488, -0.08779548909079615, 0.8371359928098849, 0.8287297422355785, 0.9391515708703588, -0.20619481393708017, -0.3276517570431934, 0.9253084761212778, -0.6820191853107311, -0.13266218927265033, 0.48234807474036634, -0.9836520915508432, -0.9479069600076597, -0.3867801902774388, -0.08347579205692922, -0.12387489485389912, 0.5485630296886708, -0.37464813445403977, 0.23938453538180665, 0.9332135273432149, -0.9061427412792848, 0.887799887687688, -0.4745305273680931, 0.1739041486992874, -0.44369612694876737, 0.564032608460677, 0.2420706411285884, -0.06649356927587435, -0.07701157654666112, 0.5771020224574047, 0.8627037890049736, 0.90422574479003, -0.5443335306575746, -0.2819333562640749, -0.15597457797420172, -0.46081537166005915, -0.9259551950602128, 0.36410955399818024, -0.9283089706909506, -0.2345210867155399, 0.02694631240388261, -0.49615648047882455, -0.20299158935259226, -0.4639992870700256, 0.06804453469322803, 0.6806881705944445, 0.024239329202261062, 0.23294334980446574, -0.012018860552793775, -0.9990763593073441, -0.1606608438644257, -0.10275557002932555, 0.4008773173148177, 0.3889606668222301, 0.835425220319568, 0.06126508940359103, 0.33254278761211453, 0.15603870315851998, -0.3894026839114926, -0.5866766812895814, 0.8533148158398575, -0.7621773881151188, -0.3151171374049293, 0.3729060976043095, -0.09700208843873126, -0.0012077336957547757, 0.1321156549449793, 0.15970688704649655, -0.2956086170490808, -0.4242753977594833, -0.7785393726539593, 0.7876304890048318, -0.2206301555770523, -0.8951107834640628, -0.8410600475338885, -0.5148541783368816, -0.7051222707990761, 0.7573162515958466, -0.043222700528571245, -0.03840715990820816, 0.04707786776245193, 0.33183915415976384, 0.21127605302774666, -0.7159718937909757, -0.457362156522678, -0.7927578213909215, 0.4011465556569187, 0.6347085730653187, -0.883525928432187, -0.765055868926368, 0.3129398063093489, -0.8502309117904276, -0.8389260595281849, 0.19219141370118065, -0.9529160503614353, 0.7667107993276838, -0.20681319155998718, 0.09764352676893497, 0.14919234013015514, -0.8882448296556479, -0.8526429773981655, -0.13083989068680318, 0.2863213114543177, -0.020810869349630345, -0.053928977234467323, 0.6234571930048569, -0.9229592052330179, 0.5989009040201223, 0.21157393091814058, 0.5520935221398027, 0.259850005463371, 0.9925140821959988, 0.11922544110851963, 0.20121480420276572, -0.4130719480114804, -0.1420992246700799, 0.667670729470188, 0.5509254079275346, -0.5044927185722968, -0.19370856307760853, -0.5230666561470139, -0.3044051455244916, 0.06225606188431154, -0.060032939533187626, -0.3622196459165361, -0.4561570365191707, -0.3629711947141667, -0.5436307592589472, -0.47765174490582485, -0.7315124847001798, -0.642252917686704, -0.04268365140087889, -0.5228151931766297, -0.7861263181084486, -0.7683723924822529, 0.39109561462233744]}, {"weight": [-0.3425424953873524, 0.9156679794590522, 0.8555913181847735, -0.5866672733788161, 0.8026415304981532, 0.11464602244577837, 0.676525626671605, 0.23781840199511484, 0.9292935472967272, 0.12801154110141838, 0.8075554559333159, 0.22304692210383292, 0.5394484645631357, -0.7984892743120553, -0.7911662413027158, 0.4498470712727318, -0.10243471010094117, 0.6556803224065275, -0.20306072217414256, 0.6549754109615817, 0.44874829897641355, 0.3811945957209808, 0.2439641015050959, 0.2595404477222283, -0.7903827436762718, -0.3474432423619611, -0.30613393364269204, -0.6309538357247504, 0.05078268555174585, -0.4772910881693795, 0.061453851864540665, 0.32513440457895904, 0.1062807772575899, 0.40096311932909967, 0.44717034851643334, 0.5694976935112237, 0.8430913618423201, 0.058415550117159196, -0.14429645278788494, 0.5428806168658642, 0.7901552275979534, -0.6440009127682156, 0.7437974461724057, -0.9434850155637157, -0.8366467325991049, 0.782776219098397, -0.7177591438967128, 0.9609673557189748, -0.8243870529895535, 0.07020779879949836, 0.809686634101358, -0.5681368536979571, -0.9032948923652094, -0.27102469258531725, -0.7254279050176946, -0.35487184133612204, 0.20826756287860904, -0.6888399723123126, -0.9042082111009582, -0.5366531529787151, 0.12953314876531125, -0.9922410189596749, -0.22267774438946525, -0.28918267274138, -0.5711399316459587, -0.65384422959732, -0.4779648263772318, -0.9002809824251198, -0.6778651722000119, 0.11175664815977394, -0.40759973288876883, 0.4043390267080922, 0.3899888368578486, -0.6048322392698339, -0.40915000683279756, -0.5618936709946046, 0.009950153512419499, 0.1686101932754786, 0.038212589387263726, -0.13267701760952422, 0.18799348655123221, 0.37680944419112605, -0.5736211487581551, 0.5477359311655529, -0.0022846409719032845, -0.8262660711363753, -0.3918258223195903, 0.39663411625877965, 0.87269330936918, 0.45249412130932853, 0.297643348646381, 0.5343936643323908, 0.9037532888574568, 0.8583370743741454, -0.7705381028118309, 0.7981900356052427, -0.8566108082679414, 0.7496655576384637, -0.5600617103584615, -0.9643061151316401, -0.06423554073371195, -0.3980648495263521, -0.9761603380313618, 0.25038105540317646, 0.6485647148511429, -0.054346208951192576, 0.4143847510360277, 0.9997383323590907, -0.5000113118473308, 0.5820263042470826, 0.7488346240900388, -0.9592081793231361, -0.06703676186880303, 0.3195638644648129, -0.00687495794874593, 0.18336678195741762, 0.0029666567047073045, 0.49692748388963515, -0.7428986290404669, -0.08943267327262526, -0.543219214984275, 0.9048332000694105, -0.11574980870901341, 0.486372737450556, -0.9207936649467381, -0.4500720320933145, -0.5260130287083189, -0.13874046811438712, -0.25276439273765616, -0.7284632079475479, 0.7090835153766714, -0.4815388500730897, 0.08475137984815673, 0.6946165530507628, 0.32402764688755537, -0.253885805086971, -0.3218632009871458, 0.9715440155102925, 0.9605163533999022, 0.06704105492705303, 0.21716008198855835, -0.09862190876097365, -0.8077692577993087, -0.48478564739053787, 0.8546820283510598, -0.07947781969146694, -0.7814441040989213, 0.8562679587044986, -0.22324498179321345, -0.563374884559828, 0.8986409550392014, -0.6718702255817707, -0.6095868260632012, -0.44210255188745684, -0.22672632206083954, 0.5843353336915564, -0.625208811291049, 0.2525923962754517, -0.4343770771945732, 0.46846993332241227, -0.4456383985530714, -0.7941775249393134, -0.2144127457079577, -0.5654590865462902, 0.4528156252127855, -0.007820413019807695, -0.37817245546532074, 0.9111230003153399, 0.4721486944131015, -0.4330906536624808]}, {"weight": [-0.717265187442755, -0.40681200895679526, -0.6723622436109032, 0.912828798683673, -0.16309794960214302, 0.8367098090847302, 0.8281684410297186, -0.5133930920001339, 0.07464854919061259, 0.4510006597374474, 0.43474032103669735, 0.716938743838061, 0.3510078661476157, 0.45161270250927865, -0.39394411427197507, -0.14236581975192464, -0.0037525378365158213, -0.3016150428145963, -0.22852475919833976, 0.7417944391875568, 0.21817988302564695, 0.9838910798752903, -0.4422450092245882, -0.17891637802473476, -0.6568890229609883, -0.3649259836270222, -0.7263337383394811, 0.16960702805958405, 0.7933992604022236, 0.4686192927135735, -0.7987917900006594, 0.999494827732076, -0.15982260885161376, 0.8096030505677965, 0.4175272074720018, 0.6894063862317057, -0.650625496826212, -0.6453731349172206, -0.3723802314041069, 0.6173760849412537, 0.6859121001565854, -0.8928113809722489, -0.7505543633060192, 0.6277463174174073, 0.9098784818931032, -0.3150939009027949, 0.033228368611863957, 0.4973535195457237, -0.2279811708030975, -0.2408965018805696, 0.031448575909131415, 0.9143156971050713, 0.6281093351082286, 0.1353158839671289, 0.3933531343474206, -0.6918091520677676, 0.7139721822109264, 0.12049896859462517, -0.16285391661839355, -0.09112624666377056, 0.8116325447597382, 0.9137282945263401, -0.9749863782783655, 0.2604120824625846, -0.7282783887776094, -0.8442841261205535, -0.1996416028039652, -0.9334199014747534, -0.3412836926020322, -0.4398957414166298, 0.45873834134452873, -0.6354121695108047, 0.7297314454839801, -0.16252871572930078, -0.8378745184772435, -0.6849517317772337, 0.22008377286571185, 0.8034728452594125, 0.9675323539310167, -0.711708671932715, -0.06893539140554027, 0.4844527721825951, 0.8421768841804682, -0.43973974750753797, -0.5433942265584522, 0.47222238466607114, 0.44829044032760823, 0.3761722638922751, 0.7166792300266014, 0.8463038950510166, -0.7639459437902045, 