{"initialinputSize": 1, "layers": [{"neurons": [{"weight": [-0.5334499195912141]}, {"weight": [0.7536177554601151]}, {"weight": [-0.9522115454230604]}, {"weight": [-0.055203506941849154]}, {"weight": [-0.5425713156616303]}, {"weight": [-0.23755344688121066]}, {"weight": [0.7770706353119874]}, {"weight": [-0.8051317639136542]}, {"weight": [0.39106560350990544]}, {"weight": [0.47618686746429933]}, {"weight": [-0.9816556425021035]}, {"weight": [0.5246411040643784]}, {"weight": [-0.0019699794581317146]}, {"weight": [-0.3694825265251018]}, {"weight": [0.2767942239479017]}, {"weight": [-0.6325533350456598]}, {"weight": [0.8125669059446947]}, {"weight": [0.28158401971515695]}, {"weight": [-0.05294202131766482]}, {"weight": [-0.6673045998720695]}, {"weight": [-0.21673008764259835]}, {"weight": [0.12735422854193812]}, {"weight": [-0.05584205410232311]}, {"weight": [0.5317058501716687]}, {"weight": [0.29588909145778725]}, {"weight": [-0.3431655259347685]}, {"weight": [0.07352841021101575]}, {"weight": [-0.4299151920722634]}, {"weight": [0.9473679815255165]}, {"weight": [0.3952635568889476]}, {"weight": [-0.6970796177413057]}, {"weight": [0.944833172994402]}, {"weight": [0.960540870327633]}, {"weight": [0.19903127359265607]}, {"weight": [0.030642589850605643]}, {"weight": [-0.10078871407892578]}, {"weight": [-0.3833527580953477]}, {"weight": [-0.5424070665038083]}, {"weight": [-0.8886493776372713]}, {"weight": [-0.5665446827754255]}, {"weight": [-0.40040428318935456]}, {"weight": [-0.4222863341007272]}, {"weight": [0.8150242999805875]}, {"weight": [-0.8112032324379157]}, {"weight": [-0.39799110317329406]}, {"weight": [-0.08607376508912801]}, {"weight": [-0.2757589876067867]}, {"weight": [-0.6601338721179779]}, {"weight": [0.15915703752583846]}, {"weight": [-0.7671589219143644]}, {"weight": [0.8038596050079125]}, {"weight": [0.8176119759500333]}, {"weight": [0.14269988221227675]}, {"weight": [-0.03229719774528423]}, {"weight": [-0.7618958838537491]}, {"weight": [-0.27752899251750035]}, {"weight": [-0.5823631239575837]}, {"weight": [-0.3060238432175883]}, {"weight": [-0.8195666709330174]}, {"weight": [0.6993165479280787]}, {"weight": [0.5810451135568813]}, {"weight": [0.089634122240798]}, {"weight": [0.9774482938512032]}, {"weight": [-0.6823463282627558]}, {"weight": [0.9502774192754284]}, {"weight": [-0.07960590436033088]}, {"weight": [-0.8606299032478497]}, {"weight": [0.5959263548934857]}, {"weight": [0.31138507629131645]}, {"weight": [-0.7924716405714844]}, {"weight": [-0.8727927450651387]}, {"weight": [-0.5010469573574301]}, {"weight": [-0.5556395637951639]}, {"weight": [0.6392677755144582]}, {"weight": [0.7753232703106474]}, {"weight": [0.6018183738651661]}, {"weight": [0.053405501781713584]}, {"weight": [0.328757088053699]}, {"weight": [-0.9785453347611215]}, {"weight": [-0.759065548919095]}, {"weight": [0.39095926024146804]}, {"weight": [0.3654734754355831]}, {"weight": [0.2603023196611518]}, {"weight": [-0.6744982716280556]}, {"weight": [0.7293197620723022]}, {"weight": [0.03560415449688807]}, {"weight": [-0.3125876141031451]}, {"weight": [0.8456280819687834]}, {"weight": [-0.9001742080231856]}, {"weight": [-0.9116433814157414]}, {"weight": [0.9152347487611201]}, {"weight": [0.8294040724952443]}, {"weight": [-0.7781036601231199]}, {"weight": [-0.8486497428772173]}, {"weight": [-0.6986573080206115]}, {"weight": [0.44599009457190913]}, {"weight": [0.4922914322378072]}, {"weight": [-0.8541834097580236]}, {"weight": [0.060436567173360545]}, {"weight": [-0.40878213131554325]}, {"weight": [0.4344891183684568]}, {"weight": [0.6626683795534147]}, {"weight": [-0.909173527063514]}, {"weight": [-0.5244222728242578]}, {"weight": [0.5138138358448725]}, {"weight": [0.25966796976728734]}, {"weight": [0.6540347839520935]}, {"weight": [0.9954720794912897]}, {"weight": [-0.787571084500913]}, {"weight": [0.7083177122736035]}, {"weight": [-0.3140271288040419]}, {"weight": [-0.3821940030068917]}, {"weight": [0.6826869557819044]}, {"weight": [-0.6954601578072417]}, {"weight": [-0.10516565245900977]}, {"weight": [-0.0842680484327486]}, {"weight": [0.14078916028711874]}, {"weight": [-0.6274183241991202]}, {"weight": [0.03730505551245604]}, {"weight": [0.2553442083787161]}, {"weight": [0.12694456151200356]}, {"weight": [0.7355431411232094]}, {"weight": [-0.6751016042405327]}, {"weight": [0.2836478713986575]}, {"weight": [-0.40338912893642126]}, {"weight": [0.4358925447347693]}, {"weight": [-0.7640621812987312]}, {"weight": [-0.9201849601318395]}, {"weight": [0.82587534995163]}, {"weight": [0.2534370633558082]}, {"weight": [-0.717639622009175]}, {"weight": [0.6261054953108034]}, {"weight": [-0.5890373429360154]}, {"weight": [0.4349534091654888]}, {"weight": [0.5901732771792645]}, {"weight": [0.6392753491347893]}, {"weight": [-0.5887557387364237]}, {"weight": [-0.8083933023981378]}, {"weight": [-0.3930555612524342]}, {"weight": [-0.23292016423250278]}, {"weight": [0.7236545870390316]}, {"weight": [0.10484432338805105]}, {"weight": [0.9518307327086539]}, {"weight": [-0.8872707468001138]}, {"weight": [-0.976365625818542]}, {"weight": [-0.663438719461404]}, {"weight": [0.44277842177863486]}, {"weight": [-0.5734810120508413]}, {"weight": [-0.8789083449015849]}, {"weight": [-0.7091831416681276]}, {"weight": [0.9838262831508737]}, {"weight": [-0.9678684435348155]}, {"weight": [0.7213940230580786]}, {"weight": [0.11562053564730781]}, {"weight": [-0.7338181053866883]}, {"weight": [-0.0002626509200159891]}, {"weight": [-0.48667844545054234]}, {"weight": [0.1738523324140742]}, {"weight": [-0.5601940935736038]}, {"weight": [0.527734939647019]}, {"weight": [0.684807266381527]}, {"weight": [-0.9364909976339675]}, {"weight": [-0.600285396535722]}, {"weight": [0.5454601213698191]}, {"weight": [-0.06475655621316068]}, {"weight": [-0.42828727110201553]}, {"weight": [-0.11985886273250157]}, {"weight": [-0.5716354385515627]}, {"weight": [-0.8086376162279889]}, {"weight": [0.9477284286129695]}], "layerSize": 170, "layerType": 1}, {"neurons": [{"weight": [-0.8831066312737204, -0.4686084217025263, 0.5100866713554912, 0.09969600188825711, -0.5273126274298157, -0.010509476639826598, -0.5374674395711071, -0.3990701054003676, 0.4445668679283091, 0.17487528359764018, 0.29899137694038647, 0.18123277370026394, -0.6919882886667649, -0.8223171891707879, -0.7055181569473229, -0.7143502866633336, 0.873652265163866, 0.4296526359998712, -0.9568927006865098, -0.15875066431259421, -0.1194262694777588, 0.629949518760693, 0.7777525958778277, 0.15906130044557368, -0.47087113094745775, -0.7393068696900855, -0.861573662390189, -0.7302576626646775, -0.5248037693695936, -0.7522249835640747, -0.9310102066703647, 0.3052896561454384, -0.1779957086113437, 0.0987104857061102, 0.4618034336661661, -0.0480628772270264, 0.7506591389698938, -0.4544847999177324, 0.4263213128631884, 0.30370580540933156, -0.4584826154223376, 0.3206513379538476, 0.5253669679927003, 0.9903124093833262, -0.7629662370985524, -0.7631735868239375, -0.17338782472972225, 0.4694368925386314, -0.9270900704835271, 0.42852152390526843, 0.47434572326401697, 0.6558758179505163, -0.7635014366899423, 0.5022948722232794, -0.7623257273861841, 0.7760008338402102, 0.698175689057897, -0.7289268583072483, 0.49729009073567476, -0.6679822306867828, -0.8289762767747041, -0.5317009933047349, 0.6430391531120448, 0.2517286017868603, 0.45598242879984735, -0.42269247729473447, 0.2128517943245838, -0.18008232299130286, -0.6560617788231985, 0.7205031596763762, -0.0011316732627413284, -0.31405982833697754, -0.23349009601976367, 0.1964426242435189, -0.40130392293202605, -0.9536822366598584, 0.9071666435500519, -0.22630185797257127, -0.9793931484922562, 0.46975010241285475, -0.537044164099265, 0.14392125338027886, 0.35597754860431957, 0.2680138705161894, -0.024803276116669385, 1.0020114848020925, 0.9175034624523632, -0.7188463757016396, -0.8297375025393265, 0.45055890996252024, 0.38112883075547305, 0.3997215215759618, 0.15915048599290293, -0.74595986984624, 0.22363012193533383, -0.07264259474230271, 0.1509710680203247, -0.18842374791364436, 0.2558985041748098, 0.8594794212696129, 0.2975318037230675, 0.08809340800683331, -0.239713711296623, -0.8988637269137003, -0.4804017637812243, 0.5558512536559653, -0.5626256857618616, 0.03496073393299967, 0.12517791121585686, 0.3862355224266117, -0.6641038088100208, -0.9659879520796439, -0.35954007397644333, -0.5978995751092666, -0.047586457187328346, -0.3087540892040297, -0.2517511869115345, -0.4294239049577553, -0.40348244872137234, 0.4157877873980496, -0.04925250391793871, -0.10797329317445685, 0.04361554646429089, -0.6070290931255585, 0.2943022780415354, -0.29135649470986585, -0.8316928603351463, -0.8537008798674388, -0.26650539381921307, -0.7288653359648473, -0.12372372382170638, 0.8161493200333351, 0.8254165217731579, 0.920122767870852, -0.5528880770549228, 0.8317078936834635, -0.9538198269667608, 0.23872771123121628, 0.5730600407700548, -0.47273626223251797, 0.6608882774685424, 0.49409898016097753, -0.537677333655261, 0.7458571366345481, -0.33827501113778213, -0.8104184977550117, 0.48257683716345917, -0.12073630717851369, -0.5845925735945541, -0.9283336601871282, -0.0010364771378558648, -0.8800938376666327, -0.17715924477333386, 0.01686047359514834, 0.2745143582187872, -1.1642577586054796, 0.9072534357515005, 0.8106829349333008, -0.9984375056674621, 0.38666866128392813, 0.7786798421543489, -0.35537641920288965, -0.9570931468675354, 0.11779486820259298, -0.7485357440355933, -0.33312979656741426, -0.29206267612333003, -0.14216077189833487, -0.855844314499016, -0.902102529176782]}, {"weight": [-0.6872804771669634, 0.03855689322598705, 0.1610589720701694, -0.3870313849921534, 0.9842503777926817, -0.8579044223301537, 0.1953654683018851, -0.13396140305522852, 0.9674289476465238, 0.1049096078518529, 0.7343197809632693, -0.3850414417973111, -0.3610762643892747, -0.8998882996924051, 0.3772572310256224, -0.44747628800189077, -0.3242318996078892, 0.21817387853388917, 0.2103786705061126, 0.04210114868834269, -0.7061267247966374, 0.8529291778682276, 0.3868012141316155, 0.13035278014316978, 0.4893259399593109, 0.126586813618496, -0.7229495968924983, 0.6031013533081362, 0.9608492197677257, -0.40825165062144947, -0.22744410066856124, 0.7115486669729506, 0.08804862869899933, 0.9567100211387521, 0.2941598648912927, 0.9722893777650194, 0.17811658400794372, 0.9089144195479457, 0.43514965419874385, -0.916544072904862, -0.7829577071948497, 0.9848288581824471, -0.8768799088712994, 0.3100881098935062, 0.7422889070656453, -0.06701771900694498, -0.05063171217595741, -0.9329303357055712, 0.1390265315314137, -0.8631691191154556, 0.38368552756066504, 0.3716251076784605, 0.17789957212761978, -0.680381900747224, -0.4132602258763345, -0.03960365277223432, 0.17504097952153308, 0.03681635568928576, -0.5870604945577265, 0.9332606783535268, 0.5978523634767686, 0.38012998460990916, -0.038226958603954225, -0.3427211984640015, -0.37210600465081195, -0.9666463646729591, 0.2605478920865818, 0.8132803640988172, -0.29659183079547063, -0.14048419929600064, -0.6614586853472828, -0.8168053854481143, -0.3238385880242378, 0.6399889534651405, -0.30563594616829176, 0.7797061525410464, -0.19771580694456634, -0.18746736820153173, 0.009865274429867732, -0.40804391553415376, -0.31466248067524666, -0.41559726036640726, -0.8220335489679703, 0.4815612264297273, -0.08774213529008033, 0.061529155432069244, 0.22604297368925685, -0.36917732368212114, 0.5096905719999132, 0.5214194177209528, -0.06494896058065756, 0.36938669546832875, -0.7235164805330689, -0.9948301947883638, 0.9050092516394395, -0.7003993152885709, -0.07580033338524271, 0.1664673326179842, 0.14125246827837273, 0.12039355514391259, 0.3097023520356262, -0.03192371772934341, 0.8294084617309765, 0.6934748985440056, -0.6061676514654982, -0.41720260095221223, -0.7212629048355322, -0.421014527896081, 0.7905231668085684, 0.6846903946045223, -0.5474918902737593, -0.1306852925358628, -0.9540337026563924, -0.411792729085213, -0.44541830799615867, 0.22886036118271047, 0.7653674516713974, -0.028644117405224767, -0.46968142935205165, -0.39836292755612396, -0.18218361902267818, 0.030243078294660813, 0.9435841071451363, -0.04200483670119064, 0.5560942092229593, -0.00020762209804642425, 0.059905029924515185, -0.035819339659102445, 0.7536454844585679, -0.9375401532381954, 0.54667477744786, -0.9319066858927624, -0.7553401935448076, -0.19691775380696105, 0.093774833443962, -0.07768929136069157, 0.2987285283344674, 0.2450640332461842, -0.5420192200695304, 0.5686778412358198, -0.09301754902672164, 0.15028364552239018, 0.23483261856915852, -0.9617610788441335, 0.35786010102413246, -0.4732711026761518, -0.5450060348423443, 0.9075354093694128, 0.5458822054371322, 0.9400990148893893, 0.8778840121491006, -0.6279822854739097, -0.009607178270204022, -0.2702848658521983, 0.2583384217250606, -0.5129367618630816, -0.4565181033119756, 0.14374341644335462, 0.9664826446113999, 0.8640629434996142, 0.7059004773825494, 0.05010346123323983, 0.9056040179548164, 0.2164430988949584, -0.9320077660957475, 0.8305644447221452, 0.15583208659221026, 0.12620866748703552, -0.1269436808882063, 0.14535934711568863]}, {"weight": [-0.11470379073487824, -0.2395306971781976, 0.813117469583932, -0.0738317833677824, -0.3366947623590766, 0.21474057504963184, 0.5154039450804152, 0.7968134232404491, 0.8183517570448616, 0.49926335598334753, -0.5206859845681286, -0.9497310199712935, -0.8155009756485904, 0.5902236808726355, 0.9974174905238603, 0.45442725604566414, -0.9843525169840099, -0.05127620741751761, 0.5517063076153768, -0.1205540996418697, -0.0777998025892892, -0.7196846867037997, 0.47331740657423294, -0.9140052802771622, -0.4332938006802362, 0.20365561115580433, 0.08499296878190367, 0.6702426203207479, -0.23168704538858845, 0.19409016391907666, 0.03250760301135136, -0.2860114757379281, 0.979579792843191, -0.34001790850882546, 0.14370381195486562, 0.5231681275681153, 0.7821209894546532, 0.4225013246676208, 0.2873647298885349, -0.31403549104506223, -0.1666470149837178, -0.8500112849927004, 0.36952997864229237, -0.890724365067967, -0.8616118559076571, -0.5159772306840862, 0.8216176949756624, -0.42363832316045924, -0.839720696091747, -0.5881358513261861, 0.05919889585462046, 0.6493800887837525, -0.21598664876458892, -0.027453883347738017, 0.15273696641767565, 0.18773523395319724, -0.502249845717786, 0.05694657544435766, -0.30483750537507626, 0.7217217025352326, 0.31307340189646987, 0.05604724325001728, -0.9425026916002909, 0.6754248358711303, 0.7508179070172828, 0.611001757257428, 0.1599168946605809, -0.5855156378725695, 1.008472340969795, -0.10206994521279156, 0.5727140432552138, 0.6873279602621434, 0.9755837156828624, 0.9395531080386129, 0.8509516866539678, -0.6340278044483268, -0.3092398733322756, 0.7201037116127348, 0.369458073847335, -0.3838153370128674, 0.6882221863453645, -0.5529883105628474, -0.5588042895949826, -0.332717469792549, -0.9814752485816248, 0.09035445651559194, -0.020735165577975057, -0.5524417906271782, 0.8099647242804469, 0.1318162571763155, -0.4466654332002817, 0.3581606186824518, -0.038930450444705, 0.9134090439530693, 0.2636690356870224, 0.6288097751750491, -0.7268632239314131, -0.42212508117135616, -0.8139118606955394, -0.4465175665263086, 0.6517809269300209, 0.3643346773686332, -0.9676572724819554, 0.5381546231224879, 0.8103883075084531, 0.9740385792496388, 0.9548333509262407, -0.20770447380300358, 0.07597403552986326, 0.7471745534686188, 0.3345043806821417, 0.46439186069335925, -0.9839207991875956, 0.2023343333944425, 0.5716550017193063, -0.906073055305439, -0.9515455304956729, -0.33483615467932903, -0.8069428617510791, -0.5494285870978907, 0.6306805834834753, -0.8135808841742768, 0.6983741829581724, 0.042782408174495704, 0.5967635037429544, -0.523315318230099, 0.9555217151871136, -0.9089076206899602, -0.26456175013605826, 0.8172323114909891, -0.6174436728809707, -0.9401776984215516, -0.24610804173517353, -0.7592322071271566, -0.39104489161457473, -0.6765161608000468, 0.8235589669079497, -0.834661694067383, -0.5349514225521148, 0.7282436973596254, -0.5170209053775382, -0.36594848019075327, 0.5045699597801582, -0.24694370941539656, 0.12418745298273981, 0.8706183689955136, -0.7770998420032426, 0.9530072301090557, -0.2902142584092722, 0.11213337301253823, 0.376333394948055, 0.08538366221314009, 0.378774699676616, -0.3138597595871639, 0.4995229841569735, -0.21262207466101188, 0.6659179065740644, -0.9029027738447485, -0.8228577880972965, 0.8569885084931851, 0.6431696507855346, 0.2456994514103672, 0.06828413250543419, 0.7521649046436355, -0.7325871202205911, -0.3069287129372442, 0.5442299469869063, 0.2014172925848361, -0.7799648173988452, 0.9328201500400793]}, {"weight": [0.7947905017931436, 0.09699344794655386, -0.5087195658453245, -0.7722675780932415, 0.7930826988928383, 0.4491578382782364, 0.036840675851323404, 0.4512628052334857, -0.8914747370695452, 0.6493323256968299, 0.47229125439028974, 0.6589118871294041, -1.2755192374658124, -0.20868333305850917, -0.8061765580265682, 0.7435978110463237, 0.12935127646425754, -0.47310422475951047, -0.8634951784599545, 0.35643382439718674, 0.6452787257336721, 0.7588707446138535, 0.22820822358725246, 0.12284797081343142, -0.7198599203427062, 0.02551838549355967, 0.48157270133288016, -0.7208804027320441, -0.06842515801814907, 0.5592786103496897, 0.3642869221836933, -0.6422526784536843, -0.6330895245457783, -0.42669699635373765, -0.849334874440551, -0.06852810548031663, -0.037123642359863096, 0.6843236247484372, 0.38929769677824066, 0.38873072615072224, 0.5161942789401768, 0.04777523028277253, 0.9885165304861834, 0.280308791185508, -0.9250961652635232, -0.5936850192135332, 0.07230267672143764, -0.8575520476156415, -0.29972975171201804, 0.5108275371670525, 0.3061649735200674, 0.5850700180684459, 0.9100035109488592, -0.688534087991872, 0.3862079587320957, 0.5063552688099522, 0.8008712779131026, 0.007888687455880783, 0.8237013645412201, -0.3392983570816503, 0.8154699618373701, -0.687056472025262, -0.7074821823042831, -0.73470266174876, 0.43071753152130393, 0.6389305521792594, 0.14864819625678116, 0.41841581637598196, 0.03524927158373679, -0.3067856169483274, -0.7691877129113549, -0.3471759874470639, -0.21005138887867392, -0.7528783114034926, 0.4001498728591349, -0.12793484657703305, -0.3829865040000721, -0.9139289954523403, -0.8266407088096612, -0.7985835103356445, 0.8177657664360919, 0.798414173473443, -0.23446743777116258, 0.4655657277528815, -0.7290416008980626, -0.2687963594997997, 0.30261013359664, 0.7369872603177908, 0.6404797998497596, 0.8333796164448557, -0.5620971853846971, -0.07513943582017878, -0.7087909141324538, -0.7630152369163425, 0.29162309652501417, -0.11313519725485183, -0.9830896325044772, 0.8344810319885949, 0.9046418863906823, 0.5187886075897215, -0.9654399056295885, 0.8819500721417909, 0.3706628284939322, 0.37309975282969976, 0.7761842876534627, -0.7558922027649809, 0.13675673882002914, -0.5536714113766393, -0.6144218945005497, 0.20976874895271383, -0.3418743548689407, 0.42677711875647484, -0.3820086321456115, 0.09529609409191053, 0.04989625991905888, -0.006317175312651635, -0.41822437906301263, 0.4417559799252302, -0.43655199654350424, -0.20560585937670026, -0.21874964530767846, -0.6147227709175552, 0.7460397586666871, 0.21295430998832424, 0.23138432532363495, -0.7353731041258856, 0.6050181025587276, 0.8476189471233435, -0.3426055796058944, -0.8498239225287975, 0.16812078854159673, -0.7373999788380939, -0.30330347846368366, -0.6018179509510365, 0.9304105467882281, 0.11310819700325249, 0.15157154418319152, 0.18338758406666056, -0.8405525446779851, -0.45522556321802776, -0.7673165457523711, -0.19684070765531045, -0.9187748472178977, -0.6290237258650793, 0.1794218335055675, 0.5242769710460204, 0.47321566211792426, -0.8112385410379002, 0.22199258932467014, -0.2350876860439377, 0.2257065158160361, -0.8940063075182345, 0.4634845073766945, 0.5022734853381897, -0.9835562995333147, -0.7567142194789136, 0.9869412471999777, -0.5944470341792408, 0.735180306003693, 0.2582956791508938, -0.34015718986704985, 0.039624346204021776, 0.6564138447675887, -0.2702123372270659, 0.5731491144179173, -0.7224253647475329, 0.0905644288380354, -0.2194009013972269, 0.5602972813604044, 0.611195563209661]}, {"weight": [-0.7931118076960624, -0.9190753124293812, 0.3388077604202815, 0.5139114303596448, 0.8468726897105858, 0.563538845049669, 0.5907231695445537, 0.9087008780113892, 0.6027342888434418, -0.7728443996456474, 0.7378804561594734, 0.8911481664060735, -0.4005363057053519, -0.26296633640628464, -0.2778357834354294, -0.3742801224850707, -0.810547304577348, -0.15571220710402087, -0.5905611275625113, -0.32973868482136326, 0.9706044974307757, 0.23384131047458737, 0.5767550440677853, 0.11225037164247133, 0.17205849549102806, -0.6180605025915673, 0.5153702502185576, -0.1869481100082584, 0.7555989226822616, 0.2522041953806839, -0.7944577321377848, 0.07653417076781475, -0.23962365714046086, -0.6918037232190383, -0.9458521738517808, 0.9190943384706072, 0.5571947444926195, -0.1114774398933236, 0.49785710139537054, -0.39474703741536943, 0.08114796280583936, 0.20006489786358705, -0.7803458482021915, 0.7018110871610603, -0.6266857041211025, -0.1898012826700477, 0.14327704419951592, 0.4696183442480226, -0.35303546761640797, 0.26816029703398403, 0.9227243262520491, -0.39121175657538515, -0.7572759923363465, -0.7267352372576941, -0.6288293499493016, -0.31107681574925183, 0.8388915734749931, 0.8839890859449324, -0.8835610208647342, 0.07309685880564892, 0.8867480796865378, -0.40711998541451994, 0.16194172051726577, 0.791307823651964, -0.7508641179702428, -0.922988788584413, 0.49501591136964884, 0.47799959091313765, 0.1590264689475727, -0.6319807107348907, -0.07514560661791125, 0.6041654382936732, -0.8171543551183904, -0.25695458343554606, -0.09094588030127891, -0.2648619889459956, 0.5622256620425828, -0.4801279362672152, 0.9631694563865807, -0.7059003171254052, 0.051356997014680175, 0.05481841187002576, -0.7083760819808856, 0.20487583269359622, -0.7330229087457608, 0.7265272609932075, 0.1744268598748322, -0.9443014622521954, 0.07849022186697474, 0.1374476773094584, 0.7185411531527305, -0.08842652387558823, -0.299441623366397, -0.5400079094072292, -0.7654031882836796, -0.40627736867009506, -0.34255929264374857, -0.8563284997712624, 0.9133939192564505, -0.6388929775378669, 0.13438290460713825, 0.714650222621343, -0.9583016196492773, -0.48813622154675373, 0.18356705071706994, -0.9792538779905554, -0.2204362459628388, 0.9023537674845347, -0.6235576915799195, 0.8145847004856163, 0.1239333852775597, 0.5092285894801978, -0.9299729854187014, 0.9377359687465452, 0.877391295656262, 0.6763202453270123, -0.414024020081803, -0.38777359604903405, 0.334888919382933, -0.6757698449758486, -0.9371740335596129, 0.07074860882261175, -0.6309633333417421, 0.7311505687535723, 0.499679691244572, -0.20787057148695262, -0.9034208970336073, -0.07006498494646363, 0.26290830469958426, 0.9974955000261411, -0.6682061949571241, 0.6086405239500944, -0.8106285561928193, -0.8225434915028788, 0.022210260288027684, -0.18102344625717823, -0.05048494107285051, -0.04737374123713156, -0.6919007185552606, 0.8987223869308578, 0.4077609560992242, 0.8027796875807888, 0.9551250443224716, -0.7793247686707416, -0.9901175237082822, -0.1558858308165969, -0.8552898140440787, 0.22211509036337618, 0.24563350131406625, 0.12383304265833428, 0.34781922413269944, -0.38513462016603817, -0.15740521749851208, 0.020712148261575126, 0.39237688751457345, 0.05808684873708335, 0.1520239278639961, -0.02239425239665224, 0.5399132325398306, -0.3734265589786376, -0.23979864454754635, -0.06560205593637436, -0.09036548384990373, 0.07984430030875465, 0.7970415034851057, 0.35489950908657364, -0.9454807248332289, 0.9138814266981099, 0.48361771967864486, 0.8611161125255377]}, {"weight": [-0.8228601263755939, -0.4335688111709703, 0.8963425415464237, 0.7736756312091062, 0.8667047655177116, -0.2647779292991812, -0.35590904660607275, 0.1669041990757747, -0.8678221816770252, -0.8802694442972742, -0.617340704765666, -0.7133036279823771, 0.43522905177242105, 0.4954297104126679, -0.5602523220821051, -0.7962817349422635, 0.28815336268080577, 0.20974737691033488, -0.9558651192509526, 0.7166779492149324, -0.0759333388679364, 0.04488129239316613, 0.6455127114303332, 0.4202038513067768, -0.7760649128959015, 0.5274764020733371, 0.3011708253499757, -0.578056671742607, 0.08296808589973094, -0.8603685584841928, 0.03357879330610869, -0.868753918849975, -0.5604124471102757, 0.42424241297204374, -0.17188230523024653, 0.2241879825750004, -0.03741568476941315, -0.10692936462426705, -0.02200807203546562, -0.5413885502170537, -0.2700587438121598, -0.08997454835046947, -0.30442565101073366, -0.4166771280107451, -0.15309793690355455, 0.32347600311014935, -0.37446674412002556, 0.03334497482918697, 0.8726078217195913, 0.34978487423989235, -0.43761393086569406, -0.2159639806050355, 0.7175170440758679, -0.7996511434078744, 0.9730223520833272, -0.21683151065726114, 0.9909925955521932, 0.7736849042952161, 0.41709593544175116, -0.9621544165924677, -0.018950505857662194, 0.36635669459301373, 0.8092350284050719, -0.8584979453736625, 0.04363036133677793, -0.4480997202470589, -0.2738279531819181, 0.8584733402235581, -0.8147230201269454, -0.15457089439162108, -0.4788556299486111, 0.5153751877957464, -0.7172163646534258, -0.30951949602176837, 0.21227041838307573, 0.1361603422175618, -0.8185241641999529, -0.26942260020681624, 0.3356803421253156, 0.7190082440764576, 0.5716064069347669, -0.360682559431217, 0.13825107774682394, 0.745630601409788, -0.028562827737643924, 0.20323849790537454, 0.19676392956756628, -0.28937240806450276, -0.35690102101148935, -0.58365367619722, -0.6916915467371768, -0.8612914012960203, -0.21496277134351782, 0.1230333144172353, -0.9497831293226131, 0.19517776635268105, -0.15561177178570082, 0.20086828403208323, -0.6419642771579656, -0.8857580416759843, 0.33852789080959905, -0.1990626341957271, 0.1031744563632464, -0.05359520287494757, -0.26174659332085876, 0.30933148205137867, -0.3147241131543345, -0.10947199982283447, 0.7144675793584951, 0.6282876404431891, -0.47995843239352975, -0.7541415269015208, -0.3038118868627124, -0.6321651545671472, -0.7501685750806764, 0.37619346855720903, 0.20396413590022935, 0.3862476783013977, 0.9132427812182123, -0.0063357607606619295, 0.6960016098008645, -0.0017129464791731488, 0.07176732096032823, -0.23734327144813672, -0.456064457408184, 0.7872199766201576, -0.4113276600661335, 0.8400256076520312, -0.7346223102255219, 0.9637718665826672, -0.43044625011577553, 0.39261037588854003, 0.42072208203648276, -0.8974373903675911, -0.8050058956441067, 0.28633668992748534, -0.036503220102829026, 0.047919718424557445, 0.300651225684903, -0.5748134133970231, 0.5532932450888174, -0.08430172429270742, -0.8177505352518547, -0.5458618850029355, -0.4416793490610238, -0.2216472318696181, 0.9719751656251826, -0.5391840138955535, 0.6616026147162677, 0.7309720567266456, 0.25469030115825225, -0.26479967425109585, 0.49874336171020256, -0.5938793184647676, 0.24772105668657085, -0.2564162730158472, -0.35155002812696967, -0.6580434219102217, -0.5861592643984801, -0.4711206034406698, 0.4302828297376376, -0.23951280468598668, -0.1413418218590765, 0.980490268278399, 0.8711129104075728, 0.4023291497931407, -0.23012291442765154, -0.41135145528400896, -0.22843338390263868, -0.11850872932779441]}, {"weight": [0.8545750167359574, -0.026586702240805258, -0.9660963529431765, -0.7730738608821106, -0.4075054374423379, 0.9665925697113893, 0.6711664652268551, -0.2561531398982142, 0.1371998820566368, 0.17833718250265787, 0.314566041174728, 0.6225263297886675, 0.009109268617183069, -0.7476250810762191, -0.8937570150266446, -0.0921781524366192, -0.17276207475235436, 0.9611718059543789, -0.9555708241224132, -0.7098440526935559, 0.07274044377548394, -0.671839983409045, 0.09064367470516022, -0.8458634033940701, 0.9639127786611287, -0.20323906312958862, -0.8945425776325563, 0.9231559962312901, 0.775291059347274, 0.5062305048142965, -0.23092728522142703, -0.38731191347004795, 0.8005337761589107, -0.2929592685717463, -0.5261918833557974, -0.3895489446677294, -0.8806825660720605, -0.5327109280557516, 0.2827078424200242, 0.15133154368230772, 0.18841934685512718, -0.9630275018291587, 0.09379662267942258, -0.19774372330071888, -0.09909878324241328, -0.9623600264985186, -0.3451944542455523, -0.7135178948050329, -0.08870494118641324, -0.10061912614956214, -0.933924521495403, 0.8196178666354831, 0.19345935182758825, 0.7501908324861051, 0.6865245516401794, -0.7739536771299267, -0.5527771387561982, -0.6043727035589725, -0.707198758821522, -0.3952473544993495, -0.11430977155489472, 0.7204907583480148, 0.825431123810426, -0.915183419058273, 0.36082005272895273, 0.7461535749877466, -0.9857443946699938, -0.5340156010603369, 0.10692189035105017, -0.22876753516699222, -0.6374991767325984, 0.06101874697751941, -0.4091374382170525, -0.07505352139267939, 0.9418329220570113, -0.1895322045627423, 0.3271426256183639, 0.7855264253956952, 0.0914189462122823, -0.38921112828285853, -0.5729460056666854, 0.03556683718994966, 0.6675070495995098, 0.7634222462688582, -0.6910797391128854, -0.12554904360228664, -0.46764276636776514, 0.7292858628022766, -0.45013972502981736, 0.9235347673938961, -0.14988968500673858, 0.8467655136766826, 0.715382336504599, -0.9386614219073977, -0.5879262604081457, -0.1456697957242705, -0.4282905105815668, 0.8100075177584682, -0.3510347050889477, 0.9879280706700044, 0.9875572279065119, 0.032039958419099866, 0.42619064270424745, -0.2704815636362463, -0.36537380619538035, 0.06537499495231108, -0.2576428343208537, 0.9076616951599156, 0.1937400672150975, -0.810915731938937, -0.8634779895166809, 0.4524837596975866, -0.7969906396133065, 0.9343619652965713, 0.9310131211616888, 0.43034914190301277, 0.37143162527014045, -0.10015488482199109, 0.5627059200547627, 0.2693549677226245, 0.7914354865983272, 0.7063628840151251, -0.15087886440945097, 0.08804131208787415, 0.6498235583842078, 0.008161917505919603, -0.85675839215827, -0.020370809645644528, -0.44148819357035823, 0.8897233960366943, 0.11933412235549357, 0.6139086992739143, -0.6268383642109874, -0.24470497191112706, -0.724011527171826, 0.01722281194334977, 0.13166825503914192, 0.20935393668212177, -0.923702351761297, 0.26138158140984835, 0.7179539890658774, 0.3083874194864416, 0.7362907639535176, -0.11383558941461236, 0.04094696110162066, -0.9065904819000932, 0.5857176368743443, 0.3460876234242636, 0.7136046930044904, -0.7649317059109704, 0.6968030086193092, 0.45129774019608715, -0.3680325622450344, -0.15144349066888416, -0.24663054209296575, 0.17350320840228967, 0.9564628446900674, 0.8979387078377333, 0.39122171739582656, -0.6592784051839023, -0.2098586179858499, -0.7940291218935178, 0.18115669739638296, 0.11693499272560769, 0.768339610331503, 0.638212175800432, -0.5857550408947507, 0.6073168853840933, 0.18280027604741678, -0.4666333144848153]}, {"weight": [-0.23627488815247055, 0.10199398912074144, 0.594713270699204, 0.9406382199926584, -0.6894452082220552, -0.43706484433972537, 0.05321067361528495, 0.04600909920478147, -0.8665796609208686, 0.29978683609248674, 0.23977658251335332, -0.05570787085904917, -0.005495287815679685, 0.3299400635475338, 0.2946692392513857, 0.03516818881869499, -0.7077472738225817, -0.18337950920929777, 0.5778879125676415, -0.15615459039058366, 0.23586770378138278, 0.8695638549209818, -0.7569897504718137, 0.5447437036344208, -0.06962391141972755, 0.3289150671039993, -0.8477379652778921, 0.41082445794363354, 0.09045356904922709, 0.007004333506566652, 0.8989384502556468, 0.6455404533710746, 0.9100193876433947, -0.10303065090210249, 0.6220076667276454, 0.35182717977094136, -0.5177540556404387, 0.7576035229690059, -0.5623308381837167, 0.7036424883507288, -0.793123094749981, -0.7334485901761318, -0.9767910808865932, -0.4066666959919514, 0.3601968698820035, -0.9258080048450397, 0.7484097777299161, -0.28669467985076014, 0.3517439793062976, 0.5162664488159263, 0.49279774708969704, -0.23691986134438858, 0.42759372890884656, -0.7096856846387465, 0.554377276667112, -0.6168514026264995, 0.8917789513393193, 0.5604441564958471, -0.34496234251819025, 0.5724007186824781, 0.9707563467997454, -0.057353634526583604, 0.9770723439646872, -0.572377348978496, -0.041507008653877284, 0.04102274799902883, -0.03063036965662569, -0.5646617432993072, -0.07375557311615775, -0.8745914663581031, -0.256469839045637, -0.8523275227810811, 0.8448987629730225, 0.8260337166563932, 0.1506626558845179, 0.6937718928843132, 0.22779835288080366, -0.94303711942078, -0.6148991434188462, -0.50822777631981, -0.06461250671914108, -0.6172738862464159, 0.7899108860904801, -0.45863713739074874, -0.35952176798214114, -0.8013245576269411, 0.6109854403673931, -0.6491817562250602, -0.4671456955003268, -0.6622074912343816, -0.6785553248953621, -0.37332461399933886, -0.30591143197300297, -0.7280264817931346, 0.482200961836432, -0.3117402220433551, -0.49305031209391864, 0.7389636896481948, -0.13059291246280483, 0.6552492391786213, -0.22228874467554524, 0.3713341201401575, 0.32944668397105525, 0.12688490886008164, 0.9628059524466263, 0.6545247946916154, 0.07849682594156422, 0.2703902680929913, -0.3320892690271491, -0.5721346407359421, 0.46429305913007024, 0.2725868546218049, -0.8962962986622406, -0.49470240507199903, -0.5580021983109746, 0.8011299985684688, -0.5976522900238975, 0.22982130249427035, -0.16823092281425664, 0.14463483366708704, 0.20452475089304015, -0.9187975057900307, 0.017296015026338818, 0.15906729899247243, 0.712838679569981, -0.3447474511830943, 0.7984504302742574, 0.3214447855331892, -0.17097308976218148, -0.6490934277674228, 0.48772145297537217, -0.513271613313836, -0.6137138391559327, 0.822980861172394, 0.9222276420720524, 0.2527284860406597, -0.3766209768619293, -0.529555341035562, 0.2444249828617957, 0.06601197897372657, 0.22165322402585377, 0.4426471475851648, -0.8391879566369908, -0.49785503245533347, 0.6713748663235135, 0.8888668209707558, -0.925921750495822, -0.9652844680382282, -0.22375530542392896, 0.5478802380184917, -0.9313577831301306, -0.2597741127670108, 0.8998913313312712, -0.7271650992948847, 0.9488113371206921, -1.3370215614453966, -0.05771916909778674, -0.6692787106380257, 0.40733983257441464, -0.8356747496898081, 0.7639039759632699, -0.7030386310266321, 0.9200933868051262, 0.756704307226585, 0.8619432230011788, -0.43032364181046856, 0.457068806749672, 0.8228615914970314, 0.43146745382822593, 0.7725212730249219]}, {"weight": [-0.4801341766467562, -0.5156942655653219, 0.9865806739651142, 0.0023463939329657624, -0.2225217182836201, -0.228060092980519, -0.7510096653804715, -0.7522093370226692, -0.7099906519859681, -0.4854717757101797, -0.5944229707622533, -0.01765769519145353, -0.34907813309192554, 0.8037934438838152, 0.26353296936844045, 0.6744242390476267, 0.31627508293118384, -0.4388879947298136, -0.485555995548983, -0.4263976154951348, 0.25050134497360643, 0.6813179773622616, 0.4981993689137538, 0.1522721567680874, -0.45823237619494867, -0.8957569483224668, -0.7210499776181595, -0.9083837894626678, 0.9356431051062689, -0.805256662504979, -0.057701601709007955, -0.4346420298856874, 0.5087887936333326, 0.005587771582224854, -0.20732771264528618, 0.9199382901448949, 0.3876882996953652, 0.005337398128263615, 0.1529648889498445, -0.925837408626053, -0.026607668557872, -0.18159056730271583, 0.2455769550417027, -0.961032974968477, 0.3784042955703668, 0.7249301184089514, -0.9309448274166876, -0.020321944143866677, -0.8821033054922448, -0.16815676074387298, -0.6975510371297672, -0.5195473257890107, 0.6229537335503453, 0.9379991096326439, 0.8541435789792311, 0.47036621971636805, -0.4453953104131785, 0.8557164320113837, 0.36738268288857956, 0.06887343478014663, -0.30573131556097793, -0.0548710343429443, -0.9705251548798682, -0.16152717662719263, 0.024710646948380027, -0.8542273932390225, 0.4483316072947485, -0.5645365267386374, -0.4517221907865447, -0.06383506804131978, -0.6639222124817845, 0.523904889014785, 0.5714415480790507, -0.4155646956237022, -0.32167713502568523, 0.7699465264145674, 0.6549601392427845, -0.3702259526040352, -0.7333764017325248, 0.7240043494793014, 0.19289595617706048, 0.23928350757809638, -0.7662011696747598, -0.26290773668343026, 0.32726913901471183, 0.901644545150646, -0.3281969400400562, -0.11662768994271017, 0.1933452402345286, -0.17751305991136146, -0.3238913208588156, 0.5202598583186496, -0.12657415652657744, 0.6143082953730983, -0.7141826147851518, 0.027609658809862717, -0.9712156185164648, 0.48755263254636394, 0.9022127536262955, 0.2319298031327024, -0.16641654410047632, -0.7883894519752755, 0.59344742596395, 0.7731268308844821, 0.1558837928333037, 0.8428758560443755, 0.6944739406293677, 0.6266787081626287, -0.2094596183665287, -0.736479645537598, 0.2694387397626481, 0.6238587289104607, 0.6657667920704277, -0.6959219705558723, -0.6823642807004673, 0.08765841723173518, 0.25370844843214607, 0.5841700831075558, 0.5841197182000958, -0.9717585936260306, -0.4008043193362955, -0.5588442485214299, 0.47250514760804396, -0.34105377122680486, -0.7280459431185313, 0.05824758352888837, 0.8450343835927439, 0.1436488552808759, -0.09841801104376745, 0.7925790615873124, -0.5207170038321274, 0.9195373164714095, 0.49970787308452613, -0.32475022796084735, -0.09354037105344913, 0.4025635461404387, -0.9322726000238806, -0.9689883103771142, 0.6378703582150402, -0.8327093359189415, 0.5566918503961474, 0.8472982593823543, 0.5972346699877803, 0.05907683981704359, -0.845019431873876, 0.42705631075179107, -0.13512427530915547, 0.5282027259922684, 0.5059488863628554, -0.4759188012462885, 0.8623382049679765, 0.6164843700339451, 0.39956582182382655, -0.9034411663732301, -0.489721235190989, -1.4460908713961174, 0.5921306045296901, -0.1607804649500326, 0.6730397940823192, 0.8256602166944004, -0.23642303104322632, -0.4697609197744985, -0.4613765986465883, 0.5193101707545593, -0.5394183218899571, -0.8806476227021638, -0.7713716082541311, 0.7176612395679796, 0.9294912854574904, 0.49290187223381]}, {"weight": [-0.04651578427653491, -0.9265558189621553, 0.7371091368794098, 0.8609770424634069, -0.8897725188250414, 0.9504145508323554, 0.052803106871455924, -0.4925283381259411, 0.6310443947619501, 0.3619512786612991, -0.7923762876158467, -0.9251488093698336, -0.1415574285606825, -0.24658038837600804, 0.6096738609479374, 0.5536820211550284, 0.7231432875006295, -0.5549719794587912, -0.40097252518485704, -0.19052191396527496, -0.045582831869872775, -0.1531057631757413, 0.7709514716926809, 0.5575965180276098, -0.9812394583616808, 0.0745674698606229, 0.3818673383867815, 0.29351403393417685, -0.8798106388896406, 0.3409715369982949, 0.5238625901674576, 0.07791553808122452, 0.8499416391661868, 0.7278683766143127, -0.36977605362440785, -0.1912257520315408, 0.5099200539497688, 0.7439700489573358, -0.6236557759649919, -0.5339223559802837, -0.7816415197185289, 0.6967665455899785, 0.9396197531307965, -0.2790914825148709, -0.655908645407614, 0.5826876855615921, 0.8644324058060491, 0.5528530334519353, 0.07328419434761972, 0.30705888860221275, 0.15500625199491427, 0.13267919217668792, -0.9843283257914497, -0.43718095544032565, 0.05391260369340656, 0.32624232070306225, 0.617876177839066, -0.9947835495735975, -0.18315828437182957, 0.47594016051979154, -0.42423886316893217, 0.5505906736120908, 0.37223415267601695, 0.5985208606821273, 0.10174154267433101, -0.6065749483020297, -0.7991817637523313, 0.4302527736232565, 0.6571455739863555, -0.3649985910960021, -0.571299715462873, 0.6829149382645208, -0.11871579537546695, 0.9507812574931397, 0.40995485752437283, 0.16921318225848284, -0.7605076640889662, 0.8034720817779047, -0.7133798485703813, 0.7067362028090887, 0.8556592159725448, -0.2164226357344283, -0.9631042416841377, 0.11628862712044064, 0.2965845245366357, -0.14238608092397606, 0.8084065377521044, -0.07888600683524825, -0.7736427446634941, 0.11546535008373127, 0.6213519463352034, -0.2804350499221368, -0.04612953813885645, -0.9345398102892339, 0.3095826087814555, 0.8242939219969679, 0.04684220184380024, 0.9433176403354224, 0.8180350881168511, -0.3775708006478449, -0.38582261288081193, -0.25152212689268566, -0.5674048956662012, -0.7062170631213425, -0.5916042587024578, 0.3115599750132437, -0.4817237443029713, 0.4261906367283335, -0.9533555687059581, -0.9485774328287623, 0.24178776255959455, -0.816824441564822, -0.3165472640888824, -0.7263214295631686, 0.00320536989474296, -0.4630694600971239, 0.8061255539006226, -0.8662459485916703, 0.3591536217245371, -0.11744568784845498, 0.9792667395619007, 0.6389454074680431, -0.8986467812354286, 0.5519401550242095, 0.9797303741656966, 0.6353964117802652, -0.529374645324582, -0.4185428222448566, 0.2563807419177325, 0.24609477101320074, 0.887994828462844, 0.6170226212609408, 0.9854078481573592, -0.9602217632512754, -0.8803227894178413, 0.27596872406732104, -0.5673898785327516, -0.9857109437652911, 0.24530661865741, 0.5666112041979754, -0.05467135238005297, -0.3583586824886779, -0.626418373685722, 0.05318202718474141, 0.9276325712989948, 0.972796562155656, 0.022169328949046812, 0.17460701009889945, 0.22313880557532584, -0.9708302851840953, 0.29646324063546753, -0.02976941933499866, 0.9950586334263988, -0.7146107121916311, 0.37450198163372694, -1.1698777564477985, -0.49114087299586107, -0.09803263755957002, 0.7166476907883432, 0.8583470215198737, -0.07305544987184663, 0.4922108211936673, 0.9098623318110834, 0.9179740655043774, 0.6155635779901931, -0.7121639175257679, -0.1310910791648512, -0.1982484104353448, -0.5197533892497996, 0.7999949185539666]}, {"weight": [-0.773997643767695, 0.5275089665228622, -0.9451304720494944, 0.43966922275566245, 0.8509988275740008, 0.8665327772477269, 0.9504490097455583, 0.8452566884108281, -0.4758229464894605, 0.6219396035840542, 0.8287033327783813, 0.31308282937626225, 0.05611141032293113, 0.769572245169283, -0.9209737918579174, 0.5529420727578487, 0.00447165438049197, -0.18948009895409054, -0.9352689765817017, 0.6766953024586615, 0.2209759745286184, 0.9910463101492866, -0.47446658120054663, 0.5016658296443258, -0.7129702231372698, -0.08745474828534805, -0.8805134480039941, 0.8374429323504149, 0.4765883824207627, -0.3177083646034042, -0.15442433442568015, 0.536181314660526, -0.4530233397839007, 0.12025453300118714, 0.500668370924002, -0.5128564766231829, 0.45509345756065867, 0.19570976435992438, 0.23431180554718267, 0.032321149674835015, -0.02035120398519563, 0.8006822122669326, -0.7282332460408142, 0.8929609406481287, -0.8255415310479226, -0.9225081565566049, -0.32352893935759264, 0.2808864745289641, -0.10052913910852711, -0.08150045838324838, 0.9459375432700466, 0.6338132244493707, -0.4917961452195593, -0.2945556125726301, 0.11646717628156722, -0.4524121987419971, -0.08632810949175074, 0.009864526933698103, 0.3367069634191855, 0.0910228132723664, -0.7562805063725796, -0.7705737916499339, -0.16001853946709918, 0.9723351434654506, -0.9806557179212697, 0.8956901760884002, -0.1944283937435196, -0.5609413700753881, 0.3946506290628529, -0.28227831892967403, -0.3511657123290963, 0.36850317223083384, 0.7621962926365109, 0.98580867752819, 0.6050758956660177, -0.5295599514539194, -0.9864657727204839, 0.5118988882346426, -0.40993413537686374, 0.6892680466161933, -0.059565290411569896, -0.35113159542205014, 0.5718365368519197, 0.06175809459521253, 0.4899169218997373, 0.4044485913420846, 0.6494257455423684, 0.0058302475455354755, -0.9193337310882956, -0.768319730465209, -0.554143594118866, -0.9776831326231107, -0.31623730184389465, -0.022762273209993023, 0.6382646411297193, -0.9549244055889806, 0.12384100914405, -0.9991638169360364, 0.5416853729881145, 0.12864957616554484, 0.019026980328305434, -0.7911152868198169, 0.46212280031661535, 0.24216759604235572, 0.34362980907713064, 0.6806695991537389, -0.8074050837064749, 0.4746340452139333, 0.545117210695282, 0.5087382883341296, -0.47982510534849343, 0.49082567832016366, 0.33512155952892125, 0.8478287537904285, 0.061581326166675554, 0.11625221331167968, 0.44379983222699143, -0.25403021274478643, 0.43933965602096997, -0.39906977623050127, -0.8700580635579344, -0.7830081094651075, -0.5577277790924762, 0.03753151944482831, 0.1425185440692922, 0.892189910744248, 0.3922914757639264, -0.7609264702520999, 0.4457600753710585, -0.853846451491412, -0.945933985333659, 0.09525771419250918, -0.4534647027605525, -0.05281657018076407, -0.9016547223776031, -0.5795782253899865, 0.8550558049146517, 0.5343695154972958, -0.8625024882854908, 0.45635862437873387, 0.4957992937167274, -0.04070272573421532, 0.6654315234072209, 0.36804468025657533, -0.6819110021916388, 0.8313470287611449, -0.5501168148023577, -0.43765696476488847, 0.6363847737627766, -0.9002176180619614, -0.19011392328860952, -0.5958262443478244, 0.37781544104577064, 0.972880499174264, -0.13844865521367278, -1.1571674557413372, -0.024007515442702854, -0.42057259343465775, 0.6183969573105232, 0.12749181358367362, -0.12287964513034025, -0.2700672984341561, 0.6376038990654127, -0.11188796232893641, 0.5396642489250385, -0.8485778050007569, 0.3290787029706972, -0.46177166773960576, -0.3638594359433225, 0.6653025813505243]}, {"weight": [-0.42788664193366444, 0.5392977985955777, -0.11749654617406469, -0.12578592395437616, -0.3090267967584903, -0.6601084392023955, -0.27313652685671735, -0.5581508447799874, -0.15528781623702723, 0.9614005595592247, -0.9874844441050155, 0.36402175703577117, 0.25115043152275063, 0.6429883473123807, -0.20917876019010892, -0.1063005672753552, 0.5091087042549417, -0.7961404504718291, 0.20366855340921663, -0.728712681781355, -0.1434329572000761, 0.5715813624511362, 0.35573788068495515, -0.9642884347657422, -0.18810430180283963, 0.3048384282347121, 0.6066369798204537, -0.2122089644652827, -0.2283887664044024, -0.969934313624908, -0.7249698603188739, 0.028041739757726, 0.7657800966347085, -0.5334000089881342, -0.43489281060773294, -0.17847193279032347, -0.4056130964738447, -0.36819752870810185, 0.6290116760412052, 0.1393331446075632, 0.9309130720051029, 0.8764030169091244, -0.8332384697867049, -0.5859432187465661, 0.776099390116618, 0.14515985026200795, -0.776551185753795, -0.43027938094416895, -0.9049781518567811, -0.8507822790630164, -0.523721034843536, -0.8757005314378098, 0.5394658045689281, -0.38567814936197387, -0.0061095081175917, 0.9317761448812938, 0.04243144930019249, 0.011841132318578307, 0.8743311518705015, -0.3567236134145712, -0.7256933540905169, -0.52344029362319, 0.23202013056708817, 0.3529954230209593, -0.4741722647673327, 0.42149600965385203, 0.9281691075701655, -0.38282953264747505, 0.7263909381515644, 0.18033849192906914, 0.42737134557350864, 0.9570433441367268, 0.10687214052447325, -0.6282454077927458, -0.8052355697811492, 0.14294112588074173, 0.6064734174659873, 0.7594288552218441, -0.8010592392796134, 0.2590851716314686, 0.1253578919424303, 0.47586253786770577, 0.6505982032459884, 0.7012848485759371, 0.052625662881903595, 0.5210553629395661, -0.7683587281125892, -0.6658772732215387, -0.6848036453295601, -0.5161358644319016, -0.8638830125259939, 0.17954074113473675, 0.41352805369209555, -0.050375341122105066, 0.3033196826372475, -0.3687628778114866, -0.31080881413560907, -0.22150930366565502, 0.715326962997526, 0.36337222769109667, -0.6076956167582247, 0.0018147477713328789, 0.16387215888388096, 0.8240827057535316, -0.3652047274351628, -0.6783002227076261, -0.48762523625037374, -0.01238758360778528, -0.2783277766258363, -0.7146117060489471, 0.5806821764293424, -0.8562837001480645, -0.4819419784110017, 0.7575215172158849, 0.3496831396640685, 0.8437921855450461, 0.29666285242482476, -0.9174494931402299, 0.19049187622779654, 0.8157410479481614, 0.32608532174335486, -0.4121048257975876, 0.2370585818884121, 0.5607705335477035, 0.03610900242716086, -0.7928116461189302, -0.8254015532825418, 0.4912732380140503, 0.4001253024051202, 0.2725777468679061, 0.8721379620575518, 0.8364686309184762, 0.09638512609607752, -0.1429147596240434, -0.17906222178762163, 0.5122433580506586, -0.7390798881388418, -0.5123738680337715, 0.22528458070843005, -0.8714555606631309, 0.7558596724168617, 0.8830528585806786, -0.7223911497999299, -0.22887063993980172, 0.33559627986504315, 0.5024562421935403, -0.22132123235951703, -0.661074361828784, -0.28050006945483874, -0.42445507615333034, 0.9416080857173975, 0.4098032221523915, 0.49800515116991406, -0.22654145614944896, 0.41506805328704455, 0.5201386117112432, 0.25733612671410033, 0.7454168186786684, -0.717401194941713, 0.97378006663822, 0.1861778746950469, 0.9665713165556757, 0.622045450713407, -0.07644109396376374, -0.1513245262048426, 0.475445028611001, -0.09116146944568881, 0.912590815420472, -0.12593138149626792, -0.8221613738790018]}, {"weight": [0.3802470984547168, 0.29365892449599557, -0.7200641931598946, 0.4567816046544797, 0.11063399575102273, -0.6440796217421891, -0.5806883088704143, -0.44228116040659193, 0.2882195477181056, -0.6160060842535494, -0.618395649661913, 0.9809085284421445, 0.3066573769392127, -0.9044168600739138, -0.10234521716066901, 0.46552084908755376, 0.823824570716908, -0.7686544507989953, 0.4171057444104338, -0.6975002439420541, -0.3055238352423493, -0.8075106283110168, 0.1602443417892636, -0.9859877526098431, 0.567780714855482, -0.5311818897193394, -0.5241496313814179, 0.06220821776759, -0.8500812582992657, -0.06877112530799066, 0.28105767644146673, -0.46656063321085534, -0.6172252026210346, 0.5066661276130588, -0.8019099942107476, 0.4880239186218658, -0.6540813183282452, 0.30036790663326096, -0.27792566173833255, -0.00710572227184314, 0.5540367935962365, -0.44678907294217973, 0.630504694081195, -0.8394607350631103, -0.39252301937999534, -0.09881978281384218, -0.15340292725818183, 0.18786295674454156, -0.409332848537095, 0.671752248601956, -0.12802354298450705, 0.2557483942563154, 0.8450932388178464, -0.9285244739595528, 0.25302827809355266, -0.1567199378257682, 0.41289771169565315, 0.9126648375344235, 0.3877658025391739, 0.46517689389820377, -0.1497647331484457, -0.7234768964090647, -0.4534223410111064, 0.6173857805123846, -0.09042731980440886, 0.49654541128259955, 0.9825033814791253, 0.2585547909262686, -0.7234360025736916, -0.6669870887321747, 0.6151699714275667, -0.4448986646617614, 0.5864020872021474, 0.7611058026412695, 0.7004859652513481, 0.28109475778754495, -0.034575729809610906, 0.8890284726573948, 0.5613636846199606, -0.10758415582464398, -0.9272554117769048, -0.05831822576401722, -0.842152861832704, -0.9633708359615343, 0.7135591250532988, 0.027233443723327307, 0.5015890358184407, -0.0016622932034621833, 0.5935564843191903, 0.9612892525439947, -0.560233467268365, -0.9612845473140089, 0.11180760291310587, 0.8061954457475877, -0.3825673119583797, 0.0032629253888881017, -0.854799259338891, 0.12714706957676536, -0.7850848469927955, 0.05721446422933041, 0.7697579216110219, -0.49944504337144857, -0.04629440651721928, -0.9962771263823909, 0.9484452416362569, 0.08459230085509474, -0.30963393320831906, -0.4175052107750234, -0.8236664960172408, -0.9065109977842697, -0.3084696786515295, 0.6314103100099686, -0.06140053833045777, -0.9267305734582081, 0.6369549865270523, -0.5261529418955437, 0.45697883040015813, -0.7975631058209702, 0.5264608634593498, -0.8525392060221922, -0.24783302763555676, 0.35534409636789827, 0.41448907445609895, 0.6072545948328923, 0.7184977854909156, -0.2325373338597703, 0.9420185941752053, 0.5122070960448417, -0.2575156468972644, -0.24671368888518494, -0.710065589145193, 0.7393450090701207, 0.8469915314532417, -0.9010147591472176, 0.033317078189494566, 0.6501620333964361, -0.680896222795099, 0.09281352005997179, -0.027891094571521613, -0.7354582034129555, -0.543187192895718, 0.9188310027866228, -0.9203091748903257, 0.5774279484492639, -0.3443208071305579, -0.6843555356252757, 0.7793665707451983, 0.40477397144614824, 0.6703763199947368, 0.016652535742497365, -0.2254518126712168, -0.15830928203831318, -0.652383200834103, 0.5465401892978671, 0.6119180264368858, -1.415139525420123, -0.22099406846223046, 0.26595908143554475, 0.38427067931411685, 0.7974948588402716, 0.0393849894509744, 0.9617847750383837, 0.7285949230771036, -0.06743870513771442, 0.057306167285509746, 0.3220158060630167, 0.9082732639449766, -0.5179505227038326, 0.3980243357234634, 0.6946480136020802]}, {"weight": [0.4051378048824614, -0.39560253434411535, -0.8107455708369797, -0.6782305125102939, -0.9969063450233318, 0.7646583358708576, -0.7078619988217308, -0.2766879903029569, -0.2742377545713465, 0.3050178117679388, -0.16669655688858231, -0.7682256712912415, -1.3526977215126366, -0.742103311189309, -0.3361229166402066, -0.7202993145642917, 0.6316417376613194, -0.27658701150332327, 0.09119759946114381, -0.4858633546885096, 0.4741085840248509, -0.5261281948531439, -0.5225547809680147, -0.3487303419523852, 0.8901815541408414, -0.3437032966366338, -0.44852567796432957, -0.6782873781410395, -0.6801623484908689, 0.4974431038871685, 0.37296823458583384, 0.3189231358817766, 0.3453263225510255, -0.3886747276891895, 0.6977255428128736, -0.19375329849948386, -0.6375798424554084, -0.8062054657067637, -0.009226341879329691, 0.4412616452852032, 0.49982597880390434, 0.019061146772140436, 0.22201862243424622, 0.7337587016567559, -0.2546239013193623, 0.8962583527074126, -0.7736924358299944, -0.9134972763670126, 0.5844376690567029, 0.9531230052311683, 0.5798560612017108, -0.7398724981136907, -0.22503726094414842, 0.6016632396699093, 0.463501806030157, 0.8784848449260099, 0.04116972767481597, 0.16429706802289545, -0.6676994612184319, 0.9203366398971783, -0.8089636097292726, -0.5079571710592445, -0.009899357163390245, -0.39727520106045633, 0.30912191737501177, 0.9149713813652303, -0.13921286668196675, 0.5413988775546487, 0.260037403302374, 0.061622383976633666, -0.25215637819119974, -0.585908708402044, -0.00041028713597479616, -0.7884128162754377, -0.18338440743131199, -0.2906174932332117, -0.2692409803028694, -0.5134800534992165, 0.38501696583736766, -0.6028449354595828, -0.875107232386178, -0.7026465754201513, -0.2438822043286129, 0.830019722533845, -0.19159501062272863, 0.12336143448892702, 0.6128305750616245, -0.27566461479287824, 0.9817124047064694, 0.5041162706153488, -0.7430804715575153, -0.6471828613008274, -0.25043250508562265, -0.49370638379192955, 0.2895210908804464, 0.16175008724504794, 0.055500019108259385, -0.9377154363205704, -0.8508724869963552, 0.3082901253097443, -0.29047009237139026, 0.07740275486831036, 0.7824340547899182, 0.3410862541706883, 0.28378791928584285, 0.33356797941968513, -0.05992817888930678, 0.10036152101151176, -0.9003004745852532, 0.10141279087603951, 0.9350382158722739, 0.06762768100245586, 0.79109760264296, 0.28513992715828196, -0.5635086114359988, 0.4094071297723425, -0.14655244505179452, -0.5809831616119876, -0.14901188310178878, 0.9055036765709904, 0.3673190040177588, 0.6685228331703515, -0.0407878787399496, -0.8868986452593998, -0.7063292433323483, 0.2575959818650305, 0.5680700757532204, 0.2440660261974985, 0.9566926096528395, 0.45001598412392135, -0.025889876801344247, 0.9624973233772821, -0.09009300680261223, -0.46570002778488456, -0.22386504994577036, -0.6942252913278965, 0.7390642477775033, -0.49452456555064384, -0.27810247104545116, -0.4793061742294611, 0.42499794711625444, -0.42421613536697705, 0.08356577003102607, -0.8770517089322494, -0.38955646585137504, -0.5992067141702535, 0.9384170111068036, -0.6847672689643725, 0.8782357376219314, -0.7340731682602504, 0.026420497132938304, 0.40968430405837397, -0.7507742764621977, -0.9002693833547545, -0.040943578531283054, 0.12492278892867367, 0.955960007773162, 0.043183422786645734, -0.3480820554868831, -0.43409366229493024, -0.8934673726491776, 0.16631555592099123, -0.5121261330971851, -0.6968153275728232, 0.15038866701760245, 0.8849925608284563, 0.6932671242397099, -0.3657046235053749, 0.33214896519611403, -0.10780803428250212]}, {"weight": [0.5301090568138229, -0.6809479968527589, 0.9408934085769911, 0.8821194605616383, -0.6194935808109245, -0.20381195097245786, 0.5963880413893202, 0.38083856196347887, -0.48638250812350997, 0.7111032141188413, 0.5346947362795638, -0.7168144555199701, -1.0649286295341287, 0.21349367794723828, 0.0029250368921651974, -0.9823917482328934, 0.6004668911661802, -0.8634025684567016, 0.5909966928437145, -0.2113047771961285, -0.5351515454442168, -0.015446934405971079, 0.48540505606518103, -0.41961024941005615, 0.15325035223210762, 0.5782141383847599, 0.17778619299031065, -0.031173080961962363, -0.48600272208615153, 0.09988897756896832, -0.39872576982638774, -0.31992562572185207, 0.11581026247834313, 0.760675395449037, -0.5232705728208352, 0.07010037322411478, -0.3613629246855805, -0.636675520655597, -0.20970695653118177, 0.5769474231781517, -0.7724056121858662, -0.337708955786693, -0.5749852259822198, -0.06248948364476381, -0.054886498453334376, 0.4277091455544144, 0.16327495232449718, 0.48250564272738705, 0.04933281658612958, 0.24610357898467816, -0.25988879243275936, 0.3636776003464202, 0.9160401916864532, 0.8406927165686175, -0.6203730696286076, -0.6381788339675012, 0.07567408777184959, 0.7538955755693648, -0.6545533116442128, 0.3461178944074775, 0.3200772528898848, 0.13738772592084214, -0.8560968520183484, 0.06694174251701623, 0.012880111435243978, 0.810845054357769, 0.4666589169681261, -0.7507606633904617, 0.21687306647989993, -0.6401272434494445, 0.7680590431063916, 0.8781653373650684, -0.5481988788324634, -0.16130331882016333, 0.38080199594054026, -0.2729897307486053, 0.8617867381009584, 0.4258368188564062, 0.6427764409701999, -0.23846589488315506, 0.8200365806760529, -0.7490623177503247, -0.42251572919323727, -0.12929652465923658, 0.353372378445223, 0.5818971430675938, -0.20176290098159466, 0.8964542754693355, -0.5657728272715348, -0.11980050100781336, -0.1947551328053718, -0.48723568923932065, -0.5658904162006211, 0.18003354869201016, -0.3357047504546309, -0.3554555610695866, 0.7473527696866001, 0.805367386345464, 0.8920882105291307, 0.15070756254599726, -0.2780446535036269, -0.7556091741790817, 0.08600891878623984, 0.18630011331154273, -0.11819687958797417, -0.7354848265341932, -0.512126619859988, 0.2012252866485225, -0.462965114443896, -0.03183271549620457, -0.9592502036122525, -0.756945410136278, 0.4332731705664317, 0.44484767783566115, 0.17213919336230865, -0.0414692983306586, -0.525124380436388, 0.8602915664603166, 0.8541050540163514, 0.903563057280213, 0.3561775877126017, 0.2180551510412452, -0.6504940965871424, 0.28040638037065163, -0.9551337303745258, 0.24580364394813378, -0.5295915884895717, 0.8121541908338898, 0.03038325696780825, -0.5644965453136691, 0.01566407987783114, -0.22120720960634396, -0.9026012947457749, -0.2942530495258206, -0.09290634338632052, -0.8865248825855118, 0.3547580872745255, 0.3682201770473741, 0.2443698482489649, 0.6627765166683988, -0.5453402532616219, -0.5749089489304929, 0.6795927431942111, -0.35776435620657154, -0.17110755662184718, 0.8601761553312084, 0.30091789864904045, 0.5433187776852042, 0.6428068574385022, -0.6942018879314311, 0.6458001292286447, 0.9863147431956294, 0.4455875898881874, -0.3840012236006973, 0.9870878696462111, -1.1166109553599533, -0.6310930547998104, -0.49542329660806694, 0.07453332223319786, -0.46748587219628107, 0.49361993673045335, -0.6644517582585232, -0.7423117903229071, -0.6026804675856686, 0.1830917605006579, -0.1105237491196962, -0.014715774183471586, 0.7818662131791403, 0.17482346240544278, 0.16196896643062544]}, {"weight": [0.1956237349686205, -0.18735212483944716, -0.677075471912594, 0.4933370244997952, -0.7729868964227586, 0.709287980418237, 0.5291128968354851, 0.6159391137548045, -0.621918607867474, -0.6292342646916039, -0.14777106532482898, -0.17974582203278763, 0.3405897440863159, -0.19948943972824074, -0.8816217874132489, 0.6566841284774445, -0.6936686810983151, -0.16769075651400575, -0.0076272051857886325, 0.98958578842573, -0.844741218824647, 0.24155357113481143, -0.45977799477982395, 0.7982495613371013, -0.6533577484915521, -0.27036303724601396, -0.27273374373714815, -0.6387199751265407, 0.850102793200595, -0.08722911107955676, -0.2218247469185568, 0.9883522630642725, 0.21249982492367206, -0.8429528963887448, -0.4641592250348416, -0.3082003881935893, -0.9426744005184216, 0.8515299971523826, -0.9700001094079536, -0.5385835956516547, -0.15815057654907583, 0.3263304593446188, 0.9370251717722103, -0.9873322543486738, 0.6851076215399952, -0.5164436004437687, 0.6395715081143734, 0.7098556571626544, 0.26839711775056524, -0.691106505155862, 0.8184645550678983, -0.525061293465723, 0.5381748007975816, 0.07189394241560931, 0.06268024889748824, -0.875910356407892, -0.2685262061759599, -0.3266710605607599, 0.5807469840265673, -0.6222555226504879, 0.10139873589595928, -0.7235771513329007, -0.024188363240974457, -0.8351790791106717, -0.2682212715815377, 0.22791640096792554, -0.5553179943915578, 0.961250757710426, -0.4552598419621298, 0.5942198996859134, -0.44164440702379903, 0.5135258907355358, 0.911731550126178, 0.07569968692428353, -0.45881132162932675, 0.7014588591897833, -0.8240020794485062, -0.7027317420229849, 0.03663557183124522, 0.7192911391135774, -0.7165654030477239, 0.7667383105919646, -0.812419809656045, -0.07239026672815396, -0.9173229891013964, -0.8991500173850738, 0.3851563547213026, -0.4326927095412371, 0.8355083845861297, -0.627070066680913, 0.2713077226409966, 0.9636793992128269, -0.5588859995606479, -0.7638269099944346, -0.6120532072967915, -0.4127759739965439, 0.2633368091077934, 0.4566147620735068, -0.4785919479164324, -0.9883630523387628, 0.26248939597644616, 0.16281520188977375, -0.46279780884355803, 0.768653541660641, -0.9071783726525838, 0.6935591941913183, 0.64957497273813, -0.44422366692365606, -0.10995558128086791, 0.27178691536119454, -0.5182708815846222, -0.4685727608089145, -0.006714936450660393, 0.3099754530931591, 0.5186645078436849, -0.4912198898794202, 0.1221596264170391, -0.9371412500300857, 0.2795125286252294, 0.41018772781459606, -0.2349544507260214, 0.29657555565218857, 0.4167496177319161, 0.5407046163782, -0.2911196306080992, -0.3615992640289675, -0.3696714861296473, 0.3352118491524605, 0.4575968423694053, -0.6579529996753087, -0.9694183973444879, 0.5673134406524037, -0.46155501262231025, -0.5555412111186989, -0.10144788468191078, -0.12631687014390058, 0.08727261971520761, 0.4273239013151158, -0.8312972734646018, -0.36223841728288675, 0.43486682594179077, -0.9016337870036414, 0.7348019037462473, 0.9866387887459733, 0.2443447187333514, 0.04305858939533391, 0.09823855100589642, 0.47809491093950296, 0.9498259976017089, -0.7360107439251478, -0.495647968383111, -0.7341353658307206, 0.9879771448973032, 0.37057139791013866, -0.2099738580559556, 0.03648582975447756, -0.5838395327437895, 0.6384893266495996, 0.12088778839670034, -0.9390153087393504, 0.43741519339963914, -0.6021028499927288, -0.8313702744685867, 0.7701371034652386, 0.7669247523391807, 0.24214061953653454, 0.19930128957617765, 0.38579987825286777, 0.4544595323599099, 0.14611704028070346]}, {"weight": [0.15427640119445973, -0.7448368703475489, -0.9883730258111996, -0.8531988757967477, -0.7395199911512116, 0.4962346945186138, 0.6557759718648949, -0.25856814038848985, -0.20156205929560064, 0.15437177166712737, -0.29157289752389626, 0.10439543547055243, -0.25190701432634177, -0.35511112691507773, 0.7300707060209214, -0.15225661281853364, 0.4967251785747999, -0.7688919466873217, -0.7730635205163809, 0.08323402075964648, -0.5046129525972047, -0.912513262060861, -0.7797160035647372, 0.9604906493503124, 0.9511006144280115, 0.36543960101530915, -0.8667572895545436, 0.4621968090822277, 0.07430677524539636, 0.01020091425251529, -0.9558726744793582, -0.8111349177218755, -0.7247422595815459, 0.9910510835963589, 0.7080758207003529, -0.6208913933491378, 0.7983795000652594, -0.8446272344801169, -0.1620660440271937, 0.9882798874587615, -0.06408879383421895, 0.029313829867250396, -0.38264407102808334, 0.09183069194295479, -0.7879952110809563, 0.23120369518699913, 0.460846100046991, -0.6197452270685924, 0.15765359507848567, -0.11370149089067572, -0.15781574391935657, -0.3218812094839864, 0.22575745930115623, 0.3729068641676856, -0.6500749575736604, 0.005588329231527744, -0.3256652588589166, 0.08346594042938449, -0.5561838957068252, 0.6146219101330609, -0.5515838804684244, -0.18772343831265312, -0.07508478690666186, -0.5123619363868892, 0.6504254760439337, 0.051163603432617055, 0.6749707502800881, 0.1992465726653643, 0.0647219055438216, -0.35669303591013635, 0.9041298231622761, -0.6205752437157603, 0.14494846193293665, 0.6695183810175326, 0.9682594775267178, -0.25020847193406537, 0.6475662443196833, 0.9179009406524169, -0.713353323092889, 0.13544657321616516, 0.5869313819952114, 0.2188995076954592, 0.6036300720581337, 0.2377337373941808, -0.62287201526132, -0.492794114626774, -0.614486487018786, -0.4836780764312132, -0.476768357648673, -0.9074455455715256, -0.4792435312495998, 0.9408500674603905, 0.23177083580665414, 0.524680473396947, 0.4365178312516216, -0.7154878332760212, 0.5465765650302, -0.08303250828459352, 0.43626507528326225, 0.9592322865735732, -0.9828983311904026, 0.6278570281001704, -0.7460458619969226, 0.09214186240145783, 0.1719079206812453, 0.12659208388244533, -0.9481472420427933, -0.9203888846557075, -0.9439692948333436, 0.06758552846049942, 0.3693081214570293, 0.17321682785950698, -0.6451067366270579, -0.06433628909102418, -0.03341280764986676, -0.5052247765186326, 0.8924927521360814, 0.6438475842170881, 0.6346654446626986, -0.6785010339767249, -0.4187265749980668, 0.3608408823413172, -0.8628039604268993, 0.8672703516537107, -0.6550809552011592, 0.6138132500414514, -0.8356128672519778, 0.1365901283328379, 0.8279592386084479, -0.15393037448402722, -0.5017160381003862, 0.8957022107811893, 0.7026139904485642, -0.9736970239727701, 0.8887417350853303, -0.2488985725999564, 0.4780467037218923, 0.8876863677171594, 0.42840518602035305, 0.5397326385174812, 0.7383727347714663, 0.01728517991870552, -0.24528143713014353, -0.16848755411744398, -0.16148250422218968, -0.13436633998578373, 0.2872691605486713, -0.2558420765981444, -0.3113136736073945, 0.0034758804761774176, 0.04909168325966755, 0.7528377871298817, -0.23280683819855894, -0.13684333715106642, -0.9290540001756591, 0.44830044840079936, 0.41276069680704075, -0.9442092781783805, 0.9722576193376637, 0.6849423038166546, -0.9044640555907889, -0.17998603075216568, 0.40118408517794646, 0.2863726535779217, -0.5889195497782069, -0.320322150622685, 0.8219767845808552, -0.2241863589123152, 0.7452450754045321, 0.6584638651166085]}, {"weight": [0.009856558487534528, 0.838183993896478, 0.4511328558647225, -0.49992720048010586, -0.6836661974632148, 0.22558815080507943, 0.0990686802284836, 0.6885204410758625, 1.003779726200652, -0.07366909552275823, 0.1774692425695359, -0.0835598117656292, -0.5949911616266795, -0.01293665742583694, 0.04845841654012879, -0.6662677511466171, 0.259947445446439, 0.11386927326151154, 0.18048927339786558, 0.35344813365544914, -0.49371119193741353, 0.8446634518327746, -0.5409660891910053, 0.3472663655378781, -0.17092654947957195, -0.8155855219813901, 0.023122168280391087, -0.6766218640855346, -0.8298960343353107, -0.9223087806517548, -0.29845267395906494, 0.23841620993782844, 0.8580517869281875, 0.967226728506796, -0.4735795969246485, -0.4663167325000255, 0.2578682926531226, 0.6245889669635565, -0.052767078427656156, 0.3698250566530181, 0.8662377243970945, 0.20927533809723298, 0.08944164428695957, 0.8454917822453689, -0.9572760837832393, -0.005614868338349677, 0.9335303422487515, 0.5740881892202263, -0.2456176061869253, 0.3939707599880906, -0.08961079938728465, -0.5471070625073159, -0.8424536842652496, -0.024792897107204226, 0.26584388991718866, 0.8019917519347788, 0.34488241122499863, -0.1960189281049114, -0.5779928348796843, 0.6966066175571629, 0.00514375715106447, -0.2715938685318317, -0.1829992327631433, -0.41178124642544156, 0.7626593076517642, 0.8370430614010869, 0.27591016860209616, -0.5420267773551369, 0.6217381854268617, 0.011573633720278531, 0.9900031483805489, -0.3511888724107892, -0.68943261547021, 0.8234579729702644, -0.7417224795698886, 0.2264298225982613, -0.6422291641810353, -0.04979589959179257, -0.34852081827168546, 0.11291621695283305, -0.5721668880413774, -0.18687419382107448, -0.7229347140700716, -0.3040456781828953, -0.8498765898915185, -0.3255470389198782, -0.8962135526134891, -0.8377061646318705, -0.22097531077577282, 0.3375830637459547, -0.16000099488571526, -0.48075463103245725, -0.559112490416301, 0.047373902873060425, -0.9593297577500053, -0.03482035992218849, 0.522072147046383, 0.9407884401511286, 0.43592827171732146, -0.9693660765554035, -0.022839783087477108, -0.6353291168781371, 0.7774703850409284, -0.8133805199823032, 0.7109850141542561, -0.9164050709647805, -0.062336419608467565, 0.4364587249025667, -0.9775401967909658, -0.41001473671477856, 0.2795980056792835, -0.9645039107363236, -0.9259743095789933, 0.8756363451011477, -0.4909983308918038, -0.6859745771927765, -0.30637837447772326, -0.8984664470924268, -0.6783783039222174, -0.5936655915785419, -0.8651190302807913, -0.0998007874836656, 0.9941074791407323, -0.7424009932127974, -0.36373053634920316, 0.5564257836308503, 0.4157169219415313, -0.16355372149947556, -0.3390516393382596, -0.14865922885126157, -0.6137763843179826, -0.7701661487472576, 0.14424256604286212, 0.9465309851045488, -0.9654344622326873, -0.32206677877607487, 0.5349715163154392, 0.44521102466951934, -0.14323925237355795, -0.3910275150012297, 0.1721657444593612, 0.016716481005853136, -0.28594154326315685, -0.49064728821120784, -0.9698509226399592, -0.19059695418433575, 0.18788378717593848, -0.37247950944112707, 0.05604290412590518, 0.11850797203596075, -0.6717185445107424, -0.5780646040226025, 0.8321473888993015, 0.7340196463405501, 0.4883173452774894, 0.3925156040265256, -0.29125456423686935, 0.11766869928121958, 0.6028259657213435, 0.3428497541327476, -0.853173659926289, 0.21695827778165278, -0.4533619918738139, 0.3665234198259005, 0.6082289431704828, 0.46974690818634124, -0.8283901365780768, -0.45005162837352697, -0.6007839925311012, -0.8555728324736266]}, {"weight": [-0.11177229249748732, -0.23045578972312694, 0.9435069418999149, -0.24587931633722016, 0.7519712162710601, 0.4938104380122901, 0.7805244486120556, -0.16662293432637765, -0.8510131685714396, -0.3152914687862293, 0.731197329455334, -0.182876342535464, -1.1829742831036403, -0.1904815906555679, 0.28065709370861885, 0.6460204357189363, -0.8906514235190638, -0.9487943908871034, 0.13025462312319958, -0.0809506239911395, 0.9122743860328615, 0.28036773809915944, 0.396436355548033, -0.0472292668535267, -0.1414133243089932, -0.6606646639270914, -0.42381342525477045, 0.3233113385408344, -0.24975810490066536, -0.8271582508767078, -0.8414555022352928, 0.2603513586356975, 0.10353941221822995, -0.5123708500215575, -0.9460606915391275, 0.7469259455574533, 0.6352602926995399, 0.629376377758269, 0.7567327696316888, 0.545901598734752, -0.4680694906909504, 0.919697739998927, -0.016033538644065943, 0.6862347558093507, -0.9603590541495528, -0.47934398245854326, -0.8530630510963926, 0.5075244249383741, 0.5090553987907315, -0.8811984505910788, -0.2332007638355412, -0.17799825129900856, -0.2490372326189525, -0.2352544643292449, -0.970356333573577, 0.969506551022062, -0.5347158501439235, 0.42517103336446294, 0.8153050714683441, -0.22772232982610016, 0.08549935488300266, 0.3917255085380931, -0.04404264117366466, -0.6859244297463196, 0.6105249519650991, -0.9760013640085248, -0.8758918800477513, -0.6742926649733364, -0.936225011352705, -0.127992710367705, -0.24716393771063894, 0.6034289097004393, 0.41792263789479644, 0.12837040853927836, 0.08083229630277576, -0.5367440115639818, -0.9284591476394614, -0.7573342380318328, -0.3789820624548388, -0.8877568906220961, 0.04417583734068779, -0.7999280540819863, -0.26309454043668407, -0.9655967553150107, -0.12202046592408403, 0.7067977904958406, 0.936217751986324, 0.09672819975544557, -0.08828998189495829, 0.5416078410658627, -0.12371418760999378, -0.7177387096197158, 0.16100492345500306, 0.26582851794276796, -0.020476443209271, -0.5695555577794323, 0.5552451065150111, 0.05009627625560786, 0.9489968960236702, 0.6884194411090414, 0.365750900958235, -0.704238227141455, 0.8256335787172455, 0.4589667794997978, 0.5605725625036647, -0.5623181257098798, -0.8586238011243806, 0.48731110530782135, 0.9394590903815334, -0.8812937139911924, -0.23344986648806176, 0.35526436275568596, -0.492116656501317, -0.4798282111192944, 0.8778116619518548, -0.5677430940055856, 0.041765511072566805, 0.04473821095704422, 0.508710525746882, 0.6149238526090651, -0.2682275913846179, 0.6044020699281855, -0.10708831243550909, 0.2651748218344929, -0.8741006502587183, 0.19637910528256522, -0.2822565987293484, 0.8241320683653965, 0.9290202391420815, 0.6583080189695784, 0.7300398048097494, -0.22237606045167221, -0.5764895206989058, -0.6974023947456939, -0.7811664120954124, 0.09755278210804098, -0.4728937352343052, -0.3108416422918958, -0.22647517076059875, 0.2012016350771184, -0.9540892707295404, 0.5079383875542539, 0.42952921696883545, -0.24005871504223797, 0.9827951719399439, 0.4574691732852729, -0.8800692374131697, -0.22500635642896372, 0.8876580281991941, -0.32138488706063506, 0.35923084955361057, 0.43859257208777747, 0.569673148517316, -0.3914558591488701, -0.8346125520338998, -1.1046824999937754, -0.18997138344097997, 0.7571213443245243, 0.24370070645514819, -0.026672581199205212, 0.6722664985621468, -0.20831842354119812, 0.7726295060681267, -0.6149325770411008, 0.007282194403647857, 0.7700812421639216, 0.4628913489184885, -0.3620280956916353, 0.3530377052489122, -0.2587497075226018]}, {"weight": [-0.2545603395559948, -0.42202380106894316, -0.8111073864218459, -0.5945920595291254, -0.9982733392421896, -0.6928257930883357, -0.8699512422490526, -0.4539358609972761, 0.8656248170294106, -0.5494485860970434, 0.8735033561995553, -0.6745555036694025, -0.04455778688050925, -0.8449605619841465, 0.9510865072698652, -0.6318373107808939, -0.8621355686990267, 0.23739715052351287, -0.5398104582796968, 0.3756498633952463, -0.29571742881221486, -0.1212116012190978, 0.6218175377494117, -0.7724813900007658, 0.7052603135267906, -0.04173922307059863, -0.10844229271914625, 0.2419162836683164, 1.010032851598918, -0.6310523300505523, 0.9709365921589972, -0.7029352466217452, -0.1438530415686736, -0.12274742687253928, 0.6355856163826462, -0.4786296822814242, 0.8215314179229689, 0.6534010631806686, -0.3087224990210089, 0.22781140894889362, -0.6250434921123118, -0.9975464519840014, -0.5218009239168512, 0.5253793208020479, -0.24738400534609428, 0.1914429716353625, -0.9405116226100974, -0.20206506774709276, -0.19651165220055164, -0.35483296462727054, -0.825497425518675, -0.456334746641003, -0.8907883861775422, 0.423972004950935, -0.49585562885742585, 0.613936053659323, -0.4771381118795801, 0.9631413796109207, 0.3312020524580339, -0.2001865788570125, 0.45216887069982886, 0.15213480843499008, -0.9156521723366505, 0.1303802862813348, -0.44980582062764535, 0.9293614145451381, 0.8882831790455241, -0.9703628276145139, -0.6185724375928666, -0.9141656442158603, -0.619655738689596, -0.538636753373964, 0.19119939678536846, 0.07427260079646342, 0.021989220862587627, -0.19577437806013884, 0.685599481117012, 0.9122166809027862, -0.26782198846469796, -0.3836479160763542, 0.5344279412156497, -0.47754108523082345, 0.6914325795818373, 0.809530057219926, 0.034273136784764936, 0.44421406377214484, 0.706844681343678, 0.6655656269862528, -0.5762457276147883, 0.016103853924826383, 0.15745554608972825, -0.4334525902926298, 0.8682120293090008, -0.5391642524662628, -0.24144308425745442, 0.36528687758533757, 0.24429711255803246, 0.026615130259196595, 0.918516372583971, -0.9271375018650059, 0.340429127072955, -0.07636838066012462, -0.2568451947259174, -0.9808298297536302, 0.40392093916710486, -0.5261918992671067, -0.3715885417156947, -0.8489209947266113, 0.3411948749383922, 0.4869774645147266, 0.10091830505863797, -0.47406320167453964, 0.11824595286360183, 0.24713418027728973, -0.30198311025394386, -0.6752793666404577, 0.4721407108252505, -0.2312884297800346, -0.21128661277720237, -0.08867964141409389, 0.3869240046615164, -0.6330806474877982, -0.09887432135415652, -0.20208603898904218, 0.7603641586433714, -0.06050442253141896, -0.37711923778485446, 0.5523181409728615, -0.6273621933200634, -0.19899042652187068, 0.49847608498139584, 0.3544366033257194, 0.7491580907459312, 0.9217006500003678, 0.5735509368954482, -0.23197336306798036, -0.277287528737701, -0.014196217340432637, -0.2614629885185875, -0.10399586513762693, 0.7188985738425283, 0.6946819085035879, -0.24978391963578067, -0.16272326243334123, -0.16157152923759233, -0.1122821051343148, 0.2587051005788152, 0.6425054646703265, 0.29629045604834015, 0.7563047579278119, 0.46104644101812015, 0.9320336689266135, 0.9753142075827256, -0.38139780190272926, -0.5609351888684133, 0.29571510167054876, -0.8456106501878471, -0.435725224366094, 0.8370385211370768, 0.7187551141285201, -0.2092831382094784, -0.1994610466602056, -0.4236112482586103, -0.2578735606849379, -0.526746984784892, -0.7201901142264633, -0.8771673086704286, -0.20785946330672433, 0.7420078791315798, 0.1770962348201999]}, {"weight": [0.42541075181450516, 0.2778150580868924, -0.7587526301808099, 0.5662762273611386, 0.46830584090260685, 0.6474235284541572, -0.11862877169773897, -0.4974625108961268, 0.7360061425343213, 0.9500476816842492, -0.39297922673132857, -0.17052114663983928, 0.18332174213211302, -0.738557335654676, 0.22223479105914315, 0.2637994125843983, 0.15800433376842918, 0.7741877518337629, 0.3789771132767312, -0.5869837741307053, -0.34063131916792866, -0.3378585144632426, -0.24114951768067594, -0.77510255334604, -0.05354333418409535, 0.5740480098029863, 0.7472306483109371, -0.8791933570889146, 0.025492515357478585, 0.04626282472847516, -0.3514093409707393, -0.10083102676655896, -0.12777810212995325, -0.5700133658866603, 0.2053225672901988, -0.6224897583802487, -0.9000018522188395, -0.7925682018903024, -0.5187563684780756, -0.30302492347172083, 0.45277738914586685, 0.19557843581535805, 0.5141434850422724, 0.3326221892828778, -0.9838286802663343, 0.3644301152421934, 0.840338333088875, 0.803946286221372, 0.21813180865750684, -0.4014385417459805, -0.34599493246838503, 0.29939897305090063, 0.42187274324982177, 0.6109880983588689, -0.9793731267037815, 0.9903785578152533, -0.37025137408774533, 0.11679665495958225, -0.5891594662537565, -0.494423741817067, 0.4997408197657856, 0.4563911854647465, -0.3975585848237075, -0.848880095869599, -0.731733034019015, -0.8742837768274214, -0.7570541946172071, 0.3159665492943045, 0.5524640386289214, 0.1335051807806069, -0.7006086809782168, -0.1521297411396878, -0.46887524837706573, 0.565217643387239, -0.2505011795614364, 0.9670404968113976, 0.5283964061750842, -0.5532763917319924, -0.2933326830536551, -0.27301039262149196, 0.15326707719038327, 0.08081987298599734, -0.615582364704406, -0.7304841765093923, -0.631830099833227, 0.08545503139508583, -0.2508113028871133, -0.7669142172897833, 0.36040427008229603, 0.43238337217134126, 0.9032669836249064, -0.8897974416387328, 0.4554215565893014, 0.28510036118464543, -0.5366597845653658, 0.1368400678072158, 0.6286164512352711, 0.9948749296702173, -0.607047636890354, 0.7958119916338131, 0.18629842580784664, -0.10236470418963349, 0.8785024886394108, 0.8893129028650355, -0.24780679433617575, -0.3314470316218396, 0.38478221150207476, 0.18421635785955662, -0.9372023448330955, -0.3515541958253818, -0.32451643290578236, -0.6149867148220431, 0.901883664684951, 0.35739046078563375, -0.896568800128613, -0.1299129771024956, -0.5065123654195622, -0.9002978654873734, -0.35360479683512186, 0.5330620524115764, -0.9630019438929033, -0.18362399856652775, -0.2933684793192308, -0.6800206545848367, -0.30330422250419886, -0.6483112868308593, 0.5949014611848378, 0.7627089168853534, -0.36945413073612404, -0.7058415858899952, -0.06417137050466981, -0.6902880736046592, -0.14049431850431415, 0.49945731016733436, 0.3958667368747731, -0.11897062828583559, 0.41835499576417323, -0.037095284932528116, 0.18521496405651927, 0.7567286394887853, 0.9755279034301866, -0.06667706372929204, 0.9972634033202207, 0.43188105773793684, 0.022828650249401727, 0.7233714780434377, 0.4374039838145199, -0.3959071829182348, 0.2020658284863326, 0.6544155303292756, 0.8023869398191493, 0.6604289996400485, -0.7718865096481259, -0.4740383392416407, -0.10149324182952602, -1.4300926375785699, 0.665777419727178, 0.053576650431250566, 0.8699056115381338, -0.9424693512552044, -0.26607774085522445, 0.05765406108279869, 0.7686778815786734, -0.5691749513298759, 0.33358448680382224, -0.6552467779057605, -0.47581091839992173, 0.0975872250185923, -0.194174356440866, -0.764280922535877]}, {"weight": [0.43387507211489873, 0.7948797506088822, -0.020687798741116703, 0.7590881198801296, 0.7943692993355309, 0.8565584669486093, 0.9499331556331053, 0.46219646799916747, -0.02125627404182159, -0.4344107219526631, 0.21926495449492278, -0.9384811633215994, -1.1668419302005157, -0.2162288173450564, -0.7535553435900194, 0.5661210680270341, 0.3394887420899351, 0.0033015234322236043, -0.4222134891056637, 0.3398376582225109, 0.158509179301197, 0.8124596813908259, 0.18110473325870147, 0.9589822705412708, -0.5915291090891651, 0.39596144241241715, 0.30475189696933686, 0.9245794950683444, -0.587467510987507, -0.16847341933254364, -0.7336605783863024, 0.2199198701434966, 0.7906803999795765, 0.8462990540678687, -0.14072037828184694, 0.26927957045923656, 0.3394104470835786, 0.8161423096215812, -0.3548430105689897, 0.16047878362750767, -0.49213157444147115, -0.4757414356381333, 0.20676865114002155, 0.9078712376431932, 0.2519552869008279, 0.8851166256187981, -0.6920200918128481, 0.8603774057428206, 0.2329470738450721, 0.18834292682192366, 0.7309405730701796, 0.27011037785386033, 0.9816090885869234, 0.27731105712958604, -0.9241002457699905, 0.19822713722941465, -0.29365805295744773, 0.4463016491728844, -0.4867142365465915, 0.2676945959478783, 0.3437890542251126, -0.6053404572690843, 0.5964857950013104, -0.04977704527390259, 1.0075666361703157, -0.16402906450952215, 0.369813294138152, 0.9558357450524527, 0.031346023898725615, 0.5634590005204245, -0.9784308767993051, 0.0201055667498915, 0.36918591067514095, -0.36273461175067195, 0.6833006900809059, -0.4710955495052033, -0.45465604199302095, 0.2883722012289705, 0.2465051918999781, -0.24893476268464387, -0.14082783427663334, 0.6669475535010382, 0.8947720789252828, -0.8767809554624226, -0.5535606826974783, 0.90224892786561, -0.5730973973664057, -0.5157617383495591, 0.7391830853181978, 0.9971781882455251, -0.4074351706827492, 0.04911003197242274, 0.2809645546862478, -0.01119957756376655, -0.6496573582885528, 0.2034743616881112, -0.22916808721966195, -0.10254102183358937, -0.5217668324743564, -0.6709999996676608, -0.3588151181416594, 0.0806096424888204, -0.5519411757141723, 0.4142469834261404, 0.11214619618885026, -0.5504039088992408, -0.7409315186862663, 0.8853403904082752, -0.029118796885615472, 0.7327011980374222, -0.332679616504731, 0.5554468955038359, 0.3566180356796956, 0.7931131043887587, 0.18971555478107116, 0.9657029172984808, 0.7463871488846027, 0.23362998381296896, 0.4426759826153979, 0.43946861334517046, 0.3389721891343032, 0.008264713476284602, -0.22385851830927184, -0.7116148602197222, -0.9601995980134459, 0.35054005821857276, -0.11201282768289533, -0.5119927423606356, -0.16944026248821184, 0.6512390436849317, 0.522033661084548, -0.03866494864813, 0.33879350971254985, -0.39480234103474515, -0.4296758433542604, 0.06710839329149718, -0.09726388912855954, 0.4422167386051732, -0.09872090643647602, 0.8895935524343763, 0.006927818802024145, 0.5800865958834033, -0.7117967596979794, -0.959183585569946, -0.9822441712126588, 0.5656258742583702, -0.7628700436839205, 0.9531778303856648, 0.2290658821606666, -0.7682978565886149, 0.9527369197624965, 0.2590089160612896, 0.4640097268677779, -0.7844864255170442, -0.8931781303036734, -0.4488610976728565, -0.44848098974685824, 0.5914035347047454, -0.5258125588526092, 0.8955319442468067, -0.25155657841113416, 0.2590432335142787, -0.7154959408991135, -0.3525136501279244, 0.4638795114564078, 0.26658180585449287, -0.7195593979916801, 0.5989840820855634, 0.5998315103563079, -0.7732590792909099]}, {"weight": [0.5009367241045624, -0.953104335023537, 0.9964564306494632, -0.8253361723359052, 0.5040658026227274, 0.8096321020900035, -0.3929248959807429, 0.9640586327054745, -0.18249358799940782, -0.16317056631976998, -0.9663403244018967, -0.5751273717518149, -0.7652646468478418, -0.1930399462537684, -0.33770206372820394, 0.6756635421742092, -0.6593598538740101, -0.3899204250551824, -0.6231903646414143, 0.9185279257776497, -0.6845201108838437, -0.4490350757845431, 0.4572286837192574, 0.6527916923164278, 0.8035946755349824, 0.8225264638343235, 0.4362655154297557, -0.5998900653800623, -0.20635019422028075, 0.6896171378497428, -0.34558217262354307, -0.8606664330478785, -0.07966926146235519, 0.861271740734168, 0.724048555922831, -0.9673659361380962, 0.14130499448803246, -0.15414916861521877, 0.15520369256245425, -0.6008826790376902, -0.9976361938565201, -0.6315533237776139, -0.2627548910734559, 0.30021448730889433, 0.6673081562334104, 0.2908356471605824, 0.8789210737440032, 0.6853536228772104, -0.620782596762257, 0.35422512985199406, 0.3875368640733546, 0.7820356948974841, 1.0015667826124848, -0.9411554477092894, 0.8558573893609962, -0.09092187260729001, -0.6725210413613925, -0.48186453357347303, 0.26964990229175445, -0.28745160807514053, 0.7021711879032734, 0.12153447778888722, 1.0024417641774093, 0.4763736570631485, -0.15706357122041645, 0.8162866471201524, 0.7308678675850053, -0.252295447897923, -0.2525065926823905, -0.12787350124051278, -0.729114844281157, -0.3602588284393453, 0.3879955985616568, 0.850166034517965, -0.04783607078479393, -0.7760172734034722, -0.40179533713576426, -0.8821635543106369, -0.6105467734078023, 0.6881076880433408, 0.9860195081235272, 0.4690575757408498, 0.498874144329231, -0.38462186542829957, 0.580125267942342, 0.07655112650332972, -0.6235909427299975, 0.2489376316536369, -0.9073686561288317, 0.740409352893221, 0.8837201093187775, -0.9457123602875995, -0.962173346117051, 0.4275869753219306, -0.48068098007054116, -0.8884365944398457, -0.22529470105653157, -0.4154251266414628, 0.005952689264997772, -0.9853900802779068, -0.9031561797244713, -0.321137339683408, -0.136318022562137, 0.20288891766224593, -0.22230553611537737, -0.9458423144597891, 0.7603830823627612, 0.7512916933834067, 0.53467108731395, -0.8393723004399586, -0.029027394853581523, -0.6916638518251097, 0.14879096696405417, -0.4779355862125574, -0.692652777256257, 0.6755236663441382, -0.6785312917298935, 0.9517320566835419, -0.07884456175512065, -0.795242916558997, -0.2817531264508019, -0.3727247861582729, -0.32767200039352495, 0.09894150767924205, -0.17743705043812374, -0.350187984402861, -0.5886523148809182, -0.3914974158486557, -0.5511105803764519, 0.9296256114642855, -0.620724210840252, 0.3855954269452933, -0.30127696755085487, -0.15913494890254062, 0.9985821880774858, -0.12154351374643226, 0.9063557092682375, 0.74700440055226, -0.1291087385036751, -0.7654409627654626, 0.4537182816804271, -0.700425425340773, 0.9755141378060762, 0.5409437653133236, 0.36432375607386325, 0.5302479427336246, -0.405606132405194, 0.16026461480218113, -0.21753232157794833, 0.4800741507792754, 0.8269784515993698, -0.19311632798963485, 0.6953756238806802, -0.5537332726703009, 0.7033863446379205, -0.4652660925447401, -0.8306545705119159, 0.5023520379341774, -0.9583317501149766, 0.268726325144061, -0.374597643866517, -0.41287167423603965, 0.6423861312048607, 0.7310492751744057, 0.1303980339266515, -0.6323676034308152, -0.7252314205972854, -0.4384309934337478, -0.645359240441781, 0.20849418675996592]}, {"weight": [0.12688298410617405, 0.7866394478800608, 0.0830235250912501, 0.3172044614847005, -0.5908478968130113, 0.1910447210005397, 0.37353738716328505, -0.2833733118195829, 0.32509286272438437, 0.028818292491349425, 0.3338984986955089, 0.8582571245522727, -1.2756557429682078, 0.49160591447893975, 0.7396077678393441, 0.14421426491820566, -0.5387217056278896, -0.4885254712960046, 0.6486899609117045, -0.9936613083519974, 0.6442012686826093, 0.8634416106387676, 0.03770715065600494, 0.7408657627899674, 0.3091420023900225, 0.22194351457765404, -0.3471062032138758, -0.05387387727677617, -0.24578399405410445, 0.39032334149364606, -0.3795314643321017, 0.015440610213182807, -0.2622281685122257, -0.21821929137781734, 0.46257665271811016, 0.627576295510446, -0.6396606104027438, -0.6606186839777026, -0.43419319472873763, -0.7811633296295566, -0.7777835232145305, 0.5905354885685465, -0.07061745783714644, 0.32765928103884234, 0.21640372565840704, -0.9617299131217747, 0.308286209724272, -0.08384478050370237, -0.31627392177868735, -0.5157550177241326, -0.2181099329506548, -0.8818160327755303, 0.154916187995132, -0.9526960510654632, 0.815586407364477, -0.6067081353824424, 0.06582747118169019, 0.32723468281098156, -0.7274230264401089, -0.8987582367437551, 0.12998664070537572, 0.28797029896248333, -0.22083635617323424, 0.578503321323244, -0.9537535721057492, 0.06185161221564561, 0.503620260863642, 0.37731433822683297, -0.1514356410967512, 0.5132190525089873, -0.5532033819218263, 0.7367941941265246, 0.8096010012347195, 0.46635382348904747, -0.31250152008216586, -0.27985737858116483, -0.6699318406466316, -0.37730921655584465, -0.9465567192703055, -0.04584616287440291, 0.6036622762548772, 0.1384471868093166, 0.001788467210827747, 0.7120632925864054, 0.14439212494828282, -0.5425167212204519, 0.10984007673888407, -0.01043238775681793, -0.734141505608138, 0.03251956021867297, -0.9632452057214663, -0.17587065434893098, 0.6145491986952856, -0.5905576534058268, -0.042108070315443946, -0.9201223750997244, -0.3961406769391737, 0.24168656198290073, -0.23696409283420317, 0.8327280668456443, -0.0786662603535294, -0.7652716841199073, -0.05462320962216505, 0.2887153453738909, 0.6918897542949466, -0.8223802541335644, 0.43421265473354836, 0.6850812719952885, -0.30614762211801505, -0.6403498299727902, 0.3578991357450996, -0.9003269466689645, 0.6559442426741845, -0.027766005342907407, 0.24693401108194268, -0.7265287890971952, -0.2359395197579597, -0.5467907124425566, -0.039690037124644834, 0.2924123937020629, -0.7863841772783776, -0.9374551595223001, 0.8934920666520416, 0.939376856102273, -0.845936125328546, 0.22032714792034439, -0.025835204566375447, 0.4566501174618496, 0.23107429677490335, 0.4205510948769234, 0.5277533380076211, -0.2712982052482335, 0.9754580222864948, 0.1056389550345306, -0.5641605668549002, -0.1793522765675146, -0.18567978162542698, -0.7577054935133971, -0.7435967027156221, -0.39558740261208003, 0.11445846428550875, -0.03129523438132041, -0.37061811750599877, 0.2913301300807467, 0.2556103913851784, -0.31364233363434924, 0.8001041630284672, 0.24691417273174943, -0.3198135088341725, 0.3723456521084534, -0.06382308304348663, 0.8867770340470846, 0.3893206910946568, -0.956200439775449, 0.6282581165665799, 0.012863417893692528, 0.5394375143999321, -0.67959262590266, 0.40293158706067755, 0.23012373259236066, -0.8203011743877585, -0.2420097626281985, 0.6573265628238434, -0.05760353951285702, -0.059925446478291455, -0.8729055311936704, -0.06716296602865257, 0.2336672215157225, -0.9692869106608231, 0.8216457816093036]}, {"weight": [-0.8913313954930033, -0.5906053794470388, -0.34080073001631583, 0.7336386209466601, 0.5940724106416839, -0.769993488662801, 0.9379622737569487, -0.4687341377929841, -0.38938721004094407, -0.8655289892182431, -0.201860332751717, -0.86970051893318, -1.34452109904086, 0.11257557069299429, 0.7816814308063903, -0.512696913944511, 0.13014032203756623, -0.37512148670174555, 0.4416213471496211, 0.8766106877062587, 0.35555574451155647, 0.5053587783867044, 0.6123194673712533, 0.2431709986675946, 0.45291146650229425, -0.6610338035700516, 0.3218949135802068, -0.9555889383793106, -0.5424564410044815, 0.19452519456589637, 0.17157691636686478, -0.4250157398626015, -0.37693110070478014, -0.37569626617721535, -0.2644822807003541, -0.9719039454769196, -0.9543550194683237, -0.9740796156917892, 0.8172016512659757, -0.16678797125436162, 0.016792854785396383, 0.40137431622998077, 0.46856077438175686, -0.7066774540097325, 0.9183871736852833, 0.43195837971910356, -0.5989624207643001, 0.399144236812339, 0.8055462211793253, 0.8348933046780516, 0.9255883285872885, -0.6520915048448613, 0.8831218366938819, -0.8222181777411735, -0.20351419249497038, 0.5149422795468848, -0.002202669544848046, -0.4770422510622798, -0.7188922662079742, -0.7743322232220288, 0.7827238690899289, 0.2209330835866408, -0.13275807926692598, -0.34414051565985027, 0.7551416162524011, 0.7427953056255794, 0.3234710077706646, 0.5462526501678054, 0.9041202269538317, 0.533352647698838, -0.8443275236284067, 0.10751594477565685, -0.42116575108032306, -0.17749355870620095, 0.6937152855138088, -0.8783090340019256, -0.746897944721936, 0.43580006833097445, 0.222604922075764, 0.2708189217378121, 0.7388150286801035, -0.62290643452334, -0.5050456889553044, -0.3291661861066393, 0.8256718881324142, -0.9081950267707325, -0.13203642489870804, 0.36931946374417796, 0.15500841583345992, 0.19017310881303318, 0.3160077079175872, -0.8528010025455551, -0.6630258573970609, 0.6017690375420022, -0.34537657423234003, 0.06219806961537436, -0.24590582358273844, 0.49419099296032476, 0.08569386514365242, -0.12873381074634915, 0.1695003986604047, 0.0643217051148371, -0.6318853222965173, -0.6355393008319175, 0.9185970002009461, 0.22915376004281, -0.36339039144471846, 0.6635359182444024, 0.04470174800749427, 0.3495291999620636, -0.4713935688962516, 0.021491382641936507, -0.6828070479527316, -0.6283366632056513, 0.047215482306312895, 0.30132092042786507, -0.3784770284701195, 0.6105411997264756, -0.018817651980337104, 0.6418807553327136, -0.22830311116229748, -0.30586833127170315, -0.7932322932731999, 0.788204314395225, -0.11140259917409145, -0.2031393281801803, 0.22429028299995624, 0.2619447787395637, -0.3688767778322279, 0.7543216959242901, -0.4329679128128179, -0.46225605895122784, 0.9154214240554555, -0.7421956861409568, -0.559995347133169, -0.3940646825642741, -0.8170256957565283, -0.8109046177319534, 0.49692982488687454, 0.5407065350657485, -0.41322099755685876, -0.8238566722106738, -0.5993829221254586, -0.047947530194681454, -0.674325404585234, 0.48078395366675775, -0.7356443760223809, -0.4373580295738324, -0.294498799637664, 0.44216592762543905, 0.9936916525417375, 0.38401788661192326, -0.7792119971198251, 0.7268543127841579, 0.9019771696942875, 0.41169474804366446, -0.47109559153053304, -0.12342556140503169, 0.47624729417662026, 0.29151814842023543, -0.6996019048227197, 0.13717746059699665, 0.5657506921389119, -0.37694557363103737, -0.6144574839321237, -0.7396301606755356, -0.41060366028868556, 0.648970303130006, 0.9286295304047201, -0.7209154847138385]}, {"weight": [0.3633820625277733, -0.6378380194533012, -0.39039406102401064, 0.18355736369860987, -0.11393207987046572, 0.6353595284663665, -0.4328200731253608, 0.5437941398811188, -0.3953937636323936, -0.7156232480545658, 0.7362490615899695, 0.37916434511381875, 0.2664957988250005, 0.6321083231265572, -0.5600689989736402, 0.5400455007439964, 0.9058088711343689, -0.6030102803073744, -0.13635804610754776, -0.8540141448302225, 0.7953061801746555, -0.05533261059829489, -0.9059849895779064, -0.43780700881556006, 0.5005322218489527, 0.9310750806565209, -0.7531748807899309, -0.9712808568388693, -0.878454019625681, -0.3044969386381428, -0.8075099519323174, -0.5467076720598781, 0.7350614227616189, -0.6514414999251265, -0.06027611757783984, -0.7610398967658685, -0.128260577338547, 0.5170807500494385, -0.12917580315617605, 0.033643869599306875, -0.7282352630269031, -0.09180647662372654, -0.06067371263487365, -0.42298587797835596, 0.3624624710834541, 0.9921025340612324, -0.2975936877775258, -0.0006237591028765976, 0.19119947324556644, 0.6061162341937336, 0.7651914804745955, 0.19598999813236698, 0.6477147627608356, 0.9550593306951658, -0.9739265648454216, -0.36863929788197214, -0.7701719690481297, 0.3035160619589776, -0.9757186004855596, -0.36206445553891714, -0.011354111221761611, 0.6623255215569473, 0.8575706153701234, 0.6480915254155897, 0.5534974793610875, -0.5915038252774645, 0.07821020201173412, -0.38200964773194607, -0.5844331105368324, 0.42853056589473604, -0.8888215900629923, 0.6277471784966766, 0.1329839074925161, 0.9996128074689005, 0.46622190171659145, -0.43692215749625446, -0.24277187900919753, -0.4127843691360488, 0.3675301337790218, -0.3829982145261881, -0.0171832425018545, 0.4102327008061775, -0.8579931096384851, -0.6568368241077287, -0.017570546942610368, -0.010658067073990364, 0.6011511845790034, 0.4395579181522407, -0.6111631169896188, 0.33884565688507795, -0.4613107948989454, 0.5490165644075832, -0.7528089056515326, 0.19120001430935485, -0.41804354768311036, 0.034133111433929476, 0.9556403482421422, 0.6090167779377136, -0.0321762689610709, 0.5722169509747552, 0.636225424406263, -0.8555558032191247, -0.13670101803846824, -0.5998096940225939, -0.7519915423322, -0.08075132755666324, -0.3733105531677465, -0.906209076984741, 0.6080933196622338, -0.8150754067548841, 0.3020505998402456, -0.11432913802332201, -0.1810686443462319, 0.5324638865284144, 0.9023434234322645, 0.7038740861746375, -0.6728522013806547, -0.523526631558306, 0.39981873473973534, -0.2703830356860943, 0.6702327347264522, -0.43211941810954085, 0.09495755841567877, 0.9875845118454349, 0.2812301089379978, 0.5419226583118643, 0.4120400243178861, -0.5549573618034584, -0.5160502858528614, 0.07852878545291915, -0.3425183179258191, 0.460369017591644, 0.27483653082924797, 0.5630553782971514, -0.5855351312436884, 0.34612074566493495, 0.5770391395159247, -0.07006496349798419, -0.597067839492569, 0.6372393713805597, -0.4169652941119925, 0.43395906257443767, -0.2509407086072566, -0.3513535778241619, -0.7817971492467137, 0.594395268648898, -0.9355257617977487, 0.06930781367533756, 0.7405207714733357, -0.7375498182403843, -0.5757403151942299, -0.6884529056898956, -0.13476693839598305, -0.7864857983138621, 0.7370598198341154, 0.032617045076968165, 0.6680097170487471, -0.11527743434102372, -0.769867669120671, -0.789777839425046, 0.6609668298436272, 0.22301067706103184, -0.9003449740372647, -0.9800510281196427, -0.3627481135586792, 0.13776335281990115, 0.9949649534582614, 0.4039969139198858, -0.8341996326233827, -0.671199213657553]}, {"weight": [-0.6517366206853537, -0.8331493810098446, -0.36865042821326655, -0.9022321399731941, 0.48570272603016984, -0.8056102696292118, 0.7308355869429012, 0.7967095105871882, -0.5757510297669389, -0.8141259903669283, -0.48465118598086177, -0.6409915006876566, -0.4052923904159911, 0.6994578354640577, -0.8257180668504877, 0.42011380909122553, 0.7344346335901409, -0.9630325123950524, -0.6963409097575184, -0.6800398062297301, -0.7904913990345184, -0.8505863590097166, -0.3741605038689193, 0.9545863362590009, -0.9825169745425012, 0.13375727772022672, -0.7840005132971263, -0.05409062248397212, -0.47008773103077445, 0.7770268104178498, 0.8563634560199243, 0.7850107997927013, 0.24370659329243746, 0.5307023534686152, 0.9480076385138482, -0.15520632336221207, 0.3101189354102625, 0.9362390411702746, 0.8928730673476462, 0.8332262583890813, 0.15787500550288303, 0.5014161455438226, 0.8614446558295904, -0.28083610762683753, 0.2525805934781198, -0.067388739017886, -0.2729355211499598, -0.17179874261213657, 0.7001775248059815, -0.06216177320273886, 0.4695217324454915, 0.5021891568109199, -0.17704732793052755, 0.5899376254489828, 0.5982831640423052, -0.1424550048579678, -0.560327305029946, 0.24380851353958954, 0.9102778374629472, 0.7372684041164216, 0.5344078687115362, 0.6649864072232502, 0.9526423105685301, -0.08054129387327547, -0.8864011559680797, -0.39981912503632944, 0.10346744676061226, -0.2575880827382045, -0.7449461142768511, 0.3878896776451015, -0.433883300704039, -0.22190460171341098, 0.513347674500604, 0.9050541753532019, 0.9473417818950011, -0.011296181040851118, -0.28306110144921764, -0.935509456409429, 0.7461918415639379, 0.6436011740517738, 0.2761301363316229, -0.018635026423257952, 0.383715445762334, 0.920863944856047, 